{"outputToTypes":["(Mobile - Air - Orbital) | (Structure - (Orbital - Land))","(Mobile - Air - Orbital) | (Structure - (Orbital - Land))","(Mobile - Air - Orbital) | (Structure - (Orbital - Land))","(Mobile - Air - Orbital) | (Structure - (Orbital - Land))","Mobile & AirDefense","Fabber - Air - Orbital","(Tank | Bot) & Mobile & Construction","Structure & (MetalProduction | EnergyProduction)","Structure & Construction - (Orbital - Land)","Structure & Teleporter","Structure & AirDefense","(Structure & Defense) - Wall - AirDefense - Orbital","Commander",""],"inputBiasWeights":[0.0059488750994205475,0.003723909379914403,0.0009341725381091237,-0.08443541079759598,-0.22879531979560852,-0.004026122856885195,-0.3311254680156708,0.0043974826112389565,0.002860498381778598,-0.0031240307725965977,-0.19923292100429535,-0.7126868963241577,-0.12186137586832047,0.0015670493012294173,0.00034766545286402106,-0.0025183793623000383,-0.0014361164066940546,0.0013493988662958145,-0.0006810795748606324,0.004155787639319897,-1.3452070951461792,-0.0018256348557770252,0.003354946617037058,-0.035440631210803986,0.0026279340963810682,0.0019891709089279175,-0.0024415163788944483,-0.16775041818618774,-2.085914373397827,-0.8025619387626648,-0.0019433855777606368,0.0011837749043479562,-0.0035607004538178444,-0.16355901956558228,-4.864990711212158,-0.9732137322425842,0.0011968576582148671,-0.057485487312078476,-0.3216429054737091,-0.3053942918777466,-3.006118059158325,-0.12396972626447678,-0.23335757851600647,0.001388868666253984,-0.004802299197763205,0.0011675963178277016,-3.332604169845581,-0.1476026177406311,-0.06851539760828018,-0.005130525678396225,-0.6147106885910034,-0.00023575338127557188,-0.6252657771110535,-0.5497230887413025,0.0028735140804201365,-0.0026413577143102884,-3.2874507904052734,0.0003822493308689445,0.004865551833063364,-0.20677103102207184,-0.12027697265148163,0.00105556461494416,-0.0017201645532622933,-0.0045785983093082905,-0.0006643213564530015,-0.006264338735491037,0.0007676931563764811,-0.011762980371713638,-1.336485743522644,0.0004520187503658235,-0.06938501447439194,-0.34580957889556885,-0.049633875489234924,-3.328115940093994,-0.0035464975517243147,-0.0013069587294012308,0.003940807655453682,0.0016658451640978456,-0.05499572679400444,-0.06102767959237099,-0.0023923530243337154,-0.004083963111042976,0.0022591762244701385,0.0008679485181346536,-0.016819754615426064,-0.17828738689422607,-0.003302325727418065,-0.0003698501968756318,0.002260158769786358,-2.0237412452697754,-0.0032483849208801985,-0.002719233278185129,0.000664849765598774,0.004338957369327545,0.00133954593911767,-0.005048861261457205,0.0046872603707015514,-0.05431901291012764,-0.8426040410995483,-0.04506152495741844,-0.17925989627838135,0.0024376274086534977,0.004847600590437651,0.0022293429356068373,-3.412006378173828,0.0020214072428643703,-0.06002391502261162,0.001708670170046389,-0.0024254745803773403,0.0020048092119395733,-0.325018972158432,-2.557004928588867,-0.06789450347423553,0.003145822323858738,-1.5429717302322388,-0.004252150654792786,-0.12046757340431213,-0.14351704716682434,-0.015934567898511887,-0.002516749780625105,-0.0030190565157681704,-0.002966792555525899,0.0015131032560020685,-0.0003820419078692794,-0.0038648629561066628,-0.42187875509262085,0.0047053685411810875,0.0004933073651045561,-0.00228655687533319,0.004706379026174545,0.0011444638948887587,-1.9009143114089966,0.00034332345239818096,-1.2679729461669922,-0.0012179887853562832,-0.04778674244880676,-0.004456426482647657,-1.0459926128387451,-0.0019637425430119038,-0.05499906837940216,-0.0008816475747153163,-0.004419113043695688,4.454755980987102e-05,-1.65872323513031,0.0017835848266258836,-0.0006021052249707282,-0.03695965185761452,0.0018668905831873417,-0.0010361591121181846,-0.0045423125848174095,-2.5369138717651367,0.00041653774678707123,0.005723143927752972,-0.478848934173584,0.004533540457487106,0.00015969452215358615,-2.646693229675293,-3.540458419593051e-05,0.0047339522279798985,-0.00033363266265951097,0.004287587478756905,-0.0009291922324337065,-0.38958266377449036,0.0038780649192631245,0.0036095567047595978,-0.1630486249923706,-0.0007000140030868351,0.0054312944412231445,-0.002419139724224806,-0.003287343308329582,0.003973871469497681,-0.11703983694314957,-0.0948990136384964,0.00444622291252017,0.0011388233397156,-3.1494860649108887,0.004715321585536003,0.0038272240199148655,-0.5511611700057983,-0.25250181555747986,0.0008767319959588349,0.002774494932964444,-5.6461310386657715,-0.0004961115191690624,-0.0016864301869645715,-0.0035324401687830687,-0.001567064318805933,0.0032170743215829134,5.3900923376204446e-05,0.0015981566393747926,-0.7235355377197266,-0.11811939626932144,-0.18190103769302368,-0.0007894074078649282,-4.428225994110107,0.002782997442409396,0.003666442818939686,-2.0178260803222656,-7.697301953157876e-06,0.00474315183237195,-0.1542750746011734,-0.03150079399347305,-1.8120096921920776,-0.371999055147171,-0.0014532966306433082,-2.6478354930877686,-0.0625503733754158,-0.007987269200384617,0.004561122041195631,0.004271052777767181,0.0019506821408867836,0.0021893789526075125,0.00010333501268178225,-0.0017832103185355663,0.004549204837530851,-0.04646604135632515,0.00020120693079661578,-0.22263430058956146,1.7942475096788257e-05,-0.0010534219909459352,-1.2596654891967773,-0.0042310417629778385,0.0033791265450417995,-0.001693963771685958,0.004396713338792324,0.004071942996233702,-4.070184230804443,0.003301067743450403,-1.0920214653015137,-1.1561285257339478,0.004939783364534378,-0.5437884330749512,-0.0026072922628372908,0.0011899409582838416,-4.342790271039121e-05,0.002493809210136533,-0.002823603805154562,0.0008901669643819332,-2.466184616088867,0.005440050270408392,-0.0006508223013952374,-0.5467488169670105,-1.6603556871414185,0.0017345285741612315,0.0005728707765229046,-0.03527611121535301,0.0011191024677827954,-0.0016932765720412135,8.453236659988761e-05,-0.031709060072898865,0.00363222137093544,-0.0015178326284512877,-0.0011307988315820694,-0.012377588078379631,-1.8746193647384644,-2.3743910789489746,-0.0034867567010223866,0.0033455679658800364,-0.02919924072921276,0.003787111956626177,0.0024305302649736404,-0.2889925539493561,0.0006962246843613684,-1.5755128860473633,0.0011713713174685836,-0.0024129298981279135,-0.0022076498717069626,-0.2773449122905731,-0.004208719823509455,-0.11216676235198975,0.003677461063489318,-0.0026200285647064447,-1.2495055198669434,-0.13366007804870605,-3.234637975692749,0.001257538329809904,0.0036886318121105433,6.606207170989364e-05,0.003414157312363386,0.0034774525556713343,0.0026443570386618376,0.0004521612136159092,-0.1097106784582138,0.0009460218134336174,-0.013019704259932041,0.0029096510261297226,0.005251945462077856,-0.0012288773432374,-0.5210016965866089,0.0042188167572021484,-0.0005847591091878712,-0.9550119042396545,-6.2347893714904785,-0.18706655502319336,0.0050204661674797535,-0.004860946908593178,-2.0174312591552734,0.004155382048338652,-0.6020928621292114,-6.6605098254513e-05,0.003689656499773264,0.0024235211312770844,0.002285988302901387,-0.003976576961576939,-0.19678394496440887,0.001429012161679566,-1.1348189115524292,0.0035641719587147236,0.0008412404567934573,0.002853298792615533,0.0004659653641283512,-0.00012294918997213244,-0.007937642745673656,0.0030157051514834166,-0.00745330099016428,-0.0033615180291235447,0.0032379748299717903,0.00369527586735785,-0.059943314641714096,0.004004260059446096,0.00374353164806962,-0.5881160497665405,0.0002523331786505878,-0.13699831068515778,-0.058501195162534714,-0.00010084763198392466,-0.12475190311670303,-0.00035384600050747395,-0.0035381249617785215,-1.7288845777511597,-1.1597939729690552,0.0007818469894118607,-0.406990647315979,-0.0007163030677475035,-0.9736642241477966,0.0020132355857640505,9.763431444298476e-05,-0.0011935444781556726,-0.1268351972103119,0.004708338528871536,-2.027836561203003,-0.00045449446770362556,-0.0035410705022513866,-0.002283098641782999,-1.0140365362167358,-0.34960150718688965,0.0004823894996661693,-1.0305650903319474e-05,-0.0009575416916050017,0.001787336659617722,-0.678709089756012,-0.21273721754550934,-0.0012476856354624033,0.003714318387210369,0.004713315516710281,0.0013609384186565876,-0.00042925236630253494,0.0002897815720643848,-1.0100131034851074,-2.003279209136963,-0.04494738578796387,-0.042143505066633224,-0.0007894489681348205,-0.1280697137117386,-1.6661303043365479,-0.0022520897909998894,-0.0030417428351938725,-0.0021810203325003386,-0.604873538017273,-0.0008310826378874481,-0.0011343712685629725,0.0014306248631328344,-0.17476458847522736,-2.8080291748046875,-0.0002770857245195657,-0.002287158975377679,0.004162232391536236,-0.18894463777542114,0.0019882177002727985,0.004451874643564224,0.00044029849232174456,-0.3872814476490021,-0.04137825965881348,0.0007662082789465785,-0.0030858248937875032],"outputActivationType":"Sigmoid","hiddenActivationType":"Exponential","inputWeights":[-0.004867722280323505,-0.0027159021701663733,-0.0044258711859583855,-0.00174433970823884,0.00030106864869594574,-0.0009003612212836742,0.004158567171543837,0.000981852412223816,0.003714547958225012,-0.00032562296837568283,0.003371377009898424,0.0003933720290660858,0.003677013795822859,0.0037533105351030827,-0.004941260442137718,-0.0008920421823859215,-0.004216180182993412,0.0014983918517827988,-0.0028793606907129288,-6.603030487895012e-05,0.0020192270167171955,-0.0015332307666540146,0.0010167146101593971,-0.003938017413020134,-0.0024312748573720455,0.00037091970443725586,-0.0051590497605502605,-0.005074110813438892,-0.002958933124318719,-0.0037567708641290665,-0.004641390405595303,0.00014813896268606186,0.005112540442496538,-0.0031844547484070063,0.004481832031160593,-0.0020457960199564695,0.0038818963803350925,-0.0011391909793019295,-0.0007793526165187359,-0.0010003522038459778,-0.0012208838015794754,-0.0010626059956848621,0.003931718412786722,-0.0005331682041287422,0.0036799688823521137,0.0014147954061627388,-0.0018923906609416008,0.0043336558155715466,0.0016256296075880527,0.0022664652206003666,-0.0021967787761241198,0.002992707770317793,-0.0013820931781083345,-0.0035671419464051723,-0.001271603163331747,0.0001596328802406788,0.005040412303060293,-0.0015707833226770163,-0.004969163332134485,-0.005111115984618664,-0.0033192671835422516,-0.0022783316671848297,0.0022856565192341805,0.0019639115780591965,-0.004661449696868658,-0.0012243394739925861,0.0025006080977618694,-0.0010371268726885319,-0.0004922719672322273,0.0009567458182573318,-0.0048570940271019936,0.0017028981819748878,-0.0018250204157084227,-0.0006845896132290363,-0.0022735868114978075,0.001655537635087967,0.0012962277978658676,0.005140892695635557,0.003970286343246698,-0.004964119754731655,0.0029092072509229183,0.0023960843682289124,0.004891711752861738,-0.00047007203102111816,0.003178827930241823,-0.001395275117829442,-0.0012844591401517391,-0.004129665903747082,-0.0010812957771122456,0.002677160780876875,-3.5703182220458984e-05,-0.0002297786995768547,0.0005471440963447094,-5.738995969295502e-05,0.004820725414901972,-0.0017218850553035736,-0.003487941110506654,-0.0031380602158606052,0.001592243555933237,-0.0015492700040340424,0.0028093098662793636,0.002816577907651663,0.002358104567974806,6.737140938639641e-05,-0.0023983707651495934,0.004425902385264635,-0.00022574467584490776,-0.0041496832855045795,0.0049822102300822735,-0.005135287065058947,-0.0004246947355568409,0.000903707928955555,-0.004819123074412346,0.004103167448192835,0.0011810599826276302,0.003347520250827074,-0.0010529444552958012,0.0015325583517551422,0.0046716476790606976,-0.005143761169165373,0.004525937605649233,-0.004074078984558582,0.0014840285293757915,-0.004726971033960581,0.0001001446507871151,0.004416333977133036,-0.00013948557898402214,-0.0010610842145979404,0.004845044109970331,-0.003499790094792843,0.0047756885178387165,0.004222635645419359,-0.001832169247791171,0.002579526510089636,-0.0019836709834635258,-0.004942262079566717,0.005033231806010008,0.002179727889597416,-0.003521899227052927,0.001515137031674385,-0.0023450986482203007,0.0011219233274459839,0.0036830208264291286,0.0037992759607732296,-0.003825751133263111,-0.000746267382055521,0.004372984636574984,0.0032279877923429012,0.0005253171548247337,-0.0025297487154603004,-0.0028407033532857895,-0.0009115217253565788,-0.0042317453771829605,0.00497526815161109,0.0005552987568080425,-0.00425731111317873,0.0008359053172171116,-0.004854511935263872,-0.0025942863430827856,0.00015559140592813492,0.0005845725536346436,-0.003491555340588093,0.0020094411447644234,-0.004352744203060865,-0.002799707930535078,0.0019514639861881733,-0.004870324395596981,-0.0037109919358044863,0.004077267367392778,0.0024157422594726086,-0.0012170756235718727,0.003991617355495691,-0.0041043502278625965,-0.002903054002672434,-0.0038036617916077375,0.004964612890034914,-0.0036845430731773376,0.0018615387380123138,0.004552345257252455,-0.0004103686660528183,-0.001275043934583664,-0.00358667247928679,-0.0014005647972226143,0.001179929357022047,-0.0024212452117353678,0.00034528225660324097,-0.0019305502064526081,-0.005035375710576773,-8.843047544360161e-05,-0.002457825466990471,0.0004176199436187744,0.0013082381337881088,0.00020672334358096123,-0.0032618893310427666,0.003155691083520651,-0.003444499336183071,0.003230221103876829,-0.0028545998502522707,0.0013897600583732128,0.0013653370551764965,-0.0020241080783307552,0.0006418414413928986,0.004270349163562059,-0.0010454747825860977,-0.0014064304996281862,-0.003739930223673582,-0.004665801767259836,0.0033838567323982716,0.004129969980567694,0.004846102092415094,0.0027448455803096294,0.0036256141029298306,-0.000703650526702404,-0.0012230239808559418,0.001054595224559307,0.0033811829052865505,0.0011547338217496872,0.00480736093595624,0.004930675495415926,0.0026013310998678207,0.004287623334676027,0.005130566190928221,-0.0025256515946239233,0.001281252596527338,0.0008311285637319088,0.0038099014200270176,-0.0008158236742019653,-0.00434919074177742,-0.001342985313385725,-0.0027328997384756804,0.001435636542737484,-0.0036791665479540825,-0.0036453865468502045,0.002567077986896038,0.0021984423510730267,0.001829627901315689,0.001944132149219513,0.002228320576250553,-0.004622540902346373,0.004916040692478418,0.0008339211344718933,-0.0009491425007581711,-0.0036215968430042267,0.002066459972411394,-0.0030313762836158276,-0.005052976310253143,-0.003469605930149555,-0.004743625409901142,-0.0027928920462727547,-0.004654197953641415,0.0014435150660574436,-0.00321390712633729,-0.004216958303004503,-0.0010155080817639828,0.0020464612171053886,-0.0012738388031721115,0.002185241784900427,0.0017714365385472775,0.002334908116608858,-0.0010273102670907974,0.003837868105620146,0.001804071944206953,-0.0007472606375813484,0.0008100969716906548,7.512466982007027e-05,-0.00457565626129508,-0.002803466748446226,-0.0022805845364928246,0.0020881476812064648,-0.0005127610638737679,0.0045223417691886425,-0.004781687166541815,-0.000982076395303011,0.0034506809897720814,0.0036298618651926517,0.0023063672706484795,0.004689191933721304,-0.000488718505948782,-0.0025703206192702055,-0.0015797256492078304,-0.0006986148655414581,0.0008130567148327827,0.001171499490737915,-0.0031262743286788464,-0.0017824543174356222,-0.004240089096128941,0.004155717324465513,0.004621579777449369,-0.0049282256513834,0.0031727286987006664,0.00439435662701726,-0.0038192560896277428,-0.001053785439580679,-0.003240278223529458,-0.0015702210366725922,0.0021417122334241867,0.003722404595464468,0.003900462295860052,-0.0002504470758140087,-0.002797625958919525,-2.4843961000442505e-05,0.0038453335873782635,0.004651286173611879,0.00023907888680696487,0.004597066435962915,-0.003674762323498726,0.0035607866011559963,-0.0028128065168857574,-0.0018081788439303637,-0.001969810575246811,-4.6007800847291946e-05,-0.0035958178341388702,0.0016249371692538261,0.004842475522309542,-0.0007416652515530586,-0.003693836973980069,0.002244577743113041,-0.001311812549829483,-0.0035035032778978348,-0.001456815516576171,-0.004026873502880335,0.0048818388022482395,0.0016158041544258595,0.0013752602972090244,-0.0010558576323091984,0.005001293029636145,0.0005961754359304905,-0.004717842675745487,-0.0050684805028140545,0.0021562613546848297,-0.0017516964580863714,-0.0016871723346412182,-0.0012786639854311943,-0.0026153253857046366,0.003278817515820265,0.0008062673732638359,-0.000739936251193285,-0.0028731084894388914,-0.004968664143234491,-0.002694572089239955,0.0019129738211631775,0.00396256847307086,0.002112849149852991,0.0028205211274325848,-0.004344007465988398,0.0003967396914958954,-0.0034021958708763123,-0.003505856730043888,0.002656863536685705,-0.0017614178359508514,0.00419089337810874,0.0003503924235701561,-0.003409547731280327,0.0011264714412391186,0.0014704009518027306,-0.0011723628267645836,-0.0027887008618563414,-0.0032748766243457794,-0.0007134946063160896,-0.0017109040636569262,8.318014442920685e-05,0.0002430272288620472,-0.0021846287418156862,0.002126267645508051,-0.004758968483656645,-0.003689670469611883,0.0032772845588624477,0.0010146438144147396,-0.0003631245344877243,0.0031840656884014606,0.002775351982563734,0.0041966806165874004,-0.005044326651841402,-0.005141637288033962,-0.0023657327983528376,-0.004860598128288984,-0.0048776366747915745,-0.0005020848475396633,0.001997093204408884,-0.0016378303989768028,-0.001222217921167612,0.003406061325222254,0.0015032892115414143,-0.002191563369706273,-0.0010499022901058197,-0.004607278387993574,0.00013168156147003174,0.0019037085585296154,-0.0019570733420550823,-0.0035732430405914783,-0.001057441346347332,0.0019564898684620857,0.004791209939867258,-0.003615872235968709,0.0016002706252038479,0.00015896279364824295,-7.048994302749634e-05,0.0021945047192275524,-0.0010873149149119854,0.004025942180305719,0.004157801624387503,-0.000295526348054409,0.00451792823150754,-0.003100816160440445,-0.0007147281430661678,0.0019704559817910194,-0.0025258855894207954,-0.0004117409698665142,0.002083493396639824,-0.0003762156702578068,-0.0011095814406871796,-0.002609245479106903,-0.0019687763415277004,-0.004431674722582102,-0.0031012757681310177,-0.0010021035559475422,0.0036378088407218456,-0.0013177660293877125,0.002006497234106064,-0.0029207353945821524,0.0027206032536923885,-0.00480706337839365,0.003135864157229662,0.0026214043609797955,0.0019282256253063679,0.003620023373514414,6.948458030819893e-05,-0.0016275132074952126,0.002382132224738598,0.0035333610139787197,-0.0021433718502521515,-0.004630914889276028,0.001041861716657877,-0.0015597925521433353,-0.004107403568923473,0.0005069621838629246,0.004040732514113188,0.002494866494089365,0.002719306852668524,-0.0012915115803480148,0.0019600200466811657,-0.0026252151001244783,0.0006140409968793392,-0.0022165942937135696,-0.0006421273574233055,0.0009303400292992592,-0.004915948025882244,0.004240684676915407,-0.004106439650058746,6.957724690437317e-05,0.004893639590591192,-0.0017303144559264183,0.0007420973852276802,0.00364202493801713,-0.004644552245736122,0.0029727290384471416,-0.00512321013957262,-0.0029158727265894413,-0.001522701932117343,-0.001982479589059949,-0.002905018161982298,-0.0033916968386620283,0.004565818700939417,-0.0030838148668408394,0.004416633863002062,0.0019281040877103806,0.001404893584549427,-0.003058284753933549,-0.0005078190006315708,0.000771018210798502,0.004753810819238424,-0.0033708312548696995,0.0030411086045205593,-0.0042767636477947235,-0.0010179434902966022,-0.005008505657315254,0.004541346337646246,0.0011461134999990463,0.0016547399573028088,-0.0021519064903259277,-0.003093950916081667,-0.0022432017140090466,0.004944357555359602,0.0017324904911220074,0.004108353052288294,-0.002494351239874959,-0.0005438420921564102,-0.0026088713202625513,6.705522537231445e-06,0.004617294762283564,0.0030463295988738537,-0.0025346865877509117,-0.0006875162944197655,-0.0010539265349507332,0.0025241514667868614,0.0008848425932228565,-0.0018975306302309036,-0.004101971164345741,-0.0016355104744434357,-0.004300891421735287,0.0014820508658885956,0.00028053391724824905,-0.0031119941268116236,-0.0035928389988839626,-0.0043030292727053165,-0.0035866538528352976,0.004424708429723978,0.0038999528624117374,0.0035757464356720448,-0.0014184517785906792,0.004094670061022043,0.005134123843163252,0.003990956116467714,-0.003551886882632971,-0.001789615722373128,-0.001517638796940446,0.0016711694188416004,0.0027990923263132572,0.0020378767512738705,-0.0015280325897037983,0.0012698979116976261,-0.0007368642836809158,0.002647410612553358,-0.0022575650364160538,-0.0026760781183838844,0.004908196162432432,0.0002047661691904068,0.0034611052833497524,-0.0044126929715275764,-0.004104902967810631,0.0022472506389021873,0.00036250660195946693,0.002758717630058527,0.0017216596752405167,-0.0015527713112533092,0.001749314833432436,-0.004412670619785786,0.0002223053015768528,-0.000255415216088295,-0.0022582116071134806,-0.0010024751536548138,-0.003350162412971258,-0.0031641018576920033,-0.003363578114658594,-0.0038533098995685577,-0.00022147176787257195,0.001246531493961811,-0.0033799530938267708,-0.0012319749221205711,-0.0013153322506695986,-0.002753157401457429,0.00010756449773907661,-0.004683987237513065,0.005124780815094709,0.0033224658109247684,-0.004156272392719984,-0.0001942794770002365,0.00375711964443326,-0.0011645364575088024,0.005001769866794348,-0.00364561821334064,-0.0004670652560889721,-0.004066456109285355,-0.005080874543637037,-0.0029640085995197296,-0.005168032832443714,0.0008878917433321476,0.00022181589156389236,-0.0004512057639658451,0.0021211649291217327,0.0013236873783171177,-0.001092041376978159,-0.0003011147491633892,0.0005937316454946995,0.0028717820532619953,0.0024513481184840202,-0.0038879779167473316,-0.002014057245105505,0.005108836572617292,0.0008266880176961422,0.0015201293863356113,-0.0012228209525346756,-0.0047836909070611,0.0006869477219879627,0.0005197413265705109,-0.0041246176697313786,0.003738079685717821,0.004033102188259363,-0.0026099514216184616,0.0025604707188904285,0.0011893357150256634,-0.0010673175565898418,0.0012330301105976105,-0.0008537690155208111,0.0018845275044441223,0.0019099530763924122,-0.004019401501864195,-0.0025136724580079317,0.0018158811144530773,0.003500718157738447,0.0027271690778434277,0.0030624219216406345,-0.00416577560827136,0.001877439208328724,-0.000946535263210535,-0.0007286504842340946,0.00404714560136199,0.0010626036673784256,0.0051037040539085865,-0.004778309725224972,0.00445648143067956,0.000730893574655056,0.004857477266341448,0.0029188725166022778,-0.0009799967519938946,0.00035626301541924477,-0.00019231019541621208,0.000932035967707634,-0.0030741344671696424,0.002830571960657835,0.00019404524937272072,-0.004156771581619978,-0.0024655924644321203,-0.004266928415745497,0.0028372439555823803,0.004314519930630922,-0.00024960143491625786,-0.0019736685790121555,0.003293823916465044,-0.0014331296551972628,0.004988534841686487,-0.00011268723756074905,-0.002616646932438016,-0.0012767976149916649,0.0008996296674013138,0.005046234931796789,0.003272362519055605,0.003621005918830633,-0.004609999712556601,0.002116031013429165,-0.0048549179919064045,-0.0037329252809286118,-0.0028611961752176285,-0.0036364146508276463,-0.0009518871083855629,0.0007268982008099556,-0.003241728525608778,-0.004252515267580748,-0.001681970665231347,0.0035207639448344707,0.0018869014456868172,0.002108559012413025,0.00020112516358494759,-0.003276892937719822,-0.001251670066267252,0.004933077376335859,-0.0036014332436025143,-0.0008225454948842525,-0.0007103015668690205,-0.0008846097625792027,0.0022454112768173218,0.004280953202396631,0.00446327356621623,-0.004358950536698103,-0.0018572942353785038,-0.0001813899725675583,0.002302185632288456,0.0037420610897243023,0.00123274652287364,-0.0025005736388266087,-0.000837328378111124,0.002711004111915827,-0.0022730864584445953,0.0047117979265749454,-0.0014003345277160406,0.00019839033484458923,0.0034240507520735264,0.004796857479959726,-0.002155974041670561,0.0029574823565781116,-0.0010431832633912563,0.003428120631724596,-0.0011704680509865284,0.001235306728631258,-0.002621212275698781,0.001864199060946703,0.0022086328826844692,0.00348286097869277,-0.004250359255820513,0.004696608986705542,-0.0003600926138460636,0.003919077571481466,-0.0018605294171720743,-0.0013987775892019272,-0.004355041775852442,0.0038080005906522274,0.00474368454888463,0.0007743858732283115,0.001576603390276432,0.001840711571276188,0.004013072233647108,0.00377918453887105,-0.00244446424767375,-0.0009603351354598999,0.0033061313442885876,-0.004470143932849169,-0.000977164600044489,0.0036241826601326466,-7.310090586543083e-05,-0.0011018109507858753,-0.0039631882682442665,0.0021854708902537823,-0.0020461292006075382,-0.0035703324247151613,-0.002182036405429244,0.003214880358427763,-0.0035557362716645002,0.0010815942659974098,-0.0045373085886240005,0.00399231119081378,-0.004590676166117191,0.0004676980897784233,0.00024652620777487755,-0.004071481991559267,-0.002698006574064493,0.0006604678928852081,0.0033148094080388546,-0.0011455249041318893,-0.004435608629137278,-0.0024705948308110237,-0.0023972969502210617,0.0044951974414289,0.0003831963986158371,-0.0046969810500741005,0.002615033183246851,0.004497282672673464,0.0018971329554915428,0.0040308828465640545,-0.0011289175599813461,0.0036375592462718487,-0.0025744785089045763,-0.0028061990160495043,0.0039731902070343494,-0.00444394163787365,-0.004857868421822786,0.0033404515124857426,-0.0021280560176819563,-0.00016475794836878777,0.004993910435587168,-0.003230150556191802,0.0034886994399130344,-0.004039952531456947,0.0009120223112404346,0.0030392534099519253,-0.0010138633660972118,0.003566125873476267,0.0036979452706873417,-0.0023871087469160557,-0.0030584100168198347,-0.004730809014290571,0.00436864560469985,0.005108289886265993,0.0006857910193502903,-0.002586974063888192,-0.002492619678378105,-0.002317932667210698,0.001671385020017624,-0.004605233669281006,0.0019728648476302624,-0.0034902472980320454,-0.002712180372327566,-0.004246839322149754,0.004187196958810091,-0.0038439291529357433,-0.0017402772791683674,-0.002544037764891982,-0.005129020195454359,-0.0030828944873064756,0.005187806207686663,-0.004364633001387119,-0.0005547697655856609,0.0033227954991161823,0.0025817425921559334,-0.004750008694827557,-0.0026493752375245094,-0.0016844971105456352,0.0007733195088803768,0.0017879214137792587,-0.0035716043785214424,9.077508002519608e-05,-0.00382705288939178,-0.0036875191144645214,-0.005159046035259962,-0.0002822629176080227,-0.005189328454434872,-0.0006930832751095295,0.002319623250514269,-0.0034032349940389395,0.004623239394277334,-0.003239900339394808,0.0016384469345211983,-0.0040687136352062225,-0.0020546591840684414,-0.0030123102478682995,-0.004813235253095627,-0.00016058888286352158,0.0023733596317470074,0.0014501730911433697,-0.0007236134260892868,8.44770111143589e-05,-0.0033021492417901754,0.0039063566364347935,-0.0017987003084272146,0.00214401725679636,0.0033712037838995457,0.0009729932062327862,0.0020105335861444473,-0.0014399378560483456,-0.004239344969391823,-0.0029108617454767227,0.004974791314452887,0.004982736427336931,-0.0014324102085083723,-0.004287531599402428,-0.0015838497783988714,-0.003108683507889509,-0.003151815617457032,0.0027032908983528614,-0.0014759113546460867,0.0018713208846747875,0.004280282650142908,-9.740469977259636e-05,0.0016135773621499538,0.002759621012955904,-0.0014303901698440313,0.002484317868947983,-0.0009975121356546879,0.0012453277595341206,0.004686180967837572,0.0026137586683034897,0.0011877268552780151,0.001330297440290451,-0.0006802384741604328,7.935427129268646e-05,-0.00450871093198657,0.004101157654076815,-0.0031571683939546347,0.0006511923857033253,0.0007093837484717369,-0.0022083157673478127,0.0012263385578989983,0.000980997458100319,-0.004257950000464916,-0.0008575674146413803,0.0006648111157119274,0.0020268564112484455,0.00497248163446784,-0.0010531377047300339,0.0027201506309211254,-0.0006754281930625439,0.004255425650626421,0.0008795899339020252,0.004765199963003397,-0.0012720255181193352,-0.0011342335492372513,0.0002591344527900219,-0.0014238245785236359,-0.0001455368474125862,-0.0027393526397645473,0.003746297676116228,0.0006273654289543629,0.0009184996597468853,-0.0006354255601763725,0.0026707747019827366,-0.00012014945968985558,0.0048200334422290325,0.001717700157314539,-0.002536367392167449,-0.002114878036081791,0.0012573129497468472,0.002150308806449175,-0.0006091375835239887,-0.0007729209028184414,-0.002385372295975685,-0.004332663491368294,-0.0010853270068764687,-0.0017790545243769884,0.0001394348219037056,-0.0031841823365539312,0.0009445794858038425,0.0014187777414917946,0.004029931966215372,0.002077271230518818,-0.0022807035129517317,0.002908409107476473,-0.002672236179932952,0.0035258247517049313,-0.0021788410376757383,0.005052183289080858,0.0011890586465597153,-0.002716790186241269,0.0039803809486329556,0.0019367686472833157,-0.00491415336728096,0.002519072499126196,0.004701395984739065,0.0027655926533043385,-0.00011287163943052292,0.0026248632930219173,0.0010430337861180305,0.0043411762453615665,0.00044063199311494827,-0.0002275332808494568,0.0016318494454026222,0.002983261365443468,-0.003931252285838127,0.0009616403840482235,0.002651731949299574,0.004710248205810785,-0.0008271140977740288,-0.00491247046738863,0.0041833058930933475,0.003919790033251047,0.00392512371763587,-0.002614713506773114,0.002082564402371645,-0.0034302736166864634,8.660834282636642e-05,0.002711974550038576,-0.004690870177000761,-0.0027875120285898447,-0.005194803699851036,-0.004825303331017494,-0.001149575226008892,-0.002863371279090643,-0.004618394188582897,-0.004842020105570555,-0.00022357096895575523,0.00022965483367443085,0.0013980073854327202,-0.004021603614091873,0.004587835166603327,0.004456690978258848,-0.003505291882902384,0.0012042406015098095,-0.004734007176011801,0.0024575432762503624,0.0015370999462902546,0.0036129080690443516,0.002745244186371565,-0.0003176652826368809,-0.004819950554519892,0.0015779631212353706,-3.8959551602602005e-05,0.0037101604975759983,0.0018738624639809132,0.00402682414278388,0.0036808806471526623,-0.000985776074230671,0.0014315210282802582,-0.0020689319353550673,-0.002267022617161274,0.002964430022984743,-0.004055439494550228,-0.004557373933494091,-0.003763435408473015,0.002071433700621128,0.0009144931100308895,0.0018232804723083973,-0.000813562422990799,-0.0029464373365044594,-0.001128215342760086,-0.004631358198821545,-0.0009256298653781414,-0.0003611934371292591,-0.003311311826109886,0.004532828461378813,-9.402120485901833e-05,0.0014621475711464882,-0.004003429319709539,0.0030887327156960964,0.0031008883379399776,-0.004285946022719145,0.0009502782486379147,0.004566993098706007,-0.0006595216691493988,-0.004344146233052015,-0.0010052546858787537,0.004889910575002432,-0.0005246312357485294,0.0012761326506733894,0.0034746346063911915,-0.0048692901618778706,0.00029687024652957916,-0.004550038371235132,0.003342051524668932,-0.0028030036482959986,0.004380138125270605,0.004357840400189161,0.0038352939300239086,0.00195978581905365,0.003963160794228315,0.0050344704650342464,-0.0010026670061051846,0.0013352134265005589,-0.002959588309749961,-0.0038776695728302,0.0009301295503973961,-0.0016463403590023518,0.0027777724899351597,0.0004191645421087742,-0.0016837366856634617,0.004937245976179838,-0.0024103610776364803,0.005140910390764475,0.0002735015004873276,-0.003233731258660555,0.004862103145569563,0.003627935890108347,0.0019955486059188843,0.0008788630366325378,-0.0038016517646610737,-0.0030119423754513264,-0.0032791050616651773,-0.00447347667068243,0.004996905568987131,0.003584453370422125,-0.003560703946277499,0.0034981914795935154,-0.0010913391597568989,-0.0022224821150302887,-0.00264863227494061,-0.005026121158152819,0.0013602576218545437,-0.003638231661170721,0.0029620504938066006,0.0034126988612115383,0.0008017430081963539,0.003789822105318308,-0.002871001837775111,0.00506616523489356,0.0019224327988922596,-0.004663151688873768,0.0035362388007342815,-0.0023664189502596855,0.003023251425474882,0.0001066070981323719,-0.004948098212480545,7.893936708569527e-05,-0.002022732049226761,-0.0033169002272188663,-0.0023957041557878256,0.003983484115451574,0.004117839504033327,-0.003474532626569271,0.003110941033810377,0.004219471011310816,0.004595480393618345,0.0011093425564467907,-0.0004419339820742607,-0.002901604864746332,0.0002933512441813946,0.0003588874824345112,-0.0013715135864913464,0.003303677309304476,-0.0017163895536214113,-0.0010106940753757954,-0.0024306185077875853,-0.0007834411226212978,-0.004717624746263027,0.0018554488196969032,-8.675223216414452e-05,-0.0003929273225367069,-0.00042707379907369614,0.002702676225453615,0.0016837650910019875,0.0021815248765051365,0.0037467102520167828,0.004321141634136438,0.002601874992251396,0.0011985208839178085,-2.8995331376791e-05,0.0030629667453467846,-5.475711077451706e-05,-0.004959257319569588,-0.0038232863880693913,-0.002649684902280569,0.003957462031394243,0.0012152399867773056,-0.0034257592633366585,0.004202570300549269,-0.00367209454998374,-0.0034380985889583826,-0.000570518895983696,-0.0010077650658786297,-0.002298341365531087,0.0031399675644934177,-0.0042190090753138065,0.0038709095679223537,-0.0016910440754145384,0.00061836838722229,0.0024934224784374237,-0.0009129103273153305,-0.00014736736193299294,0.0006269915029406548,0.005112267564982176,0.0029464648105204105,0.0016412385739386082,-0.0041532134637236595,0.0023050853051245213,-0.0019606552086770535,0.0023389034904539585,-0.004720769356936216,-0.00382539676502347,0.003556081559509039,-0.004466360434889793,0.0026252721436321735,-0.004309666343033314,-0.004591202363371849,8.550751954317093e-05,0.0030626035295426846,0.003195215482264757,0.0045867725275456905,0.0036941044963896275,-0.0020500468090176582,0.004723257850855589,-0.0012601111084222794,0.001905274111777544,0.0011988440528512,-0.005070208106189966,0.0010610888712108135,0.0035301600582897663,0.0015325965359807014,0.004702880512923002,0.001998294610530138,0.0022164839319884777,-0.0032418472692370415,-0.003518951591104269,-0.00020036567002534866,0.0011479947715997696,-0.0017451273743063211,0.004998133983463049,0.0029497244395315647,0.00016434304416179657,-0.00405211141332984,0.0030073472298681736,0.0038173762150108814,-0.0008679288439452648,-0.0011361506767570972,0.0023090695030987263,0.004703065846115351,-0.005108299199491739,0.0032061985693871975,0.0050829327665269375,0.0038117733784019947,0.003294649999588728,0.0013942038640379906,-0.0039575970731675625,-0.002793575869873166,-0.0016167343128472567,0.0043502734042704105,0.0031306552700698376,0.001621860545128584,-0.0014404668472707272,0.004322035703808069,0.002254283055663109,1.5506520867347717e-06,0.0002531101927161217,0.0005962210707366467,-0.0030172644183039665,-0.003180849365890026,-0.003628765232861042,-0.0011255228891968727,0.004699284676462412,0.0009698704816401005,0.003962902817875147,-0.00412534736096859,1.1123251169919968e-05,0.003955003339797258,0.00042046885937452316,-0.0016919816844165325,-0.0009481268934905529,-6.997352465987206e-05,-0.004841311369091272,0.00041029276326298714,-0.004015387501567602,-0.004298994317650795,-0.00479462742805481,0.0023835827596485615,0.000529327429831028,0.0032651047222316265,0.0013903863728046417,0.005087618250399828,0.001744080800563097,-0.001641746610403061,0.001880323514342308,0.0030145137570798397,-0.003364499658346176,0.002411643974483013,-0.0021438621915876865,0.0036755376495420933,-0.0019550162833184004,-0.00020958809182047844,-0.002461407333612442,-0.0015111886896193027,0.0028676590882241726,0.004650534596294165,-0.0028259672690182924,0.0025718342512845993,-0.0011335024610161781,0.0005014976486563683,-0.004014738369733095,-0.0001390976831316948,0.0030360319651663303,-0.0010543190874159336,-0.0041962191462516785,0.0043382602743804455,-0.0033259540796279907,0.0029074097983539104,0.002257338259369135,-0.003386483760550618,-0.003958345390856266,0.002482166513800621,-0.0016482551582157612,8.838716894388199e-05,-0.001336501445621252,0.0026318677701056004,-0.0006017810665071011,0.0009655295871198177,2.0611565560102463e-05,0.0026741153560578823,-0.004939253907650709,-0.0013692446518689394,0.00471850810572505,-0.0005129170604050159,0.00425758445635438,-0.0023775396402925253,0.003287586849182844,0.001290637068450451,-0.002509735058993101,0.004086630884557962,-0.0048200348392128944,0.001859394833445549,-0.0045868526212871075,0.004935041535645723,-0.002905056579038501,-0.0027039824053645134,0.0020087813027203083,-0.0030473226215690374,-0.0005814600735902786,-0.002606793073937297,-0.001729064853861928,-0.00429954519495368,0.0012386669404804707,0.0021222857758402824,-0.0006354195065796375,-0.005132042337208986,0.003372366074472666,0.0036044358275830746,-0.003984073176980019,-0.0009861909784376621,0.0048049739561975,0.001046421006321907,-0.004580303095281124,0.003533803392201662,0.002934390213340521,0.0028259404934942722,-0.004089009948074818,-0.0031461145263165236,-0.0006668064743280411,-0.0029068116564303637,-0.004372681025415659,0.004366234410554171,-0.0027889213524758816,-0.005027386825531721,0.0020586769096553326,0.0039790621958673,0.004512686748057604,-0.0050241174176335335,0.002045611385256052,0.0005856268107891083,0.0023552710190415382,-0.0016968206036835909,-0.0003859717398881912,-0.0004352196119725704,0.0030461917631328106,0.004676906857639551,0.00010415865108370781,0.005064701195806265,-0.0015474604442715645,0.003165563102811575,0.004444352816790342,-0.004297059495002031,-0.001885084668174386,-0.004361946601420641,-0.00514275161549449,-0.0023367968387901783,0.00036993762478232384,-0.004486739169806242,-0.0040018935687839985,0.0041626314632594585,0.0027345470152795315,0.0033173239789903164,0.003829458262771368,-0.004131201654672623,0.0033332468010485172,0.0041793459095060825,0.005109076853841543,0.003429096657782793,-0.001536424970254302,-0.000391883309930563,0.004113597329705954,0.0007196436636149883,-0.002186787547543645,0.002576771192252636,0.0007281601428985596,0.0039648315869271755,0.004259489942342043,0.0031169294379651546,3.439048305153847e-05,-0.0034966603852808475,-0.0007074442692101002,0.0025312351062893867,-0.0028321773279458284,0.003148933406919241,-0.002472647000104189,0.0020455881021916866,0.003935432527214289,0.0024001705460250378,-0.003313927911221981,0.0049361311830580235,0.00011654896661639214,0.0009494321420788765,0.000551669392734766,0.0017112246714532375,-0.0026270754169672728,-0.0046223788522183895,0.0010352865792810917,-0.002278628759086132,0.003966378513723612,0.00013824831694364548,0.0032057403586804867,0.0009451322257518768,0.001803101971745491,-0.0033005145378410816,0.004094900097697973,-0.003058402566239238,-0.0011145975440740585,0.004256791900843382,-0.0032386011444032192,0.00478594982996583,0.004454956855624914,-0.0018287484999746084,-0.0028341440483927727,0.0002918355166912079,-0.0049794260412454605,-0.0038833036087453365,0.003124625887721777,-0.0012233038432896137,-0.0022615408524870872,0.0038845879025757313,0.0016676108352839947,-0.00031549902632832527,0.003672294784337282,-0.004598815459758043,3.25934961438179e-05,-0.0015170802362263203,0.0032568625174462795,-0.0031897902954369783,0.002007459755986929,0.0015161773189902306,-0.0021863863803446293,0.0009032892994582653,-0.0013995924964547157,0.003992777783423662,0.0023442069068551064,-0.002038405742496252,-0.0006759706884622574,0.003044723067432642,0.001074435655027628,0.0004500388167798519,-0.003262260928750038,0.001818150281906128,0.0038135903887450695,0.00021605193614959717,-0.0033346223644912243,0.0035986858420073986,-0.0008324747905135155,-0.004408308770507574,-0.003803758416324854,0.002543100155889988,0.0025558965280652046,0.004761105868965387,-0.000596171710640192,-0.0007237447425723076,-0.004790288861840963,-0.0019008698873221874,-0.002883248496800661,-0.004253320395946503,-0.0021469141356647015,-0.001207287423312664,0.001595054753124714,1.7099082469940186e-05,0.0012664594687521458,-0.001013399101793766,0.00492298835888505,0.003596638794988394,-0.00271751475520432,0.002100778743624687,-0.002897219266742468,0.00118540832772851,0.004387993831187487,0.0022709225304424763,0.0024288101121783257,0.004941444378346205,0.0009921332821249962,-0.0032151914201676846,0.0005616410635411739,-0.0049546561203897,0.0014661885797977448,0.003141432534903288,-0.0029501060489565134,0.005100613925606012,0.0003292318433523178,0.004104366060346365,0.001956033054739237,0.0010349247604608536,-0.00319409416988492,-0.0026636000256985426,0.0051132445223629475,0.0028298799879848957,0.0007385117933154106,-0.0030127561185508966,-0.0048078871332108974,-0.002227335935458541,0.00466099614277482,0.004862107802182436,-0.0027205764781683683,-0.00028624851256608963,0.0025756428949534893,-0.0009244387038052082,-0.00101767061278224,0.00493703642860055,-0.003695347812026739,0.002420539502054453,0.0032311738468706608,-0.0008672899566590786,-0.005109173711389303,-0.0018001580610871315,-0.003096661064773798,-0.004396162461489439,-0.004571312572807074,0.004159137140959501,0.004843879956752062,0.004831635858863592,-0.0007704547606408596,-0.00385192409157753,-5.630636587738991e-05,-0.0009235492907464504,-0.003920961171388626,-0.00187361566349864,0.004688763525336981,0.000315043143928051,0.004884882364422083,-0.00012090010568499565,0.004068237263709307,0.003925018478184938,0.0015297937206923962,0.004540179390460253,-0.002952690701931715,0.0008409093134105206,-0.0014974840451031923,-0.005166655406355858,-0.0009531737305223942,-0.002902575768530369,-0.0023411887232214212,-0.002752204891294241,-2.375151962041855e-05,-0.0009768088348209858,0.000810086727142334,0.003751749638468027,0.0024171555414795876,-0.004948263987898827,-0.00310762831941247,0.0016810554079711437,0.002373908180743456,0.0030601215548813343,-0.0008842106908559799,0.003597917500883341,-0.000999900046736002,-0.0035424642264842987,-0.003273459617048502,-0.004343500826507807,-0.0033673273865133524,0.001997365616261959,-0.0033790934830904007,0.004251452628523111,-0.003659276757389307,-0.002576862694695592,-0.003636877750977874,-0.002865555929020047,0.0023786048404872417,0.004965841304510832,-0.003653433173894882,-0.0037027322687208652,0.0026323464699089527,0.004048143047839403,-0.0016266598831862211,0.004960545804351568,0.00181869650259614,-0.004138563759624958,0.005176770966500044,-0.003367018885910511,-0.003806511638686061,-0.0023218130227178335,-0.0014202340971678495,-0.002146240323781967,0.00402176333591342,-0.004974742885679007,-0.0023841189686208963,0.002009985037147999,0.004662387538701296,0.004160373006016016,0.0006059347651898861,-0.00402499083429575,0.004568361211568117,-0.004536259453743696,-0.0014671969693154097,0.0015506632626056671,0.0003128349781036377,0.0003950675018131733,-0.0038217902183532715,0.0005508014000952244,-0.0050067477859556675,-0.0028561109211295843,-0.0004236791282892227,-0.0034872463438659906,-0.004168400075286627,0.004935809876769781,-0.0034411416854709387,0.0018451814539730549,0.00021805847063660622,-0.0034838304854929447,-0.0022015743888914585,-0.002940748818218708,-0.0011004945263266563,0.002472134307026863,-0.0018582690972834826,0.000596615020185709,-0.0016483208164572716,-0.001332443905994296,-0.0012017260305583477,0.0004033064469695091,0.001935887150466442,-0.0031326257158070803,-0.004206986632198095,0.004818445537239313,0.004010183271020651,-0.00306530250236392,0.004265685100108385,0.0022263177670538425,-0.003985647577792406,-0.0007562711834907532,-0.0038725233171135187,-0.0017866035923361778,0.004581229295581579,-0.0008773556910455227,-0.0030262537766247988,0.0029545105062425137,-0.0046479906886816025,-0.000842733308672905,-0.003740329295396805,0.0049044727347791195,-0.00010101264342665672,0.0037864032201468945,0.004742297809571028,0.004277895670384169,0.004514575470238924,-0.0015115935821086168,-0.001970543758943677,-0.00027883704751729965,0.0049369181506335735,-0.0014756822492927313,0.003629880491644144,-0.002613482531160116,0.0028680399991571903,0.004471412394195795,-0.0004253759980201721,-0.0005812644958496094,-0.004942883737385273,-0.0032249512150883675,-0.0040889158844947815,9.582703933119774e-05,0.0006793034262955189,0.003133832011371851,-0.001419675536453724,0.003355869557708502,0.0018628244288265705,-0.0014183006715029478,-0.004516541957855225,-0.0018279149662703276,0.001022612676024437,-0.0039878846146166325,-0.0024656530003994703,0.005173104349523783,0.0010189800523221493,0.0007878909818828106,-0.0017766072414815426,-0.0038937171921133995,0.004684040788561106,-0.0007370267994701862,0.002836972940713167,-0.003467156086117029,0.0016585621051490307,0.0030674473382532597,0.002912022639065981,-0.0004957374185323715,0.0049271308816969395,-0.004192752297967672,-0.00315733440220356,0.0027116364799439907,0.0027431300841271877,0.0024170964024960995,0.002581448759883642,-0.0016175578348338604,-0.004853551741689444,-0.0024186777882277966,-0.001616158289834857,0.0032470677979290485,-0.004685313906520605,-0.004387466702610254,0.00162604171782732,0.004384152125567198,0.00018648803234100342,-0.0023697393480688334,-0.0036365545820444822,0.00029268255457282066,-0.00033699022606015205,0.0005229678936302662,-0.0008442038670182228,0.0038263467140495777,-0.004199231043457985,-0.0024674267042428255,-0.0028762605506926775,-0.0031611763406544924,-0.002607919042930007,0.0029683983884751797,0.003218142781406641,-0.0008016079664230347,-0.0015798842068761587,-0.002553280908614397,0.003989095333963633,0.0025722431018948555,-0.0021435588132590055,0.004098360892385244,-0.003468461334705353,-0.0022836585994809866,0.004464582074433565,-0.0002364986576139927,-0.0009839278645813465,0.0008425428532063961,0.0038714916445314884,0.001764888409525156,0.003832173068076372,-0.0006472747772932053,0.002436005976051092,-0.001963201677426696,-0.0009138132445514202,-0.0004865620285272598,0.0029005263932049274,-0.0040933312848210335,0.002270209137350321,-0.0029103835113346577,-0.00491582415997982,-0.0026969648897647858,-0.004960715305060148,-0.0024473017547279596,-0.0027306717820465565,-0.00374050997197628,-0.003527088789269328,-0.002822976326569915,-0.003517397213727236,0.003722159657627344,-0.002077963436022401,-0.0009004841558635235,-0.0030379765667021275,0.0017867409624159336,-0.004025460220873356,0.0024966574274003506,0.0008489941246807575,-0.0033356628846377134,0.003699012566357851,-0.005153284408152103,-0.0035264906473457813,0.002384941093623638,0.0033962815068662167,0.00024198926985263824,-0.002493478124961257,0.002677472773939371,0.0006209942512214184,-0.0019947460386902094,-0.00064490782096982,0.004473439883440733,0.0048125931061804295,0.002922112587839365,-0.003201632061973214,0.004872516263276339,-0.002881531836465001,0.0037650582380592823,-0.0009054443798959255,-0.003704770701006055,0.0047680106945335865,-0.0015805554576218128,0.0032610702328383923,0.0033804927952587605,0.0021201069466769695,0.0020297770388424397,0.0005238926969468594,0.0006114104762673378,0.0030516996048390865,-0.004139949567615986,0.004265730734914541,8.873874321579933e-05,-0.003740189131349325,-0.0025476468726992607,-0.0035905081313103437,0.0018115639686584473,-0.00021997932344675064,-0.0050791045650839806,-0.002965665655210614,-0.00037956470623612404,-0.005085277371108532,1.0113697499036789e-05,-0.0014402016531676054,-0.0011662617325782776,0.0034884647466242313,-0.0016815890558063984,0.001867739949375391,-0.00038485322147607803,0.0001526004634797573,0.004184472840279341,0.0014949054457247257,-0.005131842568516731,-0.003436005674302578,-0.00034674350172281265,-0.0034545143134891987,0.00218846183270216,-0.0012662988156080246,-0.000604038592427969,0.002342475578188896,0.001954128034412861,-0.00278408988378942,-0.003346815938130021,0.0032991929911077023,0.0006505469791591167,-0.00179011607542634,-0.0020389568526297808,0.0038981004618108273,-0.004169315565377474,-0.003390201833099127,0.0033354531042277813,-0.0011333008296787739,0.003785183187574148,0.0023847692646086216,-0.0022125195246189833,-0.0035472027957439423,-0.0011410750448703766,-0.00011551333591341972,-0.0021972917020320892,-0.001898501766845584,-0.0016678562387824059,0.003394101280719042,-0.0021254427265375853,-0.0030713812448084354,-0.004060106351971626,0.0038505778647959232,-0.0025420014280825853,-0.004124470520764589,0.0022868290543556213,-0.0004897243343293667,-0.0022653257474303246,-0.0019304163288325071,-0.0019095458555966616,0.000821141991764307,0.004123054910451174,0.004779701586812735,0.0003777802921831608,0.00011799810454249382,0.0009381305426359177,0.00029982905834913254,-0.004028132185339928,0.002355449367314577,0.00439453823491931,-0.001809220528230071,0.0020840978249907494,-0.0027896917890757322,-0.0011140117421746254,0.0002780281938612461,-0.0012509655207395554,0.00017707888036966324,-0.0011913049966096878,-0.0025447956286370754,-0.002591292839497328,0.0016175122000277042,-0.002971797715872526,0.0016418630257248878,-0.0015147814992815256,0.0014386042021214962,-0.00016308436170220375,-0.0015406212769448757,-0.001445295987650752,0.0008330629207193851,0.0005828770808875561,-0.0042489198967814445,0.0038955206982791424,0.004309790674597025,-0.0003566429950296879,-0.0028590585570782423,0.002480365801602602,0.0016621393151581287,-0.00303473649546504,0.0029368712566792965,-0.003541723359376192,0.0030800574459135532,-0.002676521660760045,0.002661448437720537,-0.0006677205674350262,0.0007023527286946774,-0.0035707992501556873,0.0015876386314630508,0.0037705707363784313,0.004587745759636164,0.00027641188353300095,0.004034964833408594,-0.0016564084216952324,0.0035376534797251225,0.0024603805504739285,-0.004644525237381458,-0.0048249270766973495,-0.004760590847581625,0.0031899376772344112,-0.0017055163625627756,-0.0019659141544252634,-0.004459565505385399,0.004323241766542196,-0.0032003019005060196,0.0023778406903147697,-0.0026517955120652914,-0.0012374739162623882,0.0033343653194606304,-0.004446764010936022,0.0003662346862256527,0.0042585101909935474,-0.00287918234243989,0.0005229800008237362,0.0027120267041027546,0.0033242511563003063,0.0012675076723098755,0.004242379684001207,0.004335269797593355,-0.0035102905239909887,0.001472636591643095,0.001584838144481182,-0.00026340968906879425,0.0028694733045995235,-0.00263445102609694,-0.0032939636148512363,0.004146387334913015,-0.0012705032713711262,-0.0033875787630677223,0.00010298565030097961,0.00044413376599550247,0.004900266882032156,-0.002491776365786791,-0.0019359230063855648,0.003027681726962328,-0.002562859794124961,0.005130218807607889,-0.0017149418126791716,0.0001985030248761177,-0.004259837791323662,-0.0025557579938322306,-0.0005449210293591022,0.0007528183050453663,0.004627957474440336,-0.0045309364795684814,-0.0028072777204215527,-0.0007287398912012577,-0.0035929903388023376,0.0030833561904728413,0.0035416060127317905,0.0038659763522446156,0.0029314742423594,0.0025743101723492146,0.002639401238411665,-0.0024978029541671276,0.0008406839333474636,-0.0019938666373491287,-0.0006903586909174919,-0.002352871699258685,0.00026410724967718124,0.002443535253405571,-0.003312679473310709,-0.001068995799869299,-0.004688838962465525,-0.0024426844902336597,-0.004456766415387392,-0.004963812883943319,0.0031011817045509815,-0.00038004806265234947,-0.004624299705028534,0.0023433957248926163,-0.0028496654704213142,-0.004438392817974091,-0.0009855343960225582,0.0031007719226181507,-0.004764353856444359,0.003603579942137003,0.002257714979350567,-0.002443784149363637,-0.0046288128942251205,-0.003329732920974493,-0.0024956183042377234,-0.0005556116811931133,0.004183884244412184,0.004129345063120127,0.0013767825439572334,-0.0051652598194777966,-0.003671505954116583,-0.00036313803866505623,0.0015445547178387642,0.0009537236765027046,-0.0023754143621772528,0.0042046294547617435,0.003689249511808157,0.0020478754304349422,0.004997578915208578,-0.002578430576249957,-0.004293115809559822,0.004729594569653273,-0.0017163734883069992,0.003160684835165739,-0.003623081836849451,-0.004612297285348177,0.004153241869062185,-1.2870877981185913e-05,-0.004240951035171747,0.00417326157912612,0.0016455231234431267,-0.004033098462969065,-0.004162133205682039,0.0020642541348934174,0.0003698039799928665,0.0012286519631743431,-0.0045815156772732735,-0.0025727469474077225,-0.0028903924394398928,0.0019279168918728828,0.001633665058761835,-0.002942887833341956,0.001829853281378746,-0.0009965598583221436,0.00297069875523448,-0.00015362072736024857,0.003229341935366392,0.0029267393983900547,0.003860133234411478,0.00504089193418622,-0.0019841925241053104,-0.00442660553380847,-0.002230163663625717,-0.004236732609570026,0.004381590988487005,0.0035082842223346233,0.00404655234888196,-0.003372171428054571,-0.003423560643568635,-0.003020623465999961,-0.002072049304842949,0.00023044878616929054,-0.004714216571301222,-0.0006408640183508396,0.004467837978154421,-0.001953922677785158,-0.004343652166426182,-0.0018052211962640285,-0.0010328702628612518,-0.0008562086150050163,-0.0012825843878090382,-0.0007564001716673374,-0.0013845504727214575,-0.0015820479020476341,-0.0035473587922751904,0.0003925645723938942,0.0032469076104462147,-0.003141470020636916,-0.004577396437525749,-0.003146930830553174,-0.001007570419460535,0.0021385466679930687,-0.000887527596205473,-0.000430187676101923,0.0027296082116663456,-0.0026940975803881884,-0.004389429464936256,0.0027022152207791805,0.001954129431396723,-0.0030820907559245825,0.002786231692880392,0.0034751244820654392,-0.0019653060007840395,-0.0008472800254821777,-0.004050794988870621,-0.00044552702456712723,0.00256154453381896,0.0018275780603289604,-0.0021966686472296715,0.0011217957362532616,-0.004738379269838333,0.003068069461733103,-0.003431078512221575,0.003087396267801523,-0.0029758180025964975,-0.0015282481908798218,-0.003615122754126787,0.005045461002737284,0.00026504090055823326,0.005069628823548555,0.0012590186670422554,-0.005044572986662388,0.0008971956558525562,-0.0025487923994660378,0.0013733566738665104,0.005002239253371954,0.0051352339796721935,0.0029999571852385998,0.0007994910702109337,0.002869667951017618,-0.0040200985968112946,0.003155208658427,0.0009083142504096031,-4.586298018693924e-06,0.001303157303482294,-0.002138125477358699,-0.003267406951636076,0.0010111150331795216,-7.088016718626022e-05,-0.0034050345420837402,0.0031323865987360477,0.0036138095892965794,0.002842938993126154,0.0025640116073191166,-0.0010001985356211662,-0.001119487453252077,-0.0005305502563714981,-0.004553729202598333,0.002344297245144844,-0.0028133452869951725,0.0016900980845093727,-0.001176231075078249,0.0007661483250558376,-0.0031265877187252045,-0.002653289120644331,0.005075877066701651,-0.0031035682186484337,-3.4147873520851135e-05,0.00481530511751771,-0.0025303110014647245,-0.0022617648355662823,-0.0001522214151918888,-0.0015167917590588331,-0.0017120398115366697,-0.004055215045809746,-0.00033156154677271843,-0.001869715517386794,-0.0029998531099408865,0.004968997556716204,0.0037862216122448444,0.0019676913507282734,-0.0020213709212839603,0.0023824283853173256,-0.0009675114415585995,-0.003458278253674507,0.0023515094071626663,-0.001805193955078721,-0.004979580640792847,-0.0006268788129091263,0.0038331090472638607,0.002599760890007019,0.00034420331940054893,-0.001329402206465602,-0.00448214914649725,0.0005720546469092369,0.004040912259370089,-0.004718329757452011,0.003984538372606039,-0.00205435324460268,-0.002804084913805127,-0.0019488742109388113,0.00222288491204381,0.0021153981797397137,0.0016868654638528824,-0.00127830496057868,0.00321462145075202,0.002677758689969778,-0.003659346140921116,0.0006212769076228142,-0.004402773454785347,0.004172987770289183,-0.0015315364580601454,-0.002734568202868104,-0.0015434797387570143,-0.000423971563577652,0.0026825792156159878,0.0003346209414303303,0.0023237462155520916,0.004712757188826799,0.0036300630308687687,0.0022282861173152924,-0.003585768397897482,-0.0014863212127238512,-0.0029362852219492197,0.0004378468729555607,0.0010384335182607174,-0.00016127852723002434,0.0010656146332621574,-0.004419432953000069,0.0012349770404398441,0.002083302941173315,0.005037528928369284,-0.0032674132380634546,0.0035983207635581493,-0.00046286405995488167,0.002459346316754818,0.0017438060604035854,0.0005253828130662441,-0.0007911296561360359,-0.0006957598961889744,0.003810139838606119,-0.002575295977294445,0.005062571261078119,-0.001411851728335023,-0.003263905644416809,0.0012472402304410934,0.0023719859309494495,0.0035481047816574574,-0.0031174274627119303,0.0014214254915714264,0.000467564444988966,-0.0049332245253026485,0.0006208345293998718,-0.00018989993259310722,0.0026117460802197456,-0.0004177764058113098,0.002081187441945076,-0.004830432124435902,0.0046888538636267185,0.0024022050201892853,-0.0035119117237627506,-0.002176132518798113,-0.004671766888350248,-0.004085108637809753,0.002131787594407797,-0.004251367412507534,-0.003738054074347019,-0.004800706170499325,-0.00324561377055943,-0.003923434764146805,0.00417284993454814,0.0013883146457374096,-0.0018593925051391125,0.005108025390654802,0.002508610486984253,-0.002184814540669322,-0.0009104902856051922,-0.0014107455499470234,0.0019942657090723515,0.0038993745110929012,0.005113888997584581,-0.0009234156459569931,-0.0025037939194589853,-0.0034604566171765327,0.004248733166605234,0.0014578113332390785,-0.003609864041209221,-0.0024618147872388363,0.0033651874400675297,0.0020381431095302105,0.003204913344234228,-0.0022929091937839985,-0.00028126081451773643,-0.0050742048770189285,0.0021768445149064064,0.0018387981690466404,0.0021176240406930447,-0.004445993807166815,0.001680030021816492,-0.002135301474481821,-0.003921099938452244,0.004388307686895132,0.0006066272035241127,-0.004328911192715168,0.0018974351696670055,0.0003666691482067108,-0.0033629690296947956,-0.0012865597382187843,0.0024766288697719574,-0.0002516992390155792,0.0003339359536767006,-0.00010327901691198349,-0.0006113434210419655,-0.0012065963819622993,-0.0018268919084221125,0.0011619552969932556,0.0009323256090283394,0.0008328435942530632,-4.489906132221222e-06,-0.002559289103373885,0.004472021479159594,-0.004703835118561983,-0.00228426163084805,0.0019405502825975418,0.004507991950958967,0.0019169384613633156,0.0036874855868518353,-0.0017720023170113564,0.0042609586380422115,0.0008263229392468929,0.0034314622171223164,0.0011582635343074799,0.00310205714777112,0.0008324719965457916,-0.004940776154398918,-0.00445211585611105,0.0038952319882810116,-0.00021005235612392426,-0.0025075478479266167,0.004910757299512625,0.0031669302843511105,0.00506985979154706,-4.397565498948097e-05,0.0004438585601747036,-0.004822935443371534,0.003206434193998575,0.0025907144881784916,0.0018014200031757355,-0.004389544948935509,-0.0024963712785393,0.0006534713320434093,-0.0023588649928569794,-0.0022841414902359247,0.0022033504210412502,0.0016663973219692707,-0.00516290171071887,0.0036902758292853832,0.0006092977710068226,-0.0009161368943750858,-0.0014852858148515224,0.004442101810127497,0.000888599082827568,-0.004040727857500315,0.0011132624931633472,-0.004892502911388874,-0.0038209916092455387,-0.004591864999383688,0.0022403383627533913,0.004607927519828081,0.003610116895288229,-0.0005827830173075199,0.001948587130755186,-0.001298890681937337,-0.0021000774577260017,0.0036431611515581608,0.0007163803093135357,-0.00352070527151227,-0.002818576991558075,0.00016619078814983368,-0.003590526757761836,-0.005049330182373524,-0.001666344003751874,-0.0009402013383805752,0.0025855498388409615,-0.004861935507506132,0.0024401862174272537,-0.003989150281995535,-0.0021948020439594984,-0.0031890731770545244,-0.003469619434326887,0.004346577916294336,0.0018277107737958431,0.0025694509968161583,-0.0004154229536652565,0.004376669880002737,-0.003539946163073182,0.0018080142326653004,-0.0044321888126432896,0.0030080568976700306,-0.0027067356277257204,-0.0029947045259177685,0.003830614034086466,0.0038598631508648396,0.003012202214449644,-2.6695430278778076e-05,-0.004023944493383169,0.0036767018027603626,0.0017830785363912582,0.0020823306404054165,-0.002698401687666774,-0.0007057720795273781,-0.0021110360976308584,0.00497130723670125,0.001961472909897566,0.0004380224272608757,-0.0006266706623136997,0.0029814238660037518,-0.001392339589074254,0.00238086748868227,-0.0032297330908477306,-0.0026698620058596134,0.004386208485811949,-0.0041776495054364204,-0.003961616195738316,0.0003468501381576061,-0.000864740926772356,-0.0011966493912041187,0.001459166407585144,0.000852254219353199,-0.0009830486960709095,-0.0028400644659996033,0.0003433995880186558,-0.0033178203739225864,0.0040224273689091206,-0.0016911642160266638,0.0022327001206576824,-0.003814039519056678,-0.0017655929550528526,0.0025726170279085636,0.0006691352464258671,-0.002771110041067004,-0.0009326785802841187,0.0009341002441942692,-0.0019793424289673567,-0.000440218485891819,0.0002892259508371353,0.005099149886518717,-0.0022872998379170895,-0.00013884156942367554,0.001921186689287424,0.0020522400736808777,-0.004152095876634121,0.004706622567027807,-0.004778327886015177,-0.0009289393201470375,-0.002470246748998761,-0.00269124167971313,0.002954226452857256,0.0018767528235912323,0.0016434211283922195,0.0013002087362110615,0.0006052055396139622,-0.0023846786934882402,-0.004294589627534151,0.002580482978373766,0.004092018585652113,-0.0027951314114034176,-0.001590073574334383,-0.002109380206093192,-8.820602670311928e-05,0.0027704969979822636,-0.0014755423180758953,0.0014253491535782814,0.0006186137907207012,0.003361883107572794,0.002233244013041258,-0.0020682953763753176,0.0031071207486093044,-0.0020691438112407923,0.003213981632143259,-0.0028957652393728495,-9.809713810682297e-05,0.00044537102803587914,0.0014478829689323902,-4.922179505228996e-05,0.0007618111558258533,0.005062110256403685,0.0032149157486855984,-0.0009408579207956791,0.002117423340678215,0.0033248704858124256,-0.0010415781289339066,0.00035012466832995415,0.0015237806364893913,-0.0006372365169227123,-0.0014703799970448017,0.003168185707181692,0.0014546234160661697,-0.00429622083902359,0.0036871428601443768,-0.004921042360365391,-0.001129752490669489,-0.004625892732292414,-0.0038115945644676685,0.0005979971028864384,0.00031676096841692924,0.004782058764249086,-0.004173767752945423,-0.005142520181834698,-0.003367385594174266,-0.0034422315657138824,-0.002297092927619815,-0.0017034306656569242,-0.0016656145453453064,-8.538970723748207e-05,0.004338811617344618,0.00028812605887651443,0.00032659759745001793,0.0004394371062517166,-0.003479065839201212,0.003252995666116476,0.002555667422711849,0.0008715605363249779,0.001589090097695589,-0.0016264172736555338,-0.0003080763854086399,0.0016310270875692368,0.0016080494970083237,0.004119231831282377,-0.0003353068605065346,0.002766480203717947,-0.004833103623241186,-0.0045798844657838345,-0.001261094119399786,-0.0031666778959333897,-0.0019214467611163855,0.00457855174317956,0.00465816305950284,0.001335622277110815,-0.0036498266272246838,-0.0037345997989177704,0.004086504224687815,-0.0019311446230858564,0.001225719228386879,0.002322080545127392,-0.002846700372174382,0.0012318906374275684,-0.0020216978155076504,0.001519163604825735,-0.002457162830978632,0.0026436862535774708,-0.0025440698955208063,0.00379492761567235,-0.0007757027633488178,-0.0017053938936442137,-0.0026902395766228437,0.003889582585543394,0.0008314033038914204,0.005126409698277712,-0.00038327043876051903,0.004207655321806669,-0.0016343004535883665,0.002364320680499077,0.002830169629305601,0.004278943408280611,0.0010243193246424198,0.0046401978470385075,0.00038804998621344566,-0.0017010217998176813,0.0021016220562160015,-0.004207799211144447,0.0015989141538739204,-0.0028337787371128798,-0.004735034890472889,-0.0023292950354516506,-0.0020927144214510918,0.002769558224827051,-0.002530014840885997,-0.005182299762964249,-0.0020498225931078196,-0.004051459953188896,-0.0034868090879172087,0.0030561252497136593,-0.002873933408409357,-0.003157326951622963,0.002247846219688654,-0.004591684322804213,0.003542835358530283,0.002908595371991396,0.0020271153189241886,-0.003449351992458105,-0.0038601974956691265,0.0009087552316486835,0.005131870973855257,-0.002292499179020524,0.005024875979870558,0.004321468528360128,-0.0019288868643343449,0.0035613630898296833,-0.002726071747019887,0.0024316911585628986,-0.0006393543444573879,0.0025451695546507835,0.0016442532651126385,-0.004062624182552099,0.0023517622612416744,0.0039529758505523205,0.004565927665680647,-0.00211791112087667,-0.004492681473493576,-0.003576320596039295,-0.0007010102272033691,-0.000653125811368227,-0.00156241818331182,-0.0003573130816221237,-0.0013386169448494911,0.0029342579655349255,-0.005094535648822784,0.0021025780588388443,0.004785478580743074,-0.0030468320474028587,-0.0025113439187407494,0.002475027460604906,0.00453709764406085,-0.002028740243986249,0.0032166107557713985,-5.792127922177315e-05,-0.0006206263788044453,-0.003900209441781044,-0.0022315161768347025,0.0036463639698922634,-0.0015939241275191307,-0.001893204404041171,0.0024446649476885796,7.198890671133995e-05,-0.00469412375241518,0.002102123573422432,0.0031495275907218456,0.002915650140494108,-0.004578924737870693,0.004958616103976965,0.0037878197617828846,-0.002751403721049428,-0.0006846636533737183,0.0021547996439039707,0.0007317443378269672,0.0027085389010608196,-0.004505469463765621,-0.0004290384240448475,0.0019010580144822598,0.0036883042193949223,-0.0017775485757738352,0.001824961043894291,0.00029859552159905434,0.0051417420618236065,-0.002732532098889351,-0.002181092742830515,-0.0017230145167559385,0.001241680234670639,-0.003974562510848045,0.001109059900045395,0.00047210464254021645,-0.004882071632891893,0.0028473916463553905,0.0007385304197669029,0.0020080418325960636,-0.0005290503613650799,0.002104089129716158,0.00298840319737792,0.0037150378338992596,0.0043204850517213345,0.0008826837874948978,0.0007176198996603489,0.0048066372983157635,0.0031599183566868305,0.004111450631171465,-0.005139246582984924,-0.003332072403281927,-0.0010403571650385857,-0.00023523159325122833,-9.317044168710709e-05,-0.0012352941557765007,-0.0004968075081706047,0.001508183777332306,0.0024102386087179184,-0.0031930822879076004,-0.0008501745760440826,-0.0015104059129953384,-0.0006084502674639225,0.00029183411970734596,-0.004659624304622412,-0.004540909081697464,-0.0029612069483846426,-0.0023720641620457172,0.002920543309301138,0.0021922443993389606,0.0019108029082417488,0.0036243856884539127,-0.004994340240955353,0.0011493298225104809,-0.004795525223016739,0.0004888288676738739,0.0017409310676157475,-0.002446077996864915,-0.001978727988898754,-0.0001595546491444111,0.00454968074336648,-0.004144885111600161,-0.004023903515189886,0.0029039341025054455,0.0018485253676772118,-0.0013315770775079727,-0.0037221908569335938,0.0010096598416566849,0.0008255238644778728,0.004345460329204798,-0.002714730566367507,-0.0015692315064370632,0.004811194259673357,-0.0019257348030805588,0.0029384675435721874,0.0015568621456623077,-0.00270102103240788,-0.0025493893772363663,0.003883113618940115,0.001805430743843317,0.003006147686392069,0.003968243952840567,-0.004841269459575415,0.005035147536545992,0.0029178918339312077,0.004952548537403345,0.003263696562498808,-0.0040949201211333275,0.0032331119291484356,0.0026960172690451145,-0.00042612897232174873,0.004302179906517267,-0.002259556669741869,-0.000335693359375,0.0038365465588867664,-0.0014602115843445063,0.0011076321825385094,0.0019991216249763966,-0.001712532714009285,-0.0036792433820664883,0.0034514195285737514,-0.004134283401072025,-0.004194017965346575,-0.003812151961028576,-0.0012351656332612038,-0.0013763464521616697,0.001492699608206749,-0.004474611487239599,0.0006287377327680588,-0.0031531185377389193,-0.0028338839765638113,0.002576005645096302,-0.0017690646927803755,0.004506334196776152,0.003564190585166216,-0.004925721324980259,0.0017190114594995975,0.001264795195311308,0.0014598178677260876,0.004581377375870943,0.003105782438069582,0.0023642810992896557,0.0038052680902183056,-0.004196865484118462,0.0025463104248046875,-0.002703661797568202,-0.0025245219003409147,0.004530057776719332,-0.001799312187358737,0.0011157840490341187,0.005125266965478659,-0.0010535772889852524,-0.003570375731214881,-0.0010818913578987122,-0.0013523944653570652,-0.00041418056935071945,-0.004082673229277134,-0.004642580635845661,0.002185084391385317,-0.002057557227090001,-0.0015750736929476261,0.001702775713056326,-0.0014508841559290886,0.004258529748767614,0.0018633892759680748,0.004774295259267092,0.0030507189221680164,-0.004130395594984293,0.00042475806549191475,-0.005186126567423344,-0.003727531526237726,-0.007123635616153479,-0.0028018427547067404,0.0009252021554857492,0.011283800937235355,0.2337542623281479,-0.0003850880602840334,0.26812392473220825,-0.00010997261415468529,-0.0009469601209275424,-0.005256969016045332,0.10173256695270538,0.6988771557807922,0.03583601862192154,-0.0011776839382946491,-0.0006499127484858036,0.002406936837360263,0.003072001738473773,0.0013905789237469435,-0.004158996976912022,-0.004323411732912064,1.2297109365463257,-0.002784591866657138,-0.003266554092988372,0.01697682775557041,0.0011615002295002341,0.00248166942037642,0.0004000704793725163,0.07135005295276642,1.5602234601974487,0.6303211450576782,0.0020679752342402935,0.0021581866312772036,0.0025420875754207373,0.03628147765994072,3.7584545612335205,0.7352749109268188,-0.002724643563851714,-0.02234981395304203,0.35161444544792175,0.19760341942310333,2.3329291343688965,0.025476399809122086,0.24602264165878296,0.000464566022856161,-8.162044832715765e-05,-0.0053591011092066765,2.4273035526275635,0.14238396286964417,-0.0161844901740551,0.001361618866212666,0.6129277348518372,0.0021174594294279814,0.47258320450782776,0.5563585758209229,0.004458555020391941,-0.004336338955909014,2.5276668071746826,-0.0049793231301009655,0.002897436497732997,0.05116133764386177,0.03067154251039028,-0.006552720908075571,-0.0029976440127938986,-0.0029337324667721987,-0.0029932642355561256,0.011408437043428421,-0.0036603352054953575,0.011977938003838062,0.9691737294197083,-0.0032707599457353354,-0.006254568696022034,0.2956198453903198,0.004476672504097223,2.430419445037842,-0.0008471810724586248,0.0008426167187280953,-0.00468268571421504,0.0002543377922847867,-0.003782757790759206,-0.012170153670012951,0.0012213444570079446,0.00211502518504858,-0.00015147043450269848,0.0031554934103041887,-0.026397204026579857,0.030200641602277756,-0.005053777247667313,-0.004718624521046877,-0.004459738731384277,1.419385552406311,0.0030619066674262285,-0.004901224747300148,-0.00283359014429152,0.0004686531610786915,-0.00234918761998415,-0.007255048491060734,0.00037346340832300484,0.003567102365195751,0.7020591497421265,0.00418257899582386,0.17877310514450073,7.628236926393583e-05,-0.0021514324471354485,-0.002476726658642292,2.5723493099212646,-0.003407047362998128,0.06788453459739685,0.005227952264249325,0.00408638222143054,0.004530618898570538,0.08085213601589203,1.9830251932144165,-0.0029969397000968456,-0.0009549563401378691,1.083553671836853,0.007943292148411274,-0.009456731379032135,0.10478232055902481,0.015951426699757576,-0.0014842241071164608,0.0013970605796203017,-0.002483597258105874,-0.0024031102657318115,-0.001252241199836135,-0.0026315466966480017,0.43465498089790344,-0.0056114294566214085,-0.0001821758778532967,0.0013065696693956852,0.004567730240523815,0.0016368934884667397,1.3070250749588013,-0.0011427587596699595,1.062875509262085,-0.0012630497803911567,-0.005209789611399174,-0.003598553594201803,0.8057482838630676,-0.0028491413686424494,0.007841196842491627,0.0028026090003550053,-0.0005906297592446208,-0.002089435001835227,1.1720221042633057,-0.0020347244571894407,0.00420916173607111,0.004716349299997091,-0.0018080717418342829,-0.0018645867239683867,0.006114560179412365,1.7837862968444824,0.0056304545141756535,0.0032619566190987825,0.3594422936439514,-0.0024589786771684885,-0.004996513016521931,2.0720019340515137,-0.0026285876519978046,-0.0014141736319288611,0.0034045781940221786,0.003969034180045128,0.00021333899348974228,0.39443355798721313,0.0011331095593050122,-0.006112856790423393,0.1527472883462906,0.0027442551217973232,0.0011147778714075685,-0.004442260600626469,-0.0037585091777145863,-0.0044026984833180904,-0.022501198574900627,0.0996183529496193,-0.0041160574182868,-0.003796246135607362,2.444434404373169,0.0017342733917757869,0.003107443219050765,0.49073538184165955,0.09192069619894028,-0.00596940191462636,0.003584104822948575,4.282777786254883,-0.0008226680802181363,0.002342735417187214,-0.005086830817162991,-0.002856438048183918,-0.0015696207992732525,0.000275536032859236,-0.002112091751769185,0.5377490520477295,0.04295333847403526,0.054086439311504364,0.002196969697251916,3.3992488384246826,-0.004092516843229532,0.001454635290428996,1.486328363418579,-0.0015702024102210999,0.0017371964640915394,0.14507006108760834,0.023602047935128212,1.3318899869918823,0.29236042499542236,0.0042603276669979095,1.9054569005966187,0.00934362318366766,0.003547605127096176,0.0027945570182055235,-0.00017163253505714238,-0.004276318941265345,-0.001095542567782104,-0.004594799596816301,-0.005321906879544258,-0.003223047126084566,-0.009354589506983757,-0.0026476839557290077,0.2075982689857483,0.004704820923507214,-0.0027690143324434757,0.9073759913444519,-0.0007543773390352726,0.004275355022400618,-0.004603348672389984,-0.003341259900480509,-0.00420614518225193,2.8347227573394775,0.00510017666965723,0.8429099917411804,0.8490452766418457,-0.002239036140963435,0.41242262721061707,0.0005144391325302422,-7.421055488521233e-05,-0.004253386054188013,-0.0002834211918525398,0.002623516833409667,0.004514678381383419,1.9102388620376587,-0.003009280189871788,-0.00046783682773821056,0.5085721015930176,1.1890608072280884,-0.003377882530912757,0.0008521302952431142,-0.0032095524948090315,-0.0039328946731984615,0.0015072240494191647,-0.003068568417802453,0.016109734773635864,-0.00022759378771297634,-0.005113713443279266,0.0006109545356594026,0.00033922374132089317,1.445491075515747,1.6601600646972656,-0.00039301745709963143,-0.0021412053611129522,0.0024541665334254503,-0.00551856542006135,-0.002257200423628092,0.2599853575229645,-0.005615489557385445,1.090264916419983,-0.0008757656905800104,-0.0021685429383069277,-0.0010661206906661391,0.23597973585128784,-0.002647743560373783,0.12703315913677216,-0.005922092590481043,-0.003072322579100728,0.9229238629341125,0.14450259506702423,2.484767198562622,-0.005295575596392155,-0.0021079499274492264,-0.0018620487535372376,0.000977998599410057,-0.00023641639563720673,0.0026116620283573866,-0.0005123653099872172,0.029851652681827545,0.004303692374378443,-0.015654589980840683,0.0033248448744416237,-0.0016889285761862993,0.0021468549966812134,0.3520691692829132,-0.0031580356881022453,-0.0009803165448829532,0.7176681756973267,4.7704644203186035,0.19048936665058136,-0.0019570388831198215,-0.0036333748139441013,1.531199336051941,-0.0009298206423409283,0.4611200988292694,0.0015220338245853782,-0.003048438811674714,-0.005685263313353062,-0.0035591195337474346,-0.0018848436884582043,0.053143005818128586,-0.003152795135974884,0.8262077569961548,0.004748987499624491,-0.0044090235605835915,0.003429246135056019,-0.002112660789862275,-0.003007953753694892,0.003622876713052392,-0.002940512727946043,0.012635181657969952,0.0002940864651463926,-0.0022454510908573866,0.0001973655744222924,-0.02994520589709282,0.001040267408825457,-0.0028466659132391214,0.46093446016311646,-0.004881586879491806,0.04560350254178047,0.013981386087834835,0.0032599586993455887,0.13657023012638092,0.0010259849950671196,-0.0027224281802773476,1.3267455101013184,0.8736041188240051,0.0013542750384658575,0.3476170003414154,0.0006902901805005968,0.7783469557762146,-0.00047765258932486176,-0.0016647183801978827,-0.001821373007260263,-0.004057674668729305,-0.0027656478341668844,1.4677677154541016,-0.002742737764492631,-0.0037504180800169706,-0.0025544778909534216,0.7857553958892822,0.16394324600696564,-0.0002556848630774766,-0.00520296161994338,0.003655155887827277,-0.0031067111995071173,0.4837324917316437,0.077931247651577,-0.0019787070341408253,-0.004193100146949291,-0.0019355207914486527,0.0009840090060606599,-0.0010008307872340083,-0.004570116754621267,0.7452570199966431,1.518371343612671,-0.0225625429302454,0.03194310888648033,0.0014218087308108807,0.1267899125814438,1.3145254850387573,0.004056825768202543,-0.0025702621787786484,-0.0007317568524740636,0.5699584484100342,-0.0010587231954559684,-0.002764762146398425,-0.0011653815163299441,0.023455021902918816,2.074662685394287,0.000523020513355732,-0.0038037910126149654,0.0005766295944340527,0.18805992603302002,-0.0010619772365316749,-0.0050017451867461205,-0.0047705392353236675,0.28239181637763977,-0.014934226870536804,-0.004122622311115265,-0.005943924188613892,-0.0031545874662697315,0.0019160788506269455,0.003495630342513323,0.001993166748434305,-0.0018648989498615265,0.0009515760466456413,0.0015640901401638985,-0.004013857804238796,-0.0006064837798476219,-0.004850833211094141,0.003211542498320341,0.0011743111535906792,0.0005554025992751122,-0.001853435067459941,0.00278775067999959,0.0007581585086882114,-0.0009735575877130032,0.004983112681657076,-0.0041529517620801926,-0.0031460996251553297,0.0006944718770682812,-0.0014524993021041155,-0.0045946515165269375,-0.0013207867741584778,0.004905931185930967,0.0012774900533258915,0.00506161293014884,0.0042836531065404415,-0.0035687494091689587,0.002262816298753023,0.0012261229567229748,-0.0022222965490072966,0.003514490555971861,-0.000666473526507616,-0.004874535370618105,0.0021047950722277164,0.0005979291163384914,0.0015769018791615963,-0.0015640221536159515,-0.003286834806203842,-0.004733865614980459,-0.0032382395584136248,-0.0018023268785327673,-0.004759803414344788,-0.005000707693397999,0.002865769434720278,0.0032880897633731365,0.0011371737346053123,0.0037926225923001766,-0.0050523485988378525,-0.001460216473788023,0.002279115840792656,0.00022623874247074127,-0.004854253027588129,-0.004756640177220106,0.001583917997777462,0.003426960203796625,0.0025784331373870373,-0.0035918382927775383,-0.002876398153603077,0.00021853391081094742,0.0011720918118953705,-0.0015010659117251635,-0.0020938129164278507,0.000994713045656681,-0.0031909372191876173,-0.0025602984242141247,-0.0033714319579303265,-0.0031736684031784534,0.0013636266812682152,0.0012550265528261662,0.0028622341342270374,0.0030954028479754925,0.003880565520375967,-0.0008527804166078568,9.055435657501221e-05,-0.0007866364903748035,-0.0029882951639592648,-0.001151752658188343,-0.0004927697591483593,0.002045858185738325,-0.0030159864109009504,0.005048442166298628,0.0048377434723079205,0.0022780713625252247,-0.001697976142168045,-0.0007285699248313904,-0.004725469741970301,0.0004824921488761902,-0.0009612948633730412,-0.0022539820056408644,-0.00048670079559087753,-0.003366864286363125,0.0017710784450173378,-0.004798512440174818,-0.002566097304224968,-0.004169049207121134,0.0035706195048987865,0.004787119571119547,-0.0016914478037506342,0.002201484050601721,0.0026569203473627567,0.002433395478874445,0.0003392118960618973,-0.0033522890880703926,-0.0011648214422166348,-0.00033576786518096924,0.004930105526000261,0.0035203476436436176,0.00016812141984701157,-0.0001886589452624321,0.0035443357191979885,0.005119918379932642,-0.002564326161518693,0.003878238145262003,0.0049472288228571415,-0.0024094940163195133,0.0026674303226172924,-0.0027503471355885267,0.003475066740065813,0.0036273919977247715,0.0038702222518622875,-0.0020026108250021935,-0.005133769940584898,-0.005130351521074772,0.0014901249669492245,-0.0034515205770730972,0.000632632989436388,0.0005813213065266609,0.0012231268920004368,-0.004769511055201292,0.0029674763791263103,-0.0020357812754809856,-0.0013363033067435026,0.0014505870640277863,-0.002299458486959338,0.0030108499340713024,0.0016088583506643772,-0.00034425919875502586,0.004012944642454386,0.0008944249711930752,0.005135068204253912,-0.004383951425552368,0.003857638221234083,0.0048551312647759914,0.0016255215741693974,-0.0035642129369080067,0.0006276760250329971,0.002420674543827772,0.0006852904334664345,-0.003925498109310865,-0.000768815167248249,0.003371142316609621,-0.002847090596333146,-0.003775491379201412,-0.0018851824570447206,0.0017970805056393147,-0.005132443271577358,-0.0006899288855493069,0.0021315114572644234,-0.0011896775104105473,-0.004341305233538151,0.0017604371532797813,0.004648829344660044,-0.000814714003354311,-0.003870332380756736,-0.0030313616152852774,0.00471529783681035,0.004097057972103357,-0.0013340762816369534,0.002693274524062872,0.005135843064635992,0.00454908749088645,0.0008193748071789742,0.0046416339464485645,0.002267397940158844,-0.00466235401108861,-0.00429212860763073,0.0015311329625546932,0.0030163773335516453,0.0011021378450095654,0.0006444063037633896,-0.002601389307528734,-0.0007784510962665081,-0.0006645671091973782,0.0011479277163743973,0.0034957206808030605,0.0012434511445462704,0.0033188494853675365,-0.003093212842941284,-0.0016257830429822206,0.004924895707517862,-0.00388138135895133,0.003792464267462492,-0.003589020576328039,0.0028564906679093838,-0.00010787416249513626,-0.004709212575107813,0.0020277532748878,0.0022588628344237804,-0.001080541405826807,0.0020816433243453503,-0.003693717997521162,-0.0017438195645809174,0.004647338297218084,-0.0015028966590762138,-0.005106357391923666,-0.0018597962334752083,-0.0021825877483934164,-0.001808705274015665,-0.003934907261282206,-0.0009485022164881229,-0.002406823681667447,-0.004827224183827639,-0.0005810167640447617,0.0006532357074320316,0.0003943517804145813,-0.0021147504448890686,-0.002139225136488676,-0.00407935306429863,0.0012969300150871277,0.002172944601625204,-0.004802532959729433,0.004113297443836927,-0.0040746391750872135,-0.003995699808001518,0.0030040726996958256,0.004482516553252935,-0.001375427469611168,-0.004203038290143013,-0.001355558866634965,0.0033417739905416965,0.004067437257617712,0.0008167652413249016,-0.004148995969444513,0.0012754043564200401,0.004377063829451799,0.004204050172120333,-0.0027687482070177794,-0.0044317469000816345,0.004020014312118292,-0.0021758314687758684,0.0019119670614600182,-0.002364962361752987,-0.0002133939415216446,-0.002002973575145006,-0.0009099501185119152,-0.0010720239952206612,-0.004560917615890503,0.004056830424815416,-0.0004640691913664341,-0.004412399604916573,0.0018170182593166828,-0.0013524896930903196,0.00359854893758893,0.005038976203650236,-0.0007723919115960598,0.0006878194399178028,-0.0010708039626479149,-0.002457517199218273,0.004064647946506739,-0.004252343438565731,-9.192805737257004e-05,0.0035112048499286175,0.004538907203823328,-0.004588630050420761,0.0009214449673891068,0.00011328794062137604,0.004367294255644083,0.0029678172431886196,0.004556457977741957,0.00435212766751647,-0.004832561127841473,-0.0011381572112441063,-0.001762007363140583,-0.002269403077661991,-0.00343575282022357,0.005140583496540785,0.004287418443709612,-0.00375125790014863,0.0034424024634063244,0.00022652838379144669,-0.005148530937731266,0.00320119084790349,-0.0005123857408761978,-0.0033379974775016308,-0.0017829982098191977,-0.0012409393675625324,0.001880585215985775,-0.004391738213598728,-0.0030731905717402697,-0.0015229906421154737,0.002715394366532564,0.0011625029146671295,-0.004303433001041412,0.004448988009244204,0.0014043706469237804,0.00013331882655620575,-0.003813511924818158,0.0004632947966456413,-0.0034392480738461018,-0.0009113969281315804,-0.004350016824901104,0.0016992022283375263,-0.0005637453868985176,0.0017846403643488884,-0.004570108838379383,0.0012149536050856113,-0.00338562298566103,-0.004891275428235531,0.002636116463690996,0.000431976281106472,-0.005052265245467424,-0.0012676399201154709,0.0013165958225727081,-0.0031099405605345964,-1.1409632861614227e-05,0.0017014476470649242,0.0036975243128836155,-0.002355641219764948,0.0009529124945402145,-7.955124601721764e-05,-0.002921260427683592,-0.0030514171812683344,-0.0030217962339520454,-0.0027995258569717407,0.0028531993739306927,0.002530063036829233,-0.0005539041012525558,-0.003137043444439769,0.0034638340584933758,-0.004405084997415543,-0.0007301727309823036,-0.002925226232036948,0.002796121407300234,-0.004545489326119423,-0.003223378211259842,0.0009620343334972858,0.0008338941261172295,0.002610734198242426,-0.0034832495730370283,-0.005041316617280245,0.003110125195235014,0.001368916593492031,-0.0004871976561844349,0.0004096897318959236,0.0027073859237134457,-0.002705721417441964,0.003947732504457235,0.003843946848064661,0.004754775669425726,-0.0036345841363072395,-0.002513434737920761,0.0011349082924425602,-0.0002172384411096573,-0.001446401933208108,-0.004349825903773308,-0.0019216302316635847,-0.00349384150467813,0.0006899610161781311,-0.004947434179484844,-0.0019999886862933636,-0.004645763896405697,-0.0022330209612846375,0.003355658147484064,0.0009360089898109436,0.0017017279751598835,0.002581080887466669,-0.0014596902765333652,0.003723087254911661,0.001420971006155014,0.0019830716773867607,0.0019570784643292427,-4.1948165744543076e-05,0.003378086257725954,0.0011008917354047298,0.004370835144072771,0.004260384943336248,0.0006258455105125904,0.0051361084915697575,0.0003615552559494972,-0.005049125757068396,-0.003948458004742861,-0.0008773109875619411,-0.0030192560516297817,0.004334357101470232,0.00024300860241055489,0.00347314914688468,0.0016324478201568127,-0.0004295855760574341,-0.001152153592556715,-0.0046434178948402405,-0.003319169394671917,0.0028658094815909863,0.004027388524264097,0.0006035063415765762,0.0035173636861145496,0.001822768710553646,0.004416953306645155,-0.004505930468440056,-0.0004493934102356434,-5.4236967116594315e-05,-0.004559721332043409,-0.003791568800806999,0.0012744469568133354,0.0002838107757270336,-0.0011269929818809032,0.004229953046888113,0.0013389624655246735,0.0038838922046124935,0.00062893470749259,-0.000837759580463171,-0.0019839596934616566,-0.0043773711659014225,0.004822127986699343,0.0029660104773938656,-0.0036240750923752785,-0.003210445400327444,0.0009881439618766308,7.261941209435463e-05,0.0025736535899341106,0.0035167434252798557,0.0032068942673504353,0.004023243207484484,-0.001911497674882412,0.003603504505008459,0.0028274510987102985,-9.836116805672646e-05,0.0002588098868727684,-8.242670446634293e-06,-0.004935606382787228,-0.001110948622226715,0.00195243488997221,-0.0022290886845439672,-0.00428342679515481,-0.004563397262245417,-0.0006896625272929668,-0.0024163455236703157,-0.0015911806840449572,-0.00042720045894384384,0.003396866377443075,-0.00021062931045889854,-0.0023197075352072716,0.0033584297634661198,-0.0013853604905307293,-0.0033825933933258057,0.0035468158312141895,0.002314761746674776,-0.003566132392734289,0.0016466276720166206,-0.0023767519742250443,-0.0017273284029215574,0.0037462725304067135,-0.004555379971861839,-0.0020037044305354357,-0.0019080445636063814,0.0018478096462786198,-0.002643676707521081,-0.003953808452934027,-0.0019202616531401873,8.316058665513992e-05,-0.004701911471784115,-0.0024038252886384726,-0.002423970028758049,0.0009512766264379025,-0.0010290355421602726,-0.004582412540912628,0.0015100305899977684,0.0009602000936865807,-0.0014814822934567928,0.003979224245995283,-0.0006514289416372776,-0.0020763075444847345,0.005155125167220831,-0.0003711157478392124,0.001280604861676693,0.0014700405299663544,-0.004074954893440008,0.003015358466655016,0.0012963651679456234,-0.0016011237166821957,0.0019975081086158752,0.0018489393405616283,0.0005651162937283516,-0.005131566431373358,-0.0012276736088097095,-0.0005971584469079971,0.0005034720525145531,0.0017814980819821358,0.0030081081204116344,0.004326859954744577,0.0010910639539361,0.0009998530149459839,-0.0012528803199529648,-0.0017412209417670965,-0.002176254987716675,-0.0032925468403846025,0.0003887624479830265,-0.0036737218033522367,0.0034173731692135334,-0.00358865549787879,0.004731403198093176,-0.0037172366864979267,0.0021620825864374638,0.0003807414323091507,-0.002998695010319352,0.0025304458104074,0.0029048980213701725,0.002642303239554167,-0.00031525734812021255,0.0013905921950936317,-0.004525910131633282,-0.0016438348684459925,0.0021642413921654224,0.0018617012538015842,0.0023117573000490665,0.0013690181076526642,0.0031490004621446133,-0.005053084343671799,-0.004351186100393534,-0.004517360590398312,0.005013866815716028,-0.0011566197499632835,0.0039274985902011395,-0.004194130655378103,-0.0008828570134937763,0.0010378849692642689,0.0024075889959931374,-0.002484999131411314,0.002595850732177496,-0.002159251132979989,-0.0019242607522755861,0.002830857876688242,-0.004260343033820391,0.004121872130781412,-0.0037241464015096426,0.0001469142735004425,0.0042009796015918255,-0.0047693634405732155,-0.0015467444900423288,0.0009679174982011318,0.0019033681601285934,-0.0028570694848895073,-0.004043432883918285,0.004957129713147879,-0.004280630499124527,0.004034198354929686,-0.002673882292583585,-0.005157063249498606,0.0005833525210618973,-0.0012187524698674679,-0.0006910087540745735,-0.00022862525656819344,0.00513590918853879,-0.0019141221418976784,0.000724028330296278,-0.000588876660913229,-0.0027999926824122667,-0.0007775812409818172,0.00038561131805181503,-0.003880903124809265,-0.002355156932026148,0.0027486314065754414,-0.003297473769634962,0.002340067643672228,0.0007524504326283932,0.0030666557140648365,0.001783871091902256,0.0035082842223346233,0.004371544811874628,-0.00046984804794192314,-0.0007040891796350479,2.9155053198337555e-06,-0.0018312516622245312,-0.004031150136142969,0.0006086337380111217,-0.0050469147972762585,0.000512746162712574,-0.004836649633944035,0.0017257528379559517,-0.0022136650513857603,0.003161483909934759,-0.002643076004460454,0.0004767514765262604,-0.004524177871644497,-0.0039918008260428905,-0.0020481913816183805,0.0020028967410326004,-0.00043859006837010384,-0.003672950202599168,-0.004552041180431843,0.004183298442512751,-0.0029090596362948418,-0.004580905195325613,-0.0006849202327430248,0.003911351319402456,-0.0022387441713362932,0.004818624351173639,-0.0027704276144504547,0.0005394886247813702,-0.0025104547385126352,-0.0017078239470720291,0.003642102237790823,-0.00018176063895225525,-0.0024656876921653748,0.0020486176945269108,0.003296119626611471,0.0004029064439237118,0.004795328248292208,0.001277548260986805,-0.0003848457708954811,0.004243850242346525,0.004930910188704729,0.001434830017387867,-0.003483152948319912,0.0018408913165330887,0.0013013728894293308,0.003593666013330221,-0.0019305055029690266,-0.0036805113777518272,0.0031401398591697216,4.381313920021057e-05,-0.0023682271130383015,-0.002638957928866148,-0.00172144896350801,0.0030056419782340527,-0.0047825356014072895,-0.0012152311392128468,0.003965042997151613,0.003993284422904253,-0.004721247591078281,2.240622416138649e-05,-0.0008523506112396717,0.0036934283562004566,0.0018568523228168488,0.004865159746259451,0.00024653226137161255,-0.00039666658267378807,-0.005190643481910229,-0.0016195098869502544,0.003821601625531912,-0.0009134267456829548,0.00027363747358322144,0.0038726325146853924,0.0009992141276597977,0.0035340539179742336,0.0019908840768039227,0.005108258221298456,0.003473659511655569,0.001795753836631775,0.00039620697498321533,-0.004618736449629068,0.004154448863118887,0.004572434816509485,-0.001211006660014391,0.002206703182309866,0.0013844538480043411,0.0028462917543947697,0.005045551341027021,-0.004948505666106939,7.895193994045258e-05,0.004497560206800699,0.0010422025807201862,-0.0016836784780025482,-0.0005501587875187397,0.0038458206690847874,-0.004155850037932396,-0.002460189862176776,-0.0045184665359556675,0.002441618125885725,-0.0014793321024626493,0.003554380964487791,-0.002427958184853196,-0.0049539972096681595,0.0012673651799559593,-0.00012084422633051872,0.0009327824227511883,-0.0023170483764261007,-0.003291294677183032,-0.0026395053137093782,0.0008946927264332771,-0.0006811129860579967,0.003998700994998217,0.004304192494601011,0.003889364656060934,-0.0007206075824797153,-0.0007428303360939026,0.004884721245616674,-0.0013528463896363974,-0.004939845763146877,-0.003184609580785036,-0.005006373859941959,-0.0009042602032423019,-0.004285318311303854,-0.002526279538869858,0.004257722292095423,0.004315886180847883,0.004312355536967516,-0.004239916801452637,-0.00359489768743515,-0.0011865231208503246,-0.003627974074333906,0.003570152912288904,-0.005174136254936457,0.003760640975087881,-0.0004725963808596134,-0.0009130872786045074,0.0028621661476790905,0.000657923985272646,-0.004426200408488512,0.001894382294267416,-0.0047097401693463326,0.0030104652978479862,-0.004907987080514431,-0.0046733682975173,-0.0029328283853828907,0.0007221815176308155,-0.0002859402447938919,0.0019399556331336498,-0.0011850791051983833,-0.00017180247232317924,0.0015575382858514786,0.002164674922823906,-0.00015071500092744827,0.0005352427251636982,0.0034496341831982136,-0.0014233984984457493,0.0029658866114914417,-0.002843570662662387,-0.002636188641190529,0.003372183535248041,0.0009417100809514523,-0.0021702952217310667,-0.0020613002125173807,0.0033878632821142673,0.0009303614497184753,0.0005944287404417992,0.0015531950630247593,0.0049428618513047695,0.002219950780272484,-0.0008562845177948475,-0.002761655021458864,0.0006376276724040508,0.0003475286066532135,-0.00345424422994256,0.0019724708981812,0.0035970215685665607,-0.002741938689723611,0.0008120550774037838,-0.004489810671657324,-0.00401047058403492,-0.004020989406853914,0.004123946186155081,-0.003005732549354434,0.0034062047488987446,-0.0034655334893614054,0.0049829366616904736,-0.0048253703862428665,-0.003584949765354395,-0.001768623711541295,0.0010909982956945896,0.0006082956679165363,0.002986579667776823,-0.0018390468321740627,0.0018109246157109737,0.0038150339387357235,6.710132583975792e-05,-0.0016105454415082932,0.0006113932467997074,-0.003814243944361806,0.0008807345293462276,-0.0006982223130762577,-0.003057629568502307,-0.00110685545951128,-0.0032550054602324963,-0.0005945614539086819,-0.004275397397577763,0.003614592831581831,0.004971104208379984,0.0006628036499023438,-3.3078715205192566e-05,-0.005070543847978115,0.0032114689238369465,0.0020476686768233776,-0.004045202862471342,0.005029328633099794,0.0035302559845149517,0.001599579118192196,0.004046814050525427,0.004348944406956434,-0.0016359006986021996,0.0008412511087954044,0.0016551362350583076,0.005104960408061743,-0.0003710188902914524,-0.00023182714357972145,0.0018814345821738243,-0.002742361044511199,0.001142845954746008,0.0008116313256323338,0.00026274239644408226,-0.0035009607672691345,0.0009746379218995571,0.00027286214753985405,0.002655185293406248,0.0012887297198176384,-0.0036057881079614162,-0.0036798042710870504,8.314428851008415e-05,0.00013807229697704315,0.004705115687102079,-0.004199719987809658,0.0033314633183181286,-0.003903063014149666,-0.004845505114644766,-0.0038247019983828068,0.0032606362365186214,-0.0008427989669144154,-0.0005734073929488659,0.0011195605620741844,-0.003433991689234972,0.002370832022279501,0.005029477644711733,0.0018820688128471375,0.002389466855674982,-2.5368761271238327e-05,0.000464022159576416,0.0035251867957413197,0.0032092989422380924,0.0021324465051293373,0.002808812540024519,0.004027082119137049,-0.004094724543392658,0.0005780281499028206,0.004171947482973337,0.002088822890073061,0.004443012643605471,-0.003722038585692644,-0.0005006925202906132,0.005044924560934305,0.004440783988684416,-0.0036989632062613964,0.0048235817812383175,0.0043173241429030895,-0.0024476656690239906,-0.0031044427305459976,0.0034747119061648846,-0.00011816993355751038,-0.001284623984247446,-0.0015805033035576344,-0.0001054280437529087,0.004244149196892977,-0.003768380731344223,-0.0023132904898375273,-0.002934640273451805,0.0026211547665297985,-0.0029885179828852415,0.003352849278599024,0.0035880389623343945,0.0038746860809624195,0.002088713925331831,-0.0031963137444108725,-0.0004251357167959213,-0.0024549125228077173,-0.002100876299664378,-0.0013182973489165306,0.0014213337562978268,-0.0017387859988957644,0.004269516561180353,-0.004076486919075251,-0.0047715213149785995,0.0006293198093771935,0.0026419865898787975,-0.003784848377108574,0.004622345324605703,-0.0011846888810396194,-0.0008819689974188805,-0.0049479990266263485,-0.004445916973054409,-0.0024216428864747286,0.0042367917485535145,-0.002568962052464485,0.0015219850465655327,0.0027475557290017605,-0.002532132901251316,0.002852905075997114,0.003042475786060095,0.0022216239012777805,-0.002416215604171157,0.0007120366208255291,-0.00022827507928013802,-0.000952916219830513,-0.0012906074989587069,-0.002698418917134404,0.0047822208143770695,-0.0051116845570504665,0.0007952926680445671,0.001573490910232067,0.0006563370116055012,-0.002311036456376314,-0.004259285517036915,-0.0028084060177206993,0.003329672385007143,0.0030195866711437702,-0.0031939975451678038,0.0004521072842180729,0.0031306142918765545,0.0020287414081394672,0.004075630102306604,-0.0017327098175883293,-0.0015993055421859026,0.0050040544010698795,-0.0041841245256364346,-0.003040774492546916,0.003187802154570818,-0.005194367840886116,-0.0022084929514676332,-0.0011273520067334175,0.00040071550756692886,0.0033578998409211636,-0.002198434667661786,-0.0007339194416999817,0.0022568837739527225,0.0008655558340251446,-0.0007538660429418087,0.0025042248889803886,6.770947948098183e-05,0.0018966342322528362,0.002571248449385166,-0.0035374381113797426,-0.0021246811375021935,0.004414408002048731,-0.0015202497597783804,-0.0018286332488059998,-0.0030522767920047045,-0.0051256390288472176,0.0009878664277493954,-0.001695872051641345,0.0011115074157714844,-0.0016387098003178835,-0.0009234799072146416,0.003554354887455702,0.0005354247987270355,3.435229882597923e-05,-0.0017832210287451744,0.0036530992947518826,-0.0017745450604707003,0.002867101226001978,-0.002061635721474886,0.0015808637253940105,-0.002542436122894287,0.003806524444371462,0.004615121055394411,0.004482117947191,0.0031959512270987034,0.0031285383738577366,0.0044118608348071575,0.0005163727328181267,0.004871421959251165,-0.0006739478558301926,-0.0005100187845528126,-0.0013520154170691967,0.0024180025793612003,0.003710815217345953,0.0013485029339790344,-0.002023975597694516,0.0048410589806735516,0.0008670659735798836,0.0038200956769287586,-0.003024742705747485,-0.003389995079487562,-0.0011188630014657974,0.001875473652034998,-0.0006111417897045612,-0.0013147650752216578,-0.0019814774859696627,0.002476657275110483,0.0018600104376673698,-0.0044122906401753426,-0.0005495469085872173,0.0016491259448230267,-0.0020878990180790424,-0.004078156314790249,0.0008948100730776787,0.0009201816283166409,0.0023016706109046936,-0.0035726334899663925,-0.0015845049638301134,-0.003834863193333149,-0.0002478710375726223,-0.003392959013581276,-0.004817491862922907,0.0003704591654241085,0.00045649800449609756,-0.004753811284899712,-0.0051240758039057255,-0.0005032205954194069,-0.003432018682360649,-0.0030273820739239454,-3.2714568078517914e-05,-0.0026689800433814526,-0.0011877147480845451,0.004247990902513266,-0.0047798603773117065,0.00325241731479764,-0.002045168075710535,-0.0028658828232437372,0.0023703845217823982,0.00404577748849988,0.00498152757063508,0.0030893650837242603,-0.0023438811767846346,0.002613332588225603,0.0021217409521341324,0.0017287563532590866,-0.004263638518750668,-0.0010465607047080994,0.0024506617337465286,0.004197610076516867,0.0035420130006968975,-0.0030340070370584726,0.0026476155035197735,0.0008199061267077923,-0.0027730371803045273,-0.0015707053244113922,-0.004468278493732214,0.0016898340545594692,-0.0034096345771104097,0.0006067934446036816,-0.003926551900804043,0.0035513737238943577,-0.004523942247033119,-0.0028507777024060488,-0.0030809673480689526,-0.004072349052876234,-0.0009235246106982231,0.0025303540751338005,-0.004634017124772072,0.004329778719693422,-0.00028151366859674454,-0.001597975380718708,0.0018593650311231613,-0.0022341974545270205,-0.004213348962366581,0.0020101163536310196,0.00013305852189660072,-0.0015421458519995213,0.0002898857928812504,0.003325070720165968,-0.0033846693113446236,0.003287412691861391,-0.003917493391782045,0.0010618194937705994,0.00276391813531518,-0.0010776100680232048,0.004465359728783369,0.004166696686297655,-0.005057078320533037,0.005028472747653723,