{"outputToTypes":["Mobile & (Air | Transport)","Mobile & (Air | Transport)","Mobile & (Air | Transport)","Mobile & (Air | Transport)","Air & Fighter","Air & (Bomber | Gunship)","Air & MissileDefense","Fabber & Air",""],"inputBiasWeights":[-0.0541604682803154,0.005845794454216957,0.005186248570680618,-0.0034123342484235764,0.003706661518663168,0.031118808314204216,-0.0003102166811004281,0.00426853122189641,-0.0013706377940252423,-0.0032893293537199497,0.00013724627206102014,-0.001988157397136092,0.005222297739237547,0.0032008024863898754,0.004730504937469959,0.033125270158052444,0.033604081720113754,-0.005027467384934425,0.003971416037529707,-0.004818422254174948,-0.03253285214304924,-0.0019794388208538294,-0.011649671010673046,-0.003966313321143389,0.0004919196362607181,0.015541858039796352,0.03064124844968319,-0.02168399654328823,0.003727606264874339,-0.0004265833122190088,0.004403401166200638,-0.009848637506365776,0.0014462245162576437,0.004630742594599724,0.0071478113532066345,-0.0030352023895829916,-0.00045858739758841693,-0.0016805275809019804,0.002459552139043808,0.035146333277225494,0.0052087754011154175,0.008418593555688858,-0.0005169642972759902,-0.0022478890605270863,0.004706821404397488,0.008892812766134739,0.013616279698908329,-0.0044465446844697,-0.005526513326913118,0.01193758100271225,-0.018473532050848007,-0.0022438925225287676,0.0031373738311231136,0.0029438110068440437,0.0012932461686432362,-0.013526562601327896,0.02459116466343403,6.858076085336506e-05,-0.0006439085700549185,0.001324562937952578,-0.0011562890140339732,0.0017266455106437206,0.003908767364919186,0.017726754769682884,-0.009874447248876095,0.0006592861609533429,0.021987156942486763,-0.0034501361660659313,-0.0009918498108163476,0.02840930037200451,-0.021822268143296242,0.005371665582060814,0.004265093244612217,-0.0347474031150341,-0.004190738778561354,-0.0036219446919858456,0.02861371822655201,-0.001043020049110055,0.008536743931472301,-0.034276556223630905,-0.03752009570598602,0.0033956151455640793,0.009381898678839207,0.005477029364556074,0.03414572775363922,0.0037080803886055946,-0.0028446426149457693,-0.0033360030502080917,-0.00021072877279948443,-0.003809782676398754,0.00330324936658144,-0.002356589073315263,0.0018622006755322218,0.0008071070187725127,0.0002302450011484325,0.0023335807491093874,0.005681306589394808,0.0031893725972622633,-0.003080847440287471,-0.002675158204510808,-0.0007474491139873862,0.030780650675296783,-0.029032763093709946,0.021431881934404373,0.04871188476681709,0.003809324000030756,-0.019213585183024406,0.0022445195354521275,-0.0011810073629021645,0.003737438004463911,0.004685200285166502,0.0009052234818227589,0.001654734369367361,0.002897911472246051,0.0004555550985969603,0.025518767535686493,0.007681749295443296,-0.0023176188115030527,0.0011034465860575438,0.004513884428888559,-0.023976603522896767,0.006141602527350187,0.001055286731570959,0.005374703090637922,0.0048155635595321655,-0.034194666892290115,-0.0011101628188043833,0.0016398015432059765,0.006103970110416412,0.003630225080996752,-0.0010083764791488647,-0.0004166669968981296,0.0024774810299277306,-0.00346756330691278,-0.0006864587194286287,-0.0023072052281349897,0.007935242727398872,0.0023169831838458776,0.030223790556192398,0.0028284043073654175,0.00045261255581863225,-0.0018064015312120318,0.0046205236576497555,0.00028572528390213847,0.0012160131009295583,-0.0010972286108881235,0.0014541910495609045,-0.018747225403785706,-0.04008391872048378,-0.0012959468876942992,0.002242165617644787,0.0055281296372413635,0.00393860274925828,-0.0016461729537695646,0.0032407131511718035,0.0023025167174637318,-0.036465976387262344,0.031142646446824074,-0.00457953242585063,0.02002723328769207,0.017716428264975548,0.0033192834816873074,0.004412129055708647,-0.020388305187225342,0.0312839150428772,0.001467851223424077,-0.002377611817792058,-0.0005466071306727827,0.016055580228567123,0.0031993561424314976,0.044617909938097,0.0003725371207110584,0.012489334680140018,0.001708173076622188,0.0010701301507651806,0.02894483134150505,0.0007817225414328277,0.026311790570616722,0.00543188164010644,-0.00225496431812644,-0.0010837892768904567,0.00381204835139215,0.002446512458845973,0.0007596946088597178,0.0032530592288821936,0.02053246460855007,-0.0030306268017739058,-0.0005083386786282063,0.002936274977400899,0.00340447761118412,-0.00010239858966087922,0.0014726362423971295,-0.0013539425563067198,-0.03076871484518051,-0.002020834479480982,0.0029938637744635344,0.024555111303925514,-0.004790738224983215,-0.06844679266214371,0.0043693468905985355,-0.005317174829542637,0.013066273182630539,0.004433757625520229,0.04497278109192848,0.0035643961746245623,-0.04924246668815613,-0.007679802365601063,-0.0030490513890981674,0.04342293366789818,0.010504313744604588,-0.0018888235790655017,0.004325708374381065,-0.0034508390817791224,0.009508488699793816,-0.003331409301608801,0.0031888079829514027,0.027527866885066032,-0.035176798701286316,0.0019570293370634317,-0.002175193512812257,0.003417886793613434,0.005865813232958317,-0.04908549040555954,0.000608301255851984,0.025986699387431145,6.49412177153863e-05,0.001476893899962306,-0.0007543361280113459,0.003663176205009222,-0.0025651424657553434,0.0022570923902094364,0.002980594290420413,-0.0011862870305776596,-0.0009020533179864287,0.030808135867118835,-0.0037401195149868727,-0.002879425883293152,0.037442512810230255,0.0049656149931252,-0.00047079817159101367,-0.0015237844781950116,-0.0017552319914102554,0.0010519238421693444,0.001771873445250094,-0.00018291178275831044,-0.016443228349089622,0.015685826539993286,0.009546355344355106,0.013054752722382545,0.0005916622467339039,0.016641059890389442,0.0014322965871542692,-0.0008078886312432587,0.03631961718201637,0.0038246067706495523,0.0005262751947157085,0.0037382785230875015,0.005451869685202837,-0.0012778608361259103,0.0015365685103461146,0.0007160250679589808,-0.004261503461748362,-0.002163416938856244,-0.002840341767296195,-0.0002765454410109669,-0.002431177534162998,0.00475597707554698,-0.00888193678110838,0.0010067473631352186,-0.010307446122169495,-0.003672556020319462,-0.0005735012819059193,0.04895033314824104,0.008731082081794739,-0.003925667144358158,-0.04643050208687782,0.004462233278900385,-0.0017425400437787175,-0.002790807979181409,-5.1347637054277584e-05,0.005165080539882183,0.0014824297977611423,0.004495266824960709,0.0007747460040263832,-0.04988132044672966,0.0007762043969705701,-0.0015026392647996545,0.0037409160286188126,0.009907837957143784,-0.0015384448925033212,0.00393644580617547,0.0051803081296384335,0.018397806212306023,0.003660951741039753,-0.003227056236937642,-0.0007615889771841466,-0.02445128932595253,0.01085995975881815,0.0036636940203607082,-0.0033329229336231947,0.0003115386643912643,-0.0019797401037067175,0.02100481279194355,0.005266977474093437,-0.0021392793860286474,6.555907748406753e-05,-0.056100327521562576,-0.0008563878363929689,0.0008422091486863792,0.0006297591025941074,-0.0017441142117604613,-0.0016172729665413499,-0.010428884997963905,0.005743671208620071,0.00834833923727274,-0.00010567466233624145,0.009046588093042374,0.021564586088061333,-0.0026788844261318445,0.0040139323100447655,0.004401644691824913,-0.0020375230815261602,0.029479924589395523,-0.02623623050749302,0.004773088730871677,-0.0032006590627133846,-0.029158854857087135,0.0003659498761408031,0.03939716890454292,0.016787447035312653,-1.9989813154097646e-05,-0.010651160031557083,0.0034076806623488665,0.0008076655212789774,0.012088430114090443,-0.0028684823773801327,0.004000099841505289,-0.0013254196383059025,0.004699408076703548,-0.004078213591128588,-0.0034717076923698187,0.00085277552716434,-0.04257604479789734,0.00900833960622549,-0.07013915479183197,-0.0013681092532351613,0.006233721971511841,0.004696691408753395,-0.00018341807299293578,-0.028953123837709427,0.02503078430891037,0.0027768611907958984,0.001149811432696879,-0.0019603550899773836,-0.0004535773769021034,-0.04853380471467972,0.009718968532979488,0.004879188258200884,0.024219835177063942,-0.002091683680191636,-0.0030152772087603807,0.002211226150393486,-0.0034614542964845896,-0.01758473925292492,0.0006046562339179218,0.014438147656619549,-0.03215555101633072,0.004614074714481831,0.0024945440236479044,-0.0006427580374293029,-0.004763689357787371,0.004756679758429527,0.005098757334053516,-0.0028557907789945602,-0.0003059591690544039,-0.008164975792169571,0.00229162210598588,0.00010919381020357832,0.0015168888494372368,0.027321092784404755,-0.0009175730519928038,-0.01690937764942646,0.04808136075735092,0.051715780049562454,-0.004589591640979052],"outputActivationType":"Sigmoid","hiddenActivationType":"Exponential","inputWeights":[-0.001933857100084424,-0.0024915856774896383,0.00022018980234861374,-0.004373149015009403,0.0031811227090656757,-0.0013753506354987621,-0.004608884919434786,0.001619827002286911,-0.004815739579498768,0.00044185202568769455,-0.002683433936908841,0.004086758475750685,-0.0019543510861694813,0.0018161758780479431,0.0014513200148940086,-0.0015267061535269022,-0.004659919999539852,0.004050534684211016,0.003344480413943529,-0.001867024227976799,0.004119518678635359,-0.0010626642033457756,-0.0013115238398313522,-0.0034702448174357414,0.001595029141753912,-0.0028579216450452805,-0.0025468862149864435,-0.003247241023927927,0.004906149115413427,-0.002475613495334983,0.003034729976207018,-0.0037119556218385696,0.0031451121903955936,0.0033974112011492252,-0.003811551257967949,0.002046676818281412,-0.0018649583216756582,-0.004904919303953648,-0.0025209474842995405,-0.003063608193770051,0.003256769385188818,0.0006592120043933392,0.0002325465902686119,-0.0050925216637551785,-0.0036872951313853264,0.00158741045743227,-8.546793833374977e-05,0.003146135713905096,0.0008010468445718288,0.004130756016820669,0.0034989132545888424,0.0007046908140182495,-0.0023741808254271746,0.003259821329265833,-0.0036804000847041607,-0.005159655585885048,-0.0013638371601700783,0.00143426563590765,-0.0019905399531126022,-0.004133404232561588,-0.0027639660984277725,0.0002865581773221493,0.003365322481840849,-0.0013816561549901962,0.0011241319589316845,0.0030589266680181026,0.0016173413023352623,0.0036807977594435215,-0.0026308430824428797,-0.002807202283293009,0.0008793878369033337,-0.0010089129209518433,-0.0036132836248725653,0.004540470894426107,-0.0017965452279895544,0.004187603946775198,-0.0032708279322832823,-0.0021519747097045183,0.004713309463113546,-0.00499210599809885,-0.003513929434120655,2.45007686316967e-05,0.0045191203244030476,0.0021482864394783974,0.004560578148812056,0.00085836136713624,-0.001457033446058631,0.003975566942244768,0.0004764087498188019,-0.00269759027287364,0.002131448592990637,0.004470824729651213,-0.0051274471916258335,0.0021976493299007416,-0.0041477251797914505,0.005076391156762838,0.0019253012724220753,0.001969284377992153,0.0014424757100641727,-0.0036192522384226322,0.004024019930511713,0.0033363630063831806,0.0034967618994414806,-0.003865706268697977,-0.002636587480083108,0.0010907100513577461,0.0028188792057335377,0.0040078251622617245,-0.0024883307050913572,-0.0043360511772334576,-0.003013686276972294,0.003085147123783827,0.0016608992591500282,0.004136507865041494,-0.0004693996161222458,-0.0011646915227174759,0.00482672406360507,-0.003196629462763667,-0.003111412050202489,-0.0027466686442494392,-0.002650701906532049,-0.0028732609935104847,0.003416192252188921,0.0040916805155575275,0.004796571563929319,-0.00363341998308897,-0.004061708692461252,0.0011545340530574322,-0.003282269462943077,0.003328328486531973,0.0010087150149047375,0.0010341396555304527,-0.003977501764893532,-0.0020951852202415466,0.0008314554579555988,-0.0013692185748368502,-0.0028467474039644003,0.0036996430717408657,0.002365371212363243,-0.0011333166621625423,-0.0008164094761013985,0.002173791639506817,-0.0019676245283335447,-0.003925449680536985,0.0015854896046221256,-0.00022265547886490822,-0.001870409119874239,-0.002401581034064293,-0.0012364932335913181,0.003572587389498949,-0.0008779899217188358,0.0023685800842940807,0.004156091716140509,-0.004314356949180365,-0.0008916817605495453,-0.0011383206583559513,0.0027675689198076725,0.004878902342170477,-0.0018736021593213081,0.0023889602161943913,0.004169988911598921,-0.0022438494488596916,-0.0030087667983025312,0.0005355477333068848,0.005065998528152704,-0.004737712908536196,-0.00417362293228507,0.0026209731586277485,0.005057517904788256,0.0018510064110159874,-0.003951719030737877,-0.0032012269366532564,-0.0016718839760869741,-0.0021053487434983253,-0.00501505471765995,-0.0011792415753006935,-0.0030748837161809206,0.0013361894525587559,0.003629004117101431,-0.002818724373355508,0.0029493565671145916,-0.004632653668522835,-0.0014182066079229116,0.001249814871698618,0.0025285338051617146,0.0009627798572182655,-0.003982735797762871,-0.0033739982172846794,-0.0008416720665991306,-0.0038615399971604347,-0.0011968500912189484,0.0023917658254504204,0.0020660115405917168,0.00242825411260128,-0.0019189177546650171,0.002236790955066681,0.0017206142656505108,-0.0027605551294982433,-0.0007157884538173676,0.0011297175660729408,-0.0003660176880657673,-0.003303002566099167,0.0002757604233920574,0.004632885102182627,-0.0024769967421889305,0.004459822084754705,-0.0020324198994785547,0.0035637053661048412,0.004343734588474035,-0.0031013227999210358,0.0007227254100143909,-0.00259792641736567,0.00016600731760263443,-0.0004119738005101681,0.001719997264444828,-0.0029571172781288624,-0.0009756819345057011,-0.004916042555123568,0.0002982798032462597,-0.002149055479094386,0.003722152207046747,0.0010633147321641445,-0.0014086400624364614,0.0015143854543566704,-0.005016597919166088,-0.0006649116985499859,-0.00131757534109056,-0.0005548540502786636,0.0041723730973899364,-0.00239750137552619,0.0006884871982038021,-0.0030738371424376965,-0.003945520147681236,0.004253952298313379,0.002659567166119814,-0.0002496088854968548,-0.0011608731001615524,-0.003705943701788783,-0.00145372049883008,0.0013978872448205948,-0.001308542676270008,-0.0026857275515794754,0.0013818801380693913,0.003038631286472082,0.0014155213721096516,-0.0011312533169984818,-0.0046800412237644196,-0.0019375528208911419,0.004174596164375544,-0.00043730810284614563,0.0028910706751048565,-0.004654120188206434,0.0026126415468752384,-0.001443757675588131,-0.001268661580979824,-0.0032534352503716946,-0.004469744861125946,0.0028147906996309757,-0.004769804421812296,-0.004106775391846895,0.0026003564707934856,-0.005151540506631136,0.00125481141731143,0.002527664415538311,-0.00517391599714756,-0.0009365379810333252,-0.004169289488345385,0.0009065368212759495,0.0016494379378855228,0.002535846084356308,0.003628035541623831,-0.004200656898319721,-8.861254900693893e-05,0.00373287545517087,-0.0010383655317127705,-0.001885951729491353,-0.0012641153298318386,0.00010561756789684296,-0.0001956927590072155,0.0031580128706991673,0.0007597850635647774,0.0019060568884015083,0.004132513422518969,0.0033949785865843296,0.0011899042874574661,0.0042159720323979855,6.088055670261383e-05,0.002283590380102396,-0.003547518514096737,0.0016830507665872574,-0.0026081481482833624,0.0013422011397778988,-0.0015865461900830269,-0.004540503956377506,-0.00472368486225605,-0.004413718357682228,-0.0016709575429558754,0.00019622920081019402,0.001037373673170805,-0.004639245104044676,-0.003656064160168171,-0.0013924227096140385,0.0016987491399049759,-0.003507171757519245,0.0045020668767392635,0.0025532906875014305,-0.001629280624911189,0.0046425978653132915,-0.0036128154024481773,-0.0002266550436615944,-0.0024438113905489445,-0.00020538410171866417,0.0030167228542268276,-0.003516106866300106,-0.0021121061872690916,-0.0035070478916168213,0.001753401942551136,0.004002831410616636,-0.0007253512740135193,0.0036374800838530064,-0.0012857797555625439,-0.001366487704217434,0.0014237454161047935,-0.0023178113624453545,0.0010225395672023296,0.004593396093696356,0.0013365447521209717,0.0020945435389876366,-0.00022526271641254425,-0.004549006465822458,0.00201142905279994,-0.0009210547432303429,-0.005149551201611757,-0.002427473897114396,0.0025198785588145256,-0.0016266971360892057,0.003907055128365755,-0.004095188807696104,0.0022552055306732655,0.0004999274387955666,0.005098401103168726,-0.0030269238632172346,-0.0022918565664440393,-0.004970639478415251,-0.00019124895334243774,0.002349142450839281,0.0037890891544520855,-0.004053947981446981,-0.0003550630062818527,0.002995466347783804,0.0009249043650925159,0.0008836709894239902,0.003186850342899561,-0.001324760029092431,-0.0020365603268146515,-0.004336899612098932,0.004000493790954351,-0.004776568152010441,-0.0029017000924795866,-0.00447690999135375,-0.0014888502191752195,-0.0003106514923274517,0.002543944865465164,0.000992374960333109,-0.004150821827352047,-0.0027740378864109516,0.001477536279708147,-0.0007531885057687759,0.00464083394035697,-0.004538475535809994,0.0008862074464559555,0.003034499939531088,0.0020104851573705673,0.005057172384113073,-0.0015535305719822645,-0.0033918602857738733,0.004198175389319658,0.00047631701454520226,-0.0016830617096275091,-6.1021652072668076e-05,-0.004918982740491629,0.003697881940752268,0.0009694383479654789,-0.0016243017744272947,-0.0023775361478328705,-0.0037001287564635277,0.0012384969741106033,-0.003305102000012994,0.003775674384087324,-0.005092204548418522,-0.0009329644963145256,-0.002614877186715603,0.004071563016623259,-0.0035233371891081333,0.0003779386170208454,0.0024465983733534813,-0.0037860311567783356,0.004517456982284784,-0.0012143384665250778,-0.0029689515940845013,0.0017483066767454147,-4.8135872930288315e-05,0.0030420697294175625,0.0006767855957150459,-0.0043247235007584095,0.004712999332696199,-0.004507814068347216,-0.005059863906353712,0.0033694193698465824,-0.00503568397834897,0.0034652980975806713,-0.004306616261601448,0.002659653779119253,-0.002208834746852517,-0.005122780334204435,0.001566536258906126,0.0008249962702393532,0.0014664721675217152,-0.000604693777859211,0.00198250450193882,0.0034956284798681736,-0.0019803678151220083,0.0006088926456868649,-0.0019934282172471285,0.001312808133661747,-0.002108981367200613,-0.0015931699890643358,0.0023726909421384335,-0.005098420660942793,-0.001407452393323183,0.001745888963341713,-7.220078259706497e-05,0.004047445487231016,-0.0020294201094657183,0.0034217252396047115,-2.6335008442401886e-05,-0.00345918582752347,0.0047057452611625195,0.001889809500426054,-0.004448947496712208,-0.0023212754167616367,-0.0034060031175613403,-0.0033280644565820694,-0.004104656167328358,-0.002788995625451207,-0.0012447829358279705,0.0024910937063395977,0.0006577749736607075,0.002504897303879261,0.0046797157265245914,0.0038931607268750668,-0.002426538849249482,-0.0014193509705364704,0.004547113087028265,-0.0010631759651005268,0.0030768453143537045,0.0024124938063323498,-0.001196661964058876,0.002722987439483404,-0.004286878742277622,-0.004536742344498634,-0.004492215812206268,0.0005137096159160137,0.0012625395320355892,0.0004045497626066208,-0.004668843932449818,6.28097914159298e-05,0.005065233912318945,-0.00023048464208841324,0.004932746756821871,-0.0006678742356598377,-0.0022814986295998096,-0.004534988664090633,-0.0021109171211719513,-0.004826215095818043,0.0005762013606727123,-0.0023498584050685167,-0.0018681043293327093,-0.002046045148745179,0.002789480146020651,-0.0014949636533856392,-0.00014271074905991554,0.0013222112320363522,-0.0051896777004003525,-0.00030876509845256805,0.0009146775119006634,0.004643420223146677,-0.001302217599004507,0.0029356922022998333,0.004821555223315954,0.005088623147457838,0.004218938294798136,-0.004522575996816158,-0.0024029843043535948,0.004121474456042051,0.0008622901514172554,-0.004279748536646366,-0.0012363172136247158,-0.00016726600006222725,0.0015822919085621834,0.0003085881471633911,-0.003405932569876313,-0.00031900545582175255,-0.004001882392913103,-0.003077158937230706,-0.004416329320520163,0.0019321786239743233,0.002106272615492344,-0.0034928456880152225,-0.003550800494849682,-0.005138222593814135,-0.004276084713637829,-0.002916987519711256,-0.0017873789183795452,0.0006498163565993309,-0.004912087693810463,-0.0005466807633638382,-0.0016117033082991838,0.004964865278452635,-0.0021486454643309116,-0.0036056330427527428,-0.0033609080128371716,0.003221034538000822,0.0008054235950112343,-0.004563377238810062,0.004385075066238642,0.0008772267028689384,-0.003439457155764103,0.0002245851792395115,0.0024191606789827347,-0.004764106124639511,0.004036801401525736,-0.00043064961209893227,0.0012531690299510956,-0.0006421324796974659,0.004822951275855303,-0.002361592371016741,0.00337669113650918,-0.0017126789316534996,0.001631156075745821,0.003323338460177183,0.002684366423636675,-0.003577865194529295,0.0020609679631888866,0.004239306319504976,-0.00474145682528615,0.0008495133370161057,0.0025122668594121933,-0.002968601183965802,0.000561082735657692,0.001656239852309227,-0.00037961918860673904,0.0020641773007810116,-0.0004047243855893612,-0.004475763067603111,0.002169231418520212,0.003344965633004904,0.004065189976245165,-0.00010395282879471779,0.004264168906956911,-0.003464282490313053,-0.00028607994318008423,0.00376305403187871,0.001699012704193592,-0.0014253107365220785,0.0006995880976319313,0.002544949296861887,-0.0021130957175046206,-0.0017915577627718449,0.0038392688147723675,0.0034025548957288265,-0.00020490260794758797,-0.0020289395470172167,0.0017293533310294151,0.0012906445190310478,-0.0006782915443181992,-0.001193741336464882,0.0016852058470249176,-0.0019361681770533323,0.003515139687806368,-0.0013381240423768759,-0.004093429073691368,-0.003170465352013707,0.005104003008455038,0.003293351735919714,0.00040299445390701294,-0.0005933279171586037,0.0043275183998048306,0.0016136541962623596,0.001803204882889986,0.0018030176870524883,-0.004691561218351126,0.0033075916580855846,-0.00397614948451519,-0.0012944357004016638,0.0010416735894978046,-0.0033800299279391766,-0.004218013491481543,0.0041017853654921055,0.003162975888699293,0.001955791376531124,0.004605978261679411,-7.845275104045868e-05,-0.004620629828423262,-0.0013916683383286,-0.004548762459307909,-0.004705994855612516,0.002564965281635523,0.0016847364604473114,0.003256091382354498,-0.0038445917889475822,-0.0034589197020977736,-0.004784721415489912,0.005166912917047739,-0.0018482268787920475,-0.004499977920204401,0.0010004565119743347,0.002198671456426382,0.0009629731066524982,-0.003912528045475483,-0.000868889968842268,-0.0009535900317132473,0.0033432315103709698,0.003876714501529932,-0.0015887729823589325,-0.004222117830067873,-0.002787248231470585,0.004326603841036558,0.0027795634232461452,0.0026271617971360683,-0.0023774171713739634,-0.004763995762914419,-0.004405445419251919,0.002552905585616827,0.0027482411824166775,0.0014096233062446117,-0.00382329523563385,-0.00017012562602758408,-0.001766461180523038,-0.002892185701057315,0.00011281203478574753,-0.0025305994786322117,-0.0022327646147459745,0.00010541453957557678,-0.004943531937897205,-0.0026944729033857584,-0.0036671292036771774,-0.0022005154751241207,0.000939998310059309,-0.00371771352365613,-0.004055268131196499,-0.004980938043445349,-0.003729352029040456,0.0014349143020808697,-0.0003551407717168331,-0.0033766995184123516,-1.030508428812027e-06,0.0019806143827736378,0.0011630617082118988,0.0024374625645577908,-0.0017520978581160307,-0.0005715666338801384,0.0001797294244170189,-0.001068325713276863,0.0032759704627096653,0.0049270628951489925,0.0016770288348197937,-7.774308323860168e-05,-0.00022801384329795837,0.004779386799782515,-0.0013162798713892698,0.005080205854028463,-0.0007454934529960155,0.002869980875402689,-0.0007575158961117268,0.0023851431906223297,-0.003888837294653058,0.002859909553080797,0.000790249090641737,0.004062721971422434,-0.004521118476986885,-0.003637248184531927,0.001510231290012598,0.0046200803481042385,0.003996242303401232,0.005020241718739271,-0.002260094042867422,-0.00018648523837327957,-0.0016558906063437462,-0.00202717212960124,0.002067191991955042,-0.004330620169639587,-0.0016144814435392618,-0.003321233903989196,-0.0011576837860047817,-0.0035438165068626404,-0.0017158645205199718,0.0010132184252142906,0.0008098292164504528,-0.0010542375966906548,-0.0017844708636403084,-0.001657809130847454,-0.002288020681589842,-5.634734407067299e-05,-0.0004800548776984215,-0.004180135205388069,0.002502625808119774,0.004314010497182608,-0.0005783466622233391,-0.0035737049765884876,-0.0007950151339173317,-0.0009152847342193127,-0.00311848777346313,-0.0037460350431501865,-0.0004001148045063019,0.0014167861081659794,0.0003370409831404686,-0.0017040474340319633,-1.3676006346940994e-05,-0.0014917794615030289,0.0005312957800924778,0.0007356954738497734,-0.0017293731216341257,-0.00400050263851881,0.0049305506981909275,0.004865739028900862,0.0020510093308985233,-0.004702244885265827,-0.0036095420364290476,-0.00045871734619140625,-0.0023852260783314705,-0.003373121377080679,-0.00035703834146261215,0.0008684592321515083,0.0005314317531883717,0.004450723994523287,0.0030768285505473614,-0.003718307940289378,0.0012180921621620655,-0.004472173750400543,-0.005057067144662142,0.0022138473577797413,0.0003157639876008034,0.0023687114007771015,0.001266478095203638,-0.005180858075618744,-0.004062481690198183,0.0019903602078557014,-0.0015643490478396416,0.002078443765640259,0.0041176932863891125,0.0045738606713712215,-0.00300920894369483,-0.0025719827972352505,-0.0035505839623510838,0.002101609483361244,0.002053564414381981,0.005100169684737921,-0.004457508213818073,-0.004580190405249596,0.00467056455090642,0.0003110053949058056,-0.001997340703383088,0.003653933759778738,-0.0036180345341563225,0.0014278995804488659,0.0026331166736781597,0.003205175045877695,0.00314017990604043,0.00027911318466067314,-0.0037052598781883717,7.724389433860779e-05,0.0014975089579820633,0.002794219646602869,0.0005851904861629009,-0.00431855907663703,0.0020069070160388947,0.004769091960042715,0.0023001511581242085,0.0031199553050100803,0.005116813350468874,0.0006116521544754505,0.005080393981188536,0.0035636662505567074,0.00445581367239356,-0.002194878878071904,-0.0032459048088639975,0.004965303000062704,0.003977023530751467,0.0015375260263681412,0.0025612646713852882,0.004111521411687136,0.0038201347924768925,-0.003190405899658799,0.0033087790943682194,-0.005070934072136879,0.002077181823551655,-0.0038727647624909878,0.0023193121887743473,-0.0023163077421486378,-0.0014614502433687449,-0.0038752059917896986,-0.004176430869847536,-0.0030866696033626795,-0.0021930173970758915,0.0004120292142033577,-0.0027934780810028315,0.0040316288359463215,-0.003259434597566724,0.0032956725917756557,-0.003286433406174183,0.0020941351540386677,-0.004003198817372322,0.004213882144540548,-0.00010803388431668282,-0.0033346819691359997,-0.0017132065258920193,0.002036572899669409,0.00251807551831007,-0.0004213852807879448,0.0009261663071811199,-0.0008038869127631187,-0.004859853535890579,-0.00193146918900311,-0.003536634147167206,0.0023230365477502346,-0.0013548515271395445,-0.0008300966583192348,0.004391108173877001,0.0006448673084378242,0.004247692879289389,0.002733688335865736,-0.0012083039619028568,0.0018657958135008812,0.0021737036295235157,-0.0002566967159509659,0.0045172725804150105,-0.0032079671509563923,-0.004957366269081831,-8.237641304731369e-05,-0.00165982311591506,0.00017114635556936264,0.002480629365891218,-0.0015073292888700962,0.0007156459614634514,-0.0021080486476421356,-0.004199407994747162,0.004012139048427343,-0.0006026430055499077,-0.004708712454885244,0.004410951863974333,0.002938224468380213,-0.0045265681110322475,-0.0006539728492498398,0.0020097224041819572,-0.0033354065380990505,0.001783544197678566,0.0029174205847084522,0.00434434087947011,-0.002322916407138109,-0.0025153234601020813,-0.0017542033456265926,-0.004079009871929884,0.0025309636257588863,-0.00222505209967494,-0.004373949021100998,0.004268974531441927,0.002734170760959387,0.0015095872804522514,0.0020271274261176586,0.00410881033167243,-0.004000963643193245,0.0014957515522837639,0.001788930967450142,0.0011944412253797054,0.0009520999155938625,-0.004389714449644089,-0.0038886452093720436,0.004982596728950739,0.0024036793038249016,0.00036339322105050087,0.0039674811996519566,-0.0005170265212655067,0.004901556763797998,0.002790080849081278,-0.0028503083158284426,-0.002327995840460062,-0.00040727853775024414,0.0029658530838787556,0.004306033719331026,0.0005181534215807915,-0.0027494863606989384,-0.0042114295065402985,0.0018487856723368168,0.002976465504616499,-0.0016406134236603975,0.0035218619741499424,0.000961188692599535,0.00021326402202248573,0.0042674546130001545,0.0023708976805210114,-0.000135812908411026,-0.001670642988756299,-0.00254069990478456,-0.0011512520723044872,-0.00434589758515358,0.003627608995884657,-0.0035154009237885475,0.0011346843093633652,0.003931170795112848,0.00018890202045440674,0.002286109607666731,0.0003067511133849621,-0.0010611619800329208,0.005159934516996145,0.0017383452504873276,0.0008850009180605412,-0.003651865292340517,-0.004792644176632166,-0.0029042751993983984,-0.003911667503416538,-0.004322117660194635,0.001738669816404581,-0.004044272471219301,-0.003261025995016098,5.726004019379616e-05,-0.0023335828445851803,-0.004605180583894253,-0.0034125489182770252,0.003881086129695177,-0.004978925455361605,-0.0012568263337016106,0.0030698836781084538,-3.4209806472063065e-05,-0.002501444425433874,0.0010927659459412098,0.002537395339459181,-0.0034614140167832375,-0.005003536585718393,0.0017456612549722195,0.002982791978865862,0.002962969709187746,-0.00416992325335741,-0.003994625993072987,0.003757414873689413,-0.0025732163339853287,-0.0049668001011013985,0.0010032504796981812,0.004281744826585054,0.001228775829076767,-0.002711657667532563,-0.0014005748089402914,0.00371139170601964,0.0005157655104994774,0.0037204171530902386,0.005130061414092779,0.0017741969786584377,-0.0014204184990376234,-0.004746024496853352,0.004860061686486006,0.004450375679880381,-0.0016558461356908083,-0.005034028086811304,-0.004742821678519249,-0.003128964453935623,-0.0019307669717818499,0.003165891859680414,0.004775807727128267,0.0036020861007273197,-0.0007807593792676926,0.004028457682579756,0.002062870655208826,-0.0008016028441488743,-0.00012590503320097923,-0.00395627599209547,0.0005683368071913719,0.00181305268779397,-0.0003054719418287277,0.0029252558015286922,-0.0008685770444571972,0.002282525412738323,-0.002677611541002989,-0.0043865349143743515,0.004954250063747168,0.0007070628926157951,-0.0047826580703258514,0.0024211895652115345,-0.002891461132094264,0.0006923018954694271,0.003025564830750227,-0.00370207941159606,0.003385001327842474,0.00012712599709630013,-0.001778583973646164,0.0022899070754647255,-0.0023898000363260508,-0.002456310670822859,0.004200884606689215,-0.0022642705589532852,4.639569669961929e-05,0.00020425114780664444,0.0024968767538666725,-0.0034571820870041847,0.004386163782328367,0.004684168379753828,-0.003060332266613841,0.005123434122651815,0.0015480611473321915,-0.001972079509869218,-0.0003161444328725338,0.0012281839735805988,0.00475127762183547,-0.003796177450567484,0.00516062555834651,0.0004104999825358391,-0.004497806541621685,0.000818910077214241,0.001057114452123642,-0.0029654267709702253,-0.0009617977775633335,-0.0017881293315440416,-0.0034962245263159275,0.00370579631999135,-0.004983913153409958,0.003924461547285318,-0.003468938171863556,-0.0017313300631940365,-0.002606583759188652,-0.0014471029862761497,4.925904795527458e-05,6.275065243244171e-05,0.0005118916742503643,-0.0036239586770534515,0.005160203669220209,-0.001843840116634965,-0.0013659750111401081,0.0045938375405967236,-0.003196760779246688,-0.004429653752595186,0.002730348613113165,-0.004040238447487354,0.0004890640266239643,-0.0022867622319608927,0.002191110048443079,-0.0050979191437363625,0.001691281795501709,-0.001604745164513588,0.005057784263044596,-0.001497428398579359,0.002530182246118784,-8.503906428813934e-06,0.002548578195273876,0.005014409776777029,-0.0026499538216739893,-0.0008554323576390743,0.003940199036151171,0.0010592695325613022,-0.0034751780331134796,-0.004907818511128426,0.0018780012615025043,-0.003665860742330551,-0.00242357118986547,0.0026340889744460583,0.0006407080218195915,0.0015782220289111137,0.0020522549748420715,0.004479425493627787,0.0028201104141771793,0.003701485227793455,0.0015166900120675564,0.0032912460155785084,-0.0015792190097272396,0.0007820511236786842,-0.00016212603077292442,0.0007602418772876263,-0.0017349428962916136,0.004763187374919653,-0.002459518611431122,0.0007941285148262978,-0.002882738132029772,0.002084741834551096,0.0047549172304570675,-0.000771393533796072,0.0003579622134566307,-0.0018714990001171827,0.0024218098260462284,0.003218176309019327,0.0017083710990846157,-0.0007451912388205528,-0.0011450904421508312,0.0027534053660929203,0.0002978299744427204,-0.004903697874397039,-0.0005755512975156307,-0.0007156743668019772,0.001080208458006382,-0.001466770889237523,-0.0030970536172389984,-0.0008977195248007774,-0.0029509381856769323,-0.002665660809725523,-0.0044494676403701305,-0.0042996653355658054,0.0006499513983726501,0.002641394268721342,0.002093074843287468,0.0013881511986255646,0.00034456001594662666,0.00048637622967362404,-0.0005758274346590042,0.0020610475912690163,0.004947705660015345,0.0017061294056475163,-0.0028805893380194902,-0.0005212249234318733,0.003792190458625555,-0.0014780526980757713,-0.00466692540794611,0.002200922928750515,-0.0016454968135803938,0.0034770346246659756,0.0014241738244891167,0.004084649030119181,2.094544470310211e-06,0.005163596477359533,0.004873523022979498,0.005134960170835257,0.004386062268167734,-0.00045934272930026054,-0.004035320598632097,0.0036195493303239346,-0.003592375898733735,0.0036131921224296093,0.003789119888097048,-0.0003274758346378803,-0.003983688540756702,-0.0008512833155691624,-0.0036304176319390535,-0.002992820693179965,0.003096227068454027,-0.0043925815261900425,0.0028495495207607746,0.002739414107054472,-0.0009442875161767006,-0.002143625635653734,0.0012798123061656952,-0.00488303555175662,-0.002535385312512517,-0.0024512549862265587,0.0011368580162525177,-0.004744274541735649,0.0034595406614243984,-0.0017475958447903395,-0.0046878778375685215,-0.0022521575447171926,-0.0012870542705059052,0.0022763130255043507,-0.004555217921733856,-0.004319697618484497,0.0005716695450246334,0.00033306144177913666,0.00025253044441342354,0.004342472646385431,0.003870647866278887,-0.0004082680679857731,-0.003962485585361719,-0.0003880709409713745,0.0032274755649268627,-0.0002144714817404747,-0.0024812128394842148,-0.0035513308830559254,0.004576208535581827,-0.002803955925628543,-0.003429053584113717,-0.0016350881196558475,0.004719033371657133,-0.004546408075839281,-0.0033924621529877186,-0.0032417618203908205,-0.003174490761011839,0.00189644331112504,0.004325850401073694,-0.00024760980159044266,0.003930348437279463,0.004774723667651415,-0.002444035606458783,-0.0010609440505504608,-0.002424728125333786,-0.0026011255104094744,0.003763462882488966,-0.0009533325210213661,-0.004130165092647076,-0.0003671422600746155,0.001559542492032051,0.0019399854354560375,0.0007979902438819408,0.0020338627509772778,-0.0007781162858009338,0.0004794914275407791,0.003271802794188261,-0.004165960475802422,-0.0028534962330013514,-0.0004245028831064701,0.0020725498907268047,0.002572213299572468,-0.004305900074541569,-0.004697343800216913,-0.00512640830129385,-0.005046612583100796,0.001820974051952362,-0.0023018019273877144,0.0035945246927440166,-0.0027277127373963594,0.004293739330023527,0.0021141632460057735,0.0047292583622038364,-0.003016739385202527,-0.0013122062664479017,0.0021139676682651043,0.0023040571250021458,0.000532099511474371,-0.0033512820955365896,0.0007116901688277721,-0.00022370973601937294,-0.0032677080016583204,0.00518346531316638,0.0042198277078568935,-0.0013464877847582102,0.0006071138195693493,0.0016789883375167847,-0.0005560228601098061,-0.0006171287968754768,-0.004773774184286594,0.00013446807861328125,-0.0029224406462162733,0.0017970828339457512,-0.004731199238449335,0.0006678756326436996,-0.00032790657132864,0.0002515297383069992,-0.0011836523190140724,-0.0017235917039215565,-0.001253949012607336,-0.002715649548918009,-0.0026661462616175413,0.0018190210685133934,-0.004925508517771959,-0.0030698664486408234,0.0036904667504131794,0.0032444759272038937,0.0004144236445426941,-0.00043850578367710114,-0.00458649592474103,-0.0051427618600428104,-0.004149154759943485,-0.0008137514814734459,0.0021372842602431774,0.0008261385373771191,0.004373465199023485,0.0010134372860193253,0.005124514456838369,0.003753210883587599,0.0021023713052272797,0.0031248624436557293,-0.0036713103763759136,-0.001147028524428606,-0.0004228469915688038,-0.0021350476890802383,-0.0008865036070346832,-0.0009315195493400097,-0.0021737099159508944,-0.0023931367322802544,-0.00402148487046361,0.0035095210187137127,-0.003418730339035392,0.0049930051900446415,-0.0037556288298219442,0.004304470028728247,0.004775268491357565,0.005067980382591486,-0.0003987918607890606,0.003290270920842886,0.001599715556949377,-0.004151660017669201,0.001757859718054533,0.004103244747966528,-0.0003651767037808895,0.00033984752371907234,0.0014770175330340862,0.001005388330668211,-0.00046525197103619576,0.0036847260780632496,-0.00039047887548804283,-0.004707341082394123,0.001971387304365635,-0.004381239414215088,0.0007013780996203423,-0.005188322626054287,0.0012128022499382496,0.0037899701856076717,-0.00309055857360363,-0.001208924688398838,0.002640696708112955,0.0019359886646270752,0.0004833666607737541,0.002819796558469534,-0.00012970343232154846,-0.003785175271332264,0.004819291178137064,2.0386651158332825e-06,-0.0009258617646992207,0.004026512149721384,-0.0034004508052021265,-0.0002851621247828007,0.001726591493934393,0.0038341102190315723,0.0033019348047673702,-0.0027184844948351383,0.005025313701480627,-0.001931414706632495,0.0009643281809985638,-0.0004621320404112339,0.00162865174934268,2.5797635316848755e-06,0.0003691846504807472,0.0019544390961527824,0.0010248888283967972,0.0041230968199670315,0.005170763004571199,-3.299349918961525e-05,0.004947158042341471,0.004422076512128115,0.003167433198541403,0.00285164313390851,0.0014520310796797276,0.0002905190922319889,-0.0017818263731896877,0.002726153936237097,0.0016300785355269909,0.004430829081684351,-0.004962466657161713,0.001698691863566637,0.0013766894116997719,-0.0027691146824508905,0.002509940881282091,-0.0037007788196206093,0.005085143726319075,0.003796225879341364,0.0016990834847092628,-0.004003351554274559,0.0030056978575885296,0.0018326225690543652,-3.895210102200508e-05,0.004680062178522348,0.004866522271186113,0.003313905093818903,-0.0015719686634838581,0.00429765647277236,0.005114956293255091,-0.0006524533964693546,0.00216109910979867,0.00034456606954336166,0.003571216482669115,-0.0013251898344606161,-0.004176542162895203,0.003989037591964006,-0.0033256406895816326,0.002239527180790901,0.0033971848897635937,0.0025744549930095673,0.002141408622264862,0.004581288900226355,0.0002692793495953083,-0.0020332683343440294,0.0032356115989387035,0.003999192733317614,0.004500440787523985,0.004919655155390501,-0.001805037958547473,0.0010485881939530373,-0.003539803670719266,-0.0030230050906538963,0.0009814673103392124,0.0008066263981163502,0.0013122721575200558,-0.0006890916265547276,-0.0009840629063546658,-0.002437279326841235,-0.0013049584813416004,0.0003087315708398819,0.0014793258160352707,-0.0035298557486385107,-0.003601701930165291,0.0029532345943152905,-0.0008052452467381954,-0.00020480947569012642,0.0037134564481675625,0.0032211043871939182,-0.0032516764476895332,-0.0046577490866184235,-9.895069524645805e-05,-0.0010620784014463425,-0.004123490769416094,-0.0014738058671355247,-0.003815112169831991,-0.001342439092695713,-0.0001416974700987339,-0.0003826301544904709,-0.0013590713497251272,-0.0033173905685544014,-0.004396652802824974,-0.002330593066290021,-0.0034245960414409637,-0.00180913507938385,0.001886486541479826,0.001782506238669157,0.0021594827994704247,-0.004189441911876202,-0.004686988424509764,-0.0050131576135754585,0.0010288488119840622,0.0026642237789928913,-0.0013673906214535236,0.002267493400722742,-0.0010987468995153904,-0.00047774985432624817,-0.005145073868334293,0.0030592340044677258,-0.003175394842401147,-0.0038306456990540028,-0.004601381719112396,0.003086999524384737,-0.0012129461392760277,-0.004526103381067514,-0.004116509109735489,0.0012868000194430351,-0.0019023660570383072,0.003383014816790819,0.002977061551064253,0.004075739067047834,0.0019305329769849777,0.0005885520949959755,0.001765658613294363,-0.005083160940557718,0.0024993489496409893,-0.0015624666120857,0.0017834305763244629,0.0003150566481053829,-0.0021543216425925493,0.0031723068095743656,0.003959699999541044,-0.002121956320479512,0.004043953958898783,-0.0007544741965830326,-0.0020352264400571585,0.0037176902405917645,0.0008490798063576221,-0.004550145007669926,-0.004245028365403414,-0.0033292793668806553,0.001308064442127943,5.151331424713135e-05,0.004824907053261995,0.0006457329727709293,0.004026215989142656,0.005014632362872362,-0.001289266161620617,-0.0045661358162760735,-0.0009273267351090908,0.0029359585605561733,-0.004879670217633247,0.0034940517507493496,-0.0022714638616889715,-0.0021639131009578705,-0.002421411219984293,0.000509108416736126,0.004343890119343996,0.0033955243416130543,-0.002165498211979866,-0.00425161374732852,-0.0024195967707782984,0.001623163465410471,-0.0026002463418990374,-0.0022941799834370613,-0.005116922315210104,-0.0023111405316740274,0.0038596470840275288,-0.0016635225620120764,0.004647392313927412,0.002799538429826498,-0.00453660124912858,0.0006894073449075222,0.0018324702978134155,-0.0006668549031019211,0.0050840252079069614,-0.004694225266575813,-0.000880485400557518,0.003732516895979643,0.0031932792626321316,-0.004759950563311577,-3.5340432077646255e-05,0.004169489722698927,-0.0014354272279888391,0.0026935082860291004,0.0017760400660336018,-0.0002934443764388561,0.003345109988003969,0.001612518448382616,-0.002756029600277543,0.0048743304796516895,0.001583002507686615,-0.002803999464958906,-0.0035338550806045532,0.00032285600900650024,0.003975298721343279,0.0009467210620641708,-0.0045021045953035355,0.0026265601627528667,0.0001411251723766327,-0.0005669430829584599,0.00015703914687037468,-0.00027271872386336327,-0.0013964802492409945,0.004526057746261358,-0.002839436521753669,-0.0006021857261657715,-0.0009983000345528126,0.003514434676617384,0.0046750265173614025,0.005101507063955069,0.003663846757262945,0.00046267081052064896,0.004246871452778578,-0.002994382521137595,0.0020071538165211678,-0.003737792605534196,0.004961307626217604,0.0030976799316704273,8.377479389309883e-05,-0.004042911343276501,-0.0012548435479402542,-0.0014398177154362202,-0.0049490900710225105,0.00360328471288085,-0.004497488494962454,0.0020714597776532173,-0.002422730205580592,-0.002360445447266102,0.005124807823449373,-0.0046480451710522175,-0.002819997491315007,0.0025297943502664566,0.004065107088536024,-0.004802021197974682,0.00440737372264266,-0.002326725050806999,-0.0009565972723066807,-0.004590739030390978,0.0043328567408025265,-0.003982126712799072,-0.004485096782445908,-0.0013992160093039274,0.0017861155793070793,-0.002490200800821185,-0.0018054789397865534,-0.004463686142116785,-0.005094852764159441,-0.00038827070966362953,-0.004586269147694111,-0.0033751437440514565,0.004399696830660105,-0.0030524067115038633,-0.0029557785019278526,-0.004106912761926651,0.001265592873096466,-0.0037175833713263273,-0.0035916180349886417,-0.0025955806486308575,0.0037759211845695972,0.004503458272665739,0.002218250185251236,-0.004771443083882332,9.780237451195717e-05,-0.00015783822163939476,0.005150392185896635,0.0017332942225039005,-0.0026359509211033583,-0.0028713808860629797,0.0029527400620281696,-0.0021063322201371193,0.0007649841718375683,-0.0010500871576368809,-0.0021245733369141817,0.002971185836941004,-0.001380586065351963,-0.00032239407300949097,-0.002979784971103072,-0.000464088749140501,0.0001420699991285801,-0.001561443554237485,-0.004872519988566637,-0.002295417245477438,-0.0029087932780385017,-0.0007983045652508736,0.0037357653491199017,0.0017956187948584557,-0.0045445761643350124,0.0012926929630339146,-0.0017286499496549368,0.0030405218712985516,-0.0003130692057311535,0.00031335512176156044,-0.004611710086464882,-0.002039215760305524,-0.003752178279682994,-0.00242603849619627,-0.004046970047056675,0.004998317454010248,0.0038804304786026478,-0.004416033625602722,-0.004799095913767815,-0.0006561144255101681,-0.0005539609119296074,0.002895576413720846,-0.00040366919711232185,0.005102513823658228,-0.004777788184583187,-0.0009046527557075024,0.0006539407186210155,0.003831611480563879,0.004392795730382204,0.004407476168125868,0.004352324176579714,-0.00387788494117558,0.003156717400997877,-0.0035185650922358036,-0.0004755253903567791,-0.0036503716837614775,-0.00440698117017746,0.0017662383615970612,0.004260432440787554,-0.0038300412707030773,0.003728958312422037,-0.003601375035941601,0.002938441466540098,0.0033742026425898075,-0.001290264306589961,-0.003075838554650545,-0.004961860831826925,0.0008205985650420189,0.0029445081017911434,0.0007101567462086678,-0.0006970702670514584,-0.004015376325696707,0.0027152826078236103,-0.002802181290462613,0.002796649467200041,-0.0042099617421627045,-0.000916843768209219,0.0005359277129173279,0.0007250909693539143,-0.004935748875141144,0.0034479633904993534,-0.0029274604748934507,-0.0030893757939338684,0.0003787572495639324,0.00037626922130584717,0.003372608218342066,-0.004026681650429964,0.0033689592964947224,0.001253296621143818,-0.00471309432759881,0.0006194091401994228,0.00016512582078576088,-0.0008852798491716385,0.004380741622298956,0.0015532057732343674,-0.0020886086858808994,-0.00046238815411925316,0.0027355006895959377,-0.00385697977617383,0.002959802281111479,0.0020306152291595936,0.0031352401711046696,-0.004264580085873604,-2.571847289800644e-05,-0.0034705791622400284,-0.0007158243097364902,0.0040363348089158535,-0.0026869005523622036,-0.0030840798281133175,0.000459291972219944,-0.001576023641973734,0.004373240750283003,-0.0001173773780465126,0.0033363415859639645,-0.002556954277679324,-0.0029335380531847477,0.004108234774321318,-0.0023827068507671356,0.0013348478823900223,-0.002866461407393217,0.0012083188630640507,-0.004777753259986639,-0.0022970843128859997,-0.004831154365092516,0.003234507981687784,-0.0012573986314237118,0.004216488916426897,-0.0024118719156831503,0.002426589373499155,0.002527765929698944,0.0008957367390394211,0.0014797472395002842,0.004143127705901861,-0.003147333161905408,0.0003282087855041027,-0.00019861571490764618,0.0033980156295001507,-0.0010057040490210056,-0.00278274854645133,0.004623917397111654,0.00234707398340106,0.004368398804217577,-0.0016011151019483805,-0.001121418084949255,-0.0033878376707434654,-0.002708669053390622,-0.0018130848184227943,-0.0032957361545413733,0.00019287504255771637,0.0008463920094072819,0.004980555269867182,0.0012231552973389626,0.0029491870664060116,0.0019525429233908653,-0.0005244612693786621,-0.001993979327380657,-0.0009780200198292732,-0.00019855238497257233,-0.0038713603280484676,0.005150537472218275,-0.002882926492020488,-0.0038200849667191505,0.005185993853956461,0.0016489126719534397,0.0027479794807732105,-0.0013739375863224268,0.0012528975494205952,0.004575958009809256,-0.0024447229225188494,-0.004907937254756689,0.0031559723429381847,-0.0006042406894266605,0.005188302602618933,-0.003307959297671914,0.004473503213375807,0.004479177761822939,-0.0018084885086864233,-0.002504430478438735,0.0009387833997607231,0.0009503462351858616,0.0019190418533980846,-0.00038511352613568306,0.0048262276686728,-0.004101587459445,0.003148249816149473,5.8560632169246674e-05,-0.004899466875940561,0.004093059804290533,-0.0023557934910058975,-0.002360924845561385,-0.0027016466483473778,0.001194908283650875,-0.0028172777965664864,0.0005927323363721371,-5.953526124358177e-05,-0.0001090620644390583,0.00479493523016572,-0.0013593302574008703,0.00402029836550355,0.004187705460935831,-0.001238158904016018,-0.00033390382304787636,-0.005119870882481337,2.1227169781923294e-05,0.0017924471758306026,0.0001741531305015087,-0.0006040683947503567,-0.0008113314397633076,0.0013423883356153965,0.0019664778374135494,0.0037214993499219418,-0.0007297825068235397,0.0013845628127455711,-0.0029620565474033356,0.004789032507687807,0.004054720979183912,0.0014912295155227184,-0.002719985553994775,0.004048487637192011,-7.786694914102554e-05,-0.0007884791120886803,-0.003859052900224924,0.0031186160631477833,-0.0019039600156247616,-0.0037495933938771486,-0.0004938347265124321,-0.0012622694484889507,0.004269271623343229,-0.0001347479410469532,-0.004649834707379341,-0.0019377819262444973,-0.0008740043267607689,-0.0015966698992997408,0.0010695196688175201,0.004916691686958075,0.002595154568552971,-0.003239450743421912,0.0014465181156992912,0.004711873363703489,0.0022199545055627823,-8.434709161520004e-05,-0.0008724136278033257,0.004690758418291807,-0.0026784141082316637,-0.00400633504614234,-0.004474604036659002,-0.0017820606008172035,-0.004800361581146717,-0.0007077986374497414,-0.003954433836042881,0.00021558348089456558,0.002550932578742504,0.0020158346742391586,0.0019509750418365002,-0.0036612683907151222,0.000846213661134243,-0.005162009969353676,0.002543254755437374,0.005176857579499483,0.004120561759918928,0.003559552598744631,0.0031329537741839886,0.000978133175522089,-0.004720240831375122,0.002562351990491152,0.0016105500981211662,0.002785497810691595,0.004038464743643999,-0.001665377989411354,-0.0029943627305328846,0.0033235722221434116,-0.0032668570056557655,-0.00290809478610754,0.004341250751167536,0.004588238429278135,0.004142546560615301,-0.0004852120764553547,0.004833440762013197,-0.0012991174589842558,0.00020642485469579697,0.00024469196796417236,-0.0016492879949510098,-0.004966450855135918,-0.004455026239156723,0.002547706011682749,0.001511323731392622,-0.0005194032564759254,0.001975707244127989,0.002593406941741705,0.0018494036048650742,0.0031821024604141712,0.0032813274301588535,0.0031897001899778843,-0.0011619715951383114,-0.003828262910246849,0.0034578791819512844,-0.004955129232257605,-0.004976559896022081,-0.005116311367601156,-0.0022725574672222137,-0.0030971141532063484,-0.0027328687720000744,0.00030078040435910225,-0.002159049268811941,0.004444293212145567,0.004863557871431112,0.005144687835127115,-0.0032149499747902155,-0.0014044353738427162,-9.588152170181274e-05,-0.0012971963733434677,0.0016231932677328587,0.004533667583018541,-0.002889136550948024,0.003925418946892023,-0.0015169093385338783,0.0019994559697806835,-0.0049178702756762505,0.004913122858852148,0.004096209537237883,-0.0019654633942991495,-0.001916716806590557,-0.002024052431806922,0.004201152827590704,-0.0019082576036453247,-0.0031784875318408012,0.002056634519249201,0.0028270729817450047,0.00031731463968753815,-0.004642511252313852,0.005000157747417688,0.0038605998270213604,-0.004604407586157322,0.003049799706786871,0.0009932233951985836,0.002640248741954565,-0.003223488572984934,-0.0012299846857786179,0.0015186769887804985,-0.002997148083522916,0.0038268272764980793,-0.0006812787614762783,-0.00263794488273561,0.003142456989735365,0.0037891087122261524,0.0016939076595008373,4.478311166167259e-05,-0.005184207111597061,-0.0035030674189329147,-0.0032706421334296465,0.0017281780019402504,-0.003980944864451885,0.004315157886594534,0.00012010103091597557,-0.003134028986096382,0.0025174845941364765,-0.004134812392294407,0.001017015427350998,0.004728769417852163,0.0020392751321196556,0.0013934257440268993,-0.0017541996203362942,-0.0028979734051972628,-0.00440022861585021,0.002160461153835058,-0.004912855569273233,-0.00048374710604548454,-0.0048343162052333355,0.0011553391814231873,-0.0038486591074615717,-0.0008321180939674377,-0.0012186593376100063,0.003485123161226511,0.004272861871868372,0.004219345282763243,-0.004647564608603716,-1.9370578229427338e-05,-0.00023701554164290428,0.00517280912026763,0.001612701453268528,-0.0007227598689496517,-0.0009100516326725483,-0.004615324083715677,-0.0029905319679528475,-0.0038201394490897655,-0.002064327010884881,0.0003945091739296913,0.002442880067974329,-0.0035468125715851784,-0.0015019960701465607,-0.00365920620970428,-0.004329707473516464,-0.002895898884162307,-0.004360934719443321,-0.0015950240194797516,-0.00014864932745695114,-0.0018369588069617748,0.0008171414956450462,0.002768584992736578,0.00032837362959980965,-0.003106706775724888,0.0015655974857509136,-0.003838576376438141,0.0030539161525666714,-0.003210408380255103,0.0006499537266790867,0.003263633232563734,-0.0012818644754588604,0.004975299816578627,0.003184674773365259,0.0022875573486089706,-0.002924450905993581,0.003427362535148859,-0.003644256852567196,-0.00508565129712224,-0.002138639334589243,0.0019687344320118427,-0.003835697891190648,0.00013987068086862564,0.0009560598991811275,-0.00411138404160738,-0.00365447998046875,0.0001907050609588623,0.0011909953318536282,-0.0015596302691847086,-0.0016105615068227053,-0.004206398501992226,0.0009432011283934116,0.0007431637495756149,-0.0029414647724479437,0.0016514705494046211,-0.0015538698062300682,-0.0007159379310905933,-0.0034744548611342907,0.0031175664626061916,-0.004706894047558308,0.000311391893774271,-0.0035693738609552383,-0.0011389520950615406,-0.002133194822818041,0.0020414278842508793,-0.0025744102895259857,-0.0014047250151634216,-0.0003800601698458195,-3.4131575375795364e-05,-0.002208600752055645,0.005105221178382635,0.0017603067681193352,0.003589313942939043,0.001259614247828722,0.00011658715084195137,0.0005810800939798355,-0.004871587734669447,-0.004263642244040966,-0.0005469084717333317,-0.0035180561244487762,0.0018750797025859356,0.0034391875378787518,0.0012307190336287022,0.0012723165564239025,-0.0049849445931613445,0.0027125333435833454,0.00204843794927001,-0.002773580839857459,0.00102224200963974,-0.00388331594876945,0.00047808559611439705,0.00302485516294837,0.0016431822441518307,0.000884130597114563,0.00471979146823287,0.0026095998473465443,0.00101756164804101,0.00109526002779603,0.001328066922724247,-0.0004997365176677704,-0.004203659947961569,0.0008229529485106468,0.003534443210810423,-0.0031095901504158974,0.0017530550248920918,-0.005108213983476162,0.0030005252920091152,-0.0010980591177940369,0.002277436200529337,0.003184282686561346,-0.0012573180720210075,0.0037196031771600246,0.003159825224429369,0.0021764086559414864,0.003487987909466028,0.00447868974879384,-0.004502131603658199,-0.004409258719533682,-0.001256787683814764,0.002930056769400835,0.003029495943337679,-0.001196026336401701,-0.0012855217792093754,0.00011218199506402016,-0.002711530076339841,0.004979837220162153,-0.003191073425114155,-0.005091588944196701,-0.0002122940495610237,-0.0032912911847233772,-0.0018605082295835018,0.002925266046077013,-0.002999328076839447,-0.004557636566460133,-0.003068069228902459,-0.003038962371647358,0.0006996886804699898,-0.004112765192985535,-0.003049212507903576,-0.0021102384198457003,-0.005138310603797436,0.003045590128749609,0.002078492194414139,-0.0031775585375726223,-0.0006111604161560535,0.004646648187190294,-0.0028633736073970795,-0.0011037131771445274,0.0008351658470928669,0.003935470711439848,0.0013513974845409393,6.990320980548859e-05,-0.0001425221562385559,0.0009538615122437477,-0.0013808163348585367,0.0005006901919841766,0.003386720549315214,-0.0005330061540007591,-0.004273568280041218,0.0019324352033436298,-0.004661224316805601,0.004179660696536303,-0.002686362946406007,-0.003238960402086377,0.002577567473053932,0.0009002005681395531,0.0030520721338689327,-0.0036342237144708633,-0.00426104012876749,0.00036955997347831726,-0.0013075654860585928,0.004756734240800142,-0.003514272393658757,-0.0026545412838459015,-0.00202689110301435,0.0006890222430229187,-0.002689061686396599,-0.0011406699195504189,0.0035049100406467915,-0.0035354378633201122,-0.0018168846145272255,0.0036221561022102833,0.004163894336670637,0.0025492170825600624,-0.0017280380707234144,0.002909319940954447,0.0027103745378553867,0.0048418245278298855,-0.0007982379756867886,-0.005054838955402374,0.0016489475965499878,0.0018651466816663742,0.0002699480392038822,0.0013041533529758453,-0.00020041409879922867,0.0014147982001304626,-0.0030919420532882214,-0.0013580184895545244,0.003944993484765291,0.003324445802718401,0.005181663203984499,0.00349092623218894,-0.0023771037813276052,-0.0033950372599065304,-0.003117869608104229,-0.0031181557569652796,0.0012330329045653343,-0.00016327667981386185,-0.004648257978260517,-0.0012553883716464043,0.001852469053119421,0.004956342745572329,-0.00468051340430975,-0.0021196117158979177,0.003696934785693884,0.004831047262996435,0.0033279755152761936,0.0029324577189981937,-0.004915861412882805,-0.003926907666027546,0.0010630656033754349,-0.00017392029985785484,-0.004759413190186024,0.0009301519021391869,-0.003660287242382765,0.00040280865505337715,-0.0017064367420971394,-0.0031567115802317858,-0.0006609447300434113,-0.0034694895148277283,-0.004134358838200569,0.004178687464445829,-0.004021794535219669,0.003553211223334074,0.003031016793102026,0.0035464554093778133,0.0003009685315191746,0.0046535455621778965,0.0036235791631042957,-0.0029465588741004467,-0.0035139466635882854,-0.004090637434273958,-0.0022958482149988413,0.0033054747618734837,-0.004739356227219105,0.005146836396306753,0.001406744122505188,0.002927118446677923,-0.004463916644454002,-0.0025959014892578125,0.0009235418401658535,-0.0016738122794777155,0.003503126557916403,0.0010027317330241203,-0.001090895850211382,-0.003730506170541048,-5.8492645621299744e-05,-0.00020692264661192894,0.003977681044489145,0.0021040160208940506,-0.004880211316049099,-0.001922698924317956,-0.004958277568221092,-0.003689452540129423,-0.00021300138905644417,0.000908327754586935,-0.0028581470251083374,-0.0012670070864260197,-0.0037737349048256874,0.0015631020069122314,-0.003687493037432432,-0.0004715472459793091,0.004816255997866392,-0.004052087664604187,0.0027407719753682613,0.003351700957864523,0.002937817480415106,0.0005249171517789364,0.0009463508613407612,0.004448978696018457,-0.0009925435297191143,-0.003885966259986162,-0.005063363816589117,0.0015618335455656052,-0.0038610072806477547,-0.004333156626671553,-0.002041727537289262,0.002519073896110058,0.004779911134392023,-0.003634961787611246,0.005127368029206991,3.4961383789777756e-05,-0.002908047754317522,-0.003174053505063057,-0.004167410545051098,0.0018125670030713081,0.0003898139111697674,-0.0003834068775177002,-0.0028353342786431313,0.001463260967284441,0.005035076756030321,0.0024246498942375183,-0.003650740720331669,-0.0018280635122209787,0.004021261353045702,0.0035343091003596783,0.004439897369593382,-0.0026075500063598156,0.003725422080606222,0.0019246325828135014,0.0031498619355261326,0.002306136768311262,-0.00427622115239501,0.0023849126882851124,-0.003959635738283396,-0.0037072948180139065,0.0004131007008254528,-0.0002763834781944752,-0.0034592801239341497,0.0015787146985530853,0.0012809047475457191,-0.0008562696166336536,0.003635526169091463,-0.0035927151329815388,-0.004002646543085575,0.0006891833618283272,0.004440504591912031,0.0004247627221047878,-4.603015258908272e-05,0.00018136296421289444,-0.004486044403165579,0.004415400791913271,0.0001901453360915184,-0.002280596876516938,-0.004081610590219498,0.0018697823397815228,-0.005123668350279331,0.003525999840348959,0.004211949650198221,-0.0035605342127382755,-0.001979576423764229,-0.004225484095513821,0.0039614965207874775,0.001310200896114111,0.0004561101086437702,-0.004356043413281441,0.002877985592931509,0.002021470107138157,-0.004081317223608494,-0.0013465769588947296,0.0029305671341717243,-0.0024364618584513664,-0.0050998227670788765,-0.0035311116371303797,0.0018631774000823498,0.00019110878929495811,-0.0020376378670334816,-0.004198842216283083,0.0035698493011295795,0.0029970635659992695,0.0034376983530819416,-0.004039204679429531,0.00360519764944911,-0.0008330913260579109,0.005036631133407354,-0.003562968224287033,0.004611779469996691,0.0043052383698523045,-0.0034154755994677544,-0.0015404119621962309,-0.002910378621891141,-0.0027069810312241316,-0.003237975761294365,0.0016767140477895737,-0.0013396621216088533,0.002142623532563448,-0.004621157422661781,-0.0005693547427654266,-0.003402763046324253,0.0047118752263486385,-0.0012987582013010979,0.002955122385174036,-0.004920175299048424,-0.004436292219907045,-0.004381915554404259,-0.0028132214210927486,-0.0033320735674351454,-0.00016624527052044868,0.00018577184528112411,-0.0029676288831979036,-0.0021230350248515606,0.002822733949869871,0.001776031218469143,-0.0027152185793966055,0.0028748768381774426,0.0030753803439438343,-0.0023056487552821636,0.004843882750719786,0.00034158630296587944,-2.8772279620170593e-05,0.003184779081493616,-0.0008292645215988159,0.0017632050439715385,0.0007933676242828369,0.0018170629628002644,-0.00021172920241951942,0.005175746511667967,0.0029916795901954174,-0.0027561942115426064,-0.004303907509893179,-0.0015599511098116636,-0.0028876415453851223,0.004402451682835817,0.0005596792325377464,-0.004305081441998482,0.002656052354723215,-0.004507757257670164,0.001042887568473816,0.0011251806281507015,-0.004016640596091747,0.004260863643139601,-0.004697348922491074,-0.003698735497891903,0.0037826956249773502,-0.0008521932177245617,-0.0048054903745651245,-0.0026301383040845394,0.004107192624360323,-0.003579821903258562,0.00038716429844498634,-0.0025068740360438824,-0.0023260971065610647,-0.004743137396872044,-0.0007728328928351402,-0.003624657168984413,-0.003963174298405647,-0.0009284191764891148,-0.004939745645970106,-0.0018029273487627506,0.004031125921756029,-0.0030658722389489412,0.0032250615768134594,-0.000282233115285635,0.0038463235832750797,-0.0021393923088908195,-0.003120881738141179,0.000972596462816,-0.0014758072793483734,-0.005094558000564575,-0.0031621188391000032,0.002092807088047266,0.00077067781239748,-0.003443920984864235,0.0044957720674574375,0.0008703069761395454,-0.003987327218055725,0.004135776776820421,0.004820645321160555,0.0024164533242583275,0.003930533770471811,-0.0006547728553414345,-0.003961118403822184,0.004972377326339483,0.0043161786161363125,0.0005292100831866264,0.0038366192020475864,-0.0037435295525938272,0.0020834957249462605,-0.00035663973540067673,0.0035196258686482906,0.0033750482834875584,0.0005750334821641445,0.0028020362369716167,-0.004584016278386116,-0.00019998429343104362,-0.0010212515480816364,-0.0045265802182257175,0.003695117775350809,0.004947033245116472,-0.005184309557080269,0.0012379572726786137,-0.004495028406381607,0.0017436211928725243,0.003212836105376482,-0.0013034127186983824,0.003771419171243906,0.004244115669280291,-0.002088401699438691,-0.0023800551425665617,-0.0014954095240682364,-0.004064319655299187,0.000695809256285429,-0.0034712618216872215,0.0034224851988255978,-0.0037841685116291046,-0.0007096119225025177,-0.0013232477940618992,0.0024025794118642807,0.004204961936920881,-0.00041959062218666077,0.0034289690665900707,-0.0002845912240445614,0.0009783310815691948,-0.0025497497990727425,0.0015503312461078167,0.004970103036612272,-0.0042406292632222176,0.00024111615493893623,0.0006824247539043427,-0.004852987360209227,-0.004695285111665726,0.0031448244117200375,0.004096961114555597,0.0032935836352407932,0.0010857866145670414,-0.00319333141669631,0.005188372451812029,-0.0014536844100803137,0.0006489814259111881,-0.00025441544130444527,0.004754161927849054,-0.003098523709923029,0.0019957171753048897,0.00190282566472888,0.0037311133928596973,-0.0024805860593914986,-0.00015854276716709137,0.00348965497687459,-0.003674618434160948,-0.0024543898180127144,0.0008683004416525364,0.004726022947579622,-0.004671006463468075,0.0025232164189219475,0.0028703673742711544,-0.00013131741434335709,-0.002902632812038064,0.00371384946629405,0.0010814061388373375,-0.0027556095737963915,0.0027610384859144688,0.0010427203960716724,0.0026462352834641933,-0.0018850895576179028,-0.001254380214959383,0.0050454833544790745,-0.0014927033334970474,-0.0026279324665665627,0.00043176673352718353,0.002167456317692995,-0.004761239979416132,0.004218988586217165,-0.0019360752776265144,-0.004638495855033398,-0.0005364688113331795,-0.004677917342633009,0.0026920377276837826,0.0038550212047994137,0.004922563675791025,-0.0002918737009167671,-0.004569713957607746,0.0027635167352855206,0.003972405102103949,0.0031767855398356915,-0.0007216194644570351,-0.0030460406560450792,0.0016447650268673897,0.0036707199178636074,0.0002916362136602402,0.005077947396785021,-0.004834111779928207,0.0016176719218492508,0.002604114357382059,0.002997590694576502,-0.003375609405338764,-0.0041405875235795975,-0.0016661768313497305,0.00272637652233243,-0.0034587588161230087,-0.00023446371778845787,-0.0030426583252847195,0.003928014542907476,0.004119782242923975,0.002566717565059662,-0.002426577266305685,-0.0024405440781265497,-0.0018323587719351053,-0.0028712372295558453,0.003300280775874853,-0.0017056416254490614,0.0009815040975809097,0.0038243387825787067,-0.0034991325810551643,-0.002871647011488676,0.0013606678694486618,0.0033225505612790585,-0.0025000893510878086,0.005166731309145689,-0.0003315354697406292,0.005081856157630682,0.0012379908002912998,-0.0025078996550291777,0.0035810559056699276,0.001766469795256853,-0.0011909585446119308,-0.0022292633075267076,0.0011704755015671253,-0.0018630684353411198,-0.002477517118677497,-0.0011518835090100765,0.0013525295071303844,0.0036228145472705364,0.004358868580311537,-0.0014421686064451933,-0.004952077753841877,0.00025319913402199745,-0.0004063667729496956,0.0010981201194226742,-0.0029007724951952696,-1.555727794766426e-05,-0.0015186285600066185,-0.0004812898114323616,-0.004883228801190853,0.0035782777704298496,-6.108824163675308e-05,0.0028468924574553967,-0.0016041507478803396,-0.0005411929450929165,0.0010602106340229511,0.0019300300627946854,0.003883401397615671,-0.0014558173716068268,-0.004518216475844383,-0.0033797796349972486,-0.0037404270842671394,-0.004555688239634037,0.0030593289993703365,0.0006088418886065483,0.0008774758316576481,-0.005172433331608772,0.003688196185976267,0.0024194754660129547,0.0035659070126712322,-0.003887292928993702,0.0011776587925851345,-0.0019182551186531782,0.005135852377861738,-0.0035970527678728104,-0.0005160789005458355,0.0017150645144283772,0.003512599039822817,-0.0035980534739792347,0.004967724438756704,-0.0026664286851882935,-0.0043867542408406734,-0.0004052361473441124,0.0010429578833281994,0.0015986752696335316,-0.00445245485752821,0.001221140380948782,0.0007006954401731491,-0.001348110381513834,0.0035100742243230343,-0.000434008426964283,-0.00029308395460247993,0.0004021669737994671,0.00026661623269319534,-0.0007465165108442307,0.0035973279736936092,0.0028388123027980328,-0.0032710828818380833,-0.0033655401784926653,-0.004567048512399197,-0.003233248135074973,-0.0019599851220846176,0.0032978937961161137,0.004760597366839647,0.0025903056375682354,0.0033293194137513638,0.0030265036039054394,-0.004088130313903093,-0.004109174478799105,-0.0018374270293861628,-0.004613191355019808,0.0015136259607970715,0.0020286845974624157,-0.0010369149968028069,0.004464488942176104,-0.003878361778333783,-0.0006192270666360855,0.002412689384073019,0.004950691480189562,0.004317931365221739,-0.0004916638135910034,0.005147834774106741,-0.0034780155401676893,-0.0033464343287050724,-0.0043549188412725925,0.0030765333212912083,-0.0014534639194607735,-0.003999015316367149,-0.004607802256941795,0.004882864188402891,0.0015500029549002647,0.004059142898768187,-0.00244269915856421,0.0025399369187653065,0.002838016953319311,0.003034395631402731,0.003977608401328325,0.00017534615471959114,-0.0010714568197727203,-0.0022214765194803476,-0.003054636064916849,0.0014353948645293713,0.004000822547823191,-0.004630712792277336,0.001976161729544401,0.0032404293306171894,-0.0019389004446566105,0.0001663058064877987,-0.004996305797249079,-0.0012179533950984478,0.0005350857973098755,-0.0034665539860725403,0.004214638378471136,-0.003044245997443795,0.0009632343426346779,0.0025964276865124702,-0.004401729442179203,-0.0016238174866884947,0.00407591974362731,0.0019287243485450745,0.0038292226381599903,0.0035024541430175304,-0.003058450762182474,0.004483100492507219,0.023332472890615463,-0.0019607781432569027,-0.0023783165961503983,0.003482755273580551,-0.0043153525330126286,-0.1992211490869522,-0.0031731140334159136,0.0036638223100453615,-0.004465916659682989,-0.0005991936195641756,0.004182016476988792,0.0018521022284403443,-2.426544415357057e-05,0.0007742161396890879,-0.0022637401707470417,-0.18623946607112885,-0.0775718092918396,0.0010012139100581408,0.0018320238450542092,0.0030983812175691128,-0.037000976502895355,-0.008067299611866474,-0.02985873445868492,0.0044606220908463,-0.00139120954554528,-0.036229636520147324,-0.18207143247127533,-0.0032564697321504354,0.0016370362136512995,-0.004556090105324984,-0.0020745599176734686,-0.0007414458668790758,-0.00449887290596962,-0.004572124220430851,-0.04891066625714302,0.003188727656379342,0.001686536124907434,0.001044752192683518,-0.0042167603969573975,-0.12348858267068863,-0.005810725502669811,-0.08240953832864761,-0.0038467058911919594,0.0033957483246922493,-0.002196826506406069,-0.004051820375025272,-0.056535109877586365,-0.004222071263939142,-0.003165649715811014,-0.047059349715709686,-0.07742228358983994,-0.0035913779865950346,0.0031185189727693796,-0.027372393757104874,-0.0024785527493804693,-0.02916782535612583,-0.1341942548751831,-0.00016482139471918344,0.003273637965321541,0.004124678671360016,-0.0020096830558031797,0.0021271915175020695,0.0028814522083848715,-0.07088159024715424,0.002855034312233329,-0.0010349464137107134,-0.03895770385861397,-0.00206778640858829,-0.00270091206766665,-0.1571071445941925,-0.05088818073272705,0.0034450585953891277,-0.0036749523133039474,-0.03841209411621094,-0.0018068839563056827,-0.0048133498057723045,-0.05910445377230644,-0.0029755323193967342,-0.042456723749637604,0.024349361658096313,0.0036187723744660616,0.0013028173707425594,-0.10037580132484436,-0.002974516712129116,-0.1607995182275772,0.0037765733432024717,-0.004104651510715485,-0.0023361926432698965,-0.0008155545219779015,-0.0023562777787446976,-0.004586043301969767,0.0036828129086643457,-0.00038814786239527166,-0.000983197707682848,-0.00018830594490282238,-0.00302919652312994,-0.0005521442508324981,-0.0023394788149744272,0.0029139008838683367,-0.030007254332304,0.0009393469081260264,-0.13552556931972504,-0.03384263440966606,-0.1528715342283249,-0.13915280997753143,0.0009839682606980205,-0.0015276026679202914,-0.001576990238390863,-0.002213593339547515,-0.002305100206285715,-0.0017962559359148145,0.002391145098954439,-0.003611332271248102,0.0034602894447743893,-0.0072637200355529785,-0.197818785905838,-0.12796686589717865,-0.0029585768934339285,-0.0036104239989072084,-0.002100223209708929,-0.06812702119350433,0.004249875433743,-0.003709782613441348,-0.12316500395536423,0.00098127662204206,-0.08579368889331818,-0.03621318191289902,-0.003858966985717416,-0.06715834140777588,-0.004014078062027693,-0.0033257314935326576,-0.002023704582825303,0.005118459463119507,-0.0011182873276993632,-0.004090701695531607,-0.0013246304588392377,-0.10719983279705048,-0.005597240757197142,-0.3150799870491028,0.003370826132595539,0.0041861278004944324,-0.0030958345159888268,-0.0020266335923224688,0.0005178994033485651,-0.004472299013286829,-0.05366747826337814,0.0037409798242151737,-0.06684069335460663,-0.019374091178178787,0.004748387727886438,0.004176463466137648,0.0010571960592642426,-0.10405904054641724,-0.0015492099337279797,-0.005594814196228981,-0.0027291816659271717,-0.07266044616699219,-0.07703676074743271,-0.004614884965121746,-0.18529722094535828,-0.07675285637378693,0.003347594290971756,-0.004373001866042614,0.011898208409547806,-0.17807094752788544,0.00440941983833909,-0.00226227892562747,-0.004663345403969288,-0.08902058005332947,0.0015331479953601956,-0.24416178464889526,0.00402310723438859,-0.024966368451714516,-0.0029420393984764814,0.000748366757761687,-0.08979390561580658,-0.004366743844002485,-0.1195695772767067,0.0006203073426149786,0.0030576891731470823,0.001091266400180757,-0.0034361386206001043,-0.0051010348834097385,0.0010527896229177713,-0.0018445848254486918,-0.16349351406097412,0.0003857242700178176,-0.003290692577138543,-0.002478100825101137,-0.0031060290057212114,-0.0011450945166870952,0.002551044337451458,0.0012739058583974838,0.02326217293739319,-0.0048989043571054935,-0.000967214407864958,-0.12874042987823486,0.002018081722781062,0.010714061558246613,0.0014987110625952482,0.007103282026946545,-0.16916123032569885,0.0025478797033429146,-0.25448769330978394,-0.002246004529297352,0.014018193818628788,-0.041968028992414474,0.0032472212333232164,-0.0990947037935257,-0.009930645115673542,0.003722099121659994,-0.0031035984866321087,-0.0007919924100860953,-0.015688952058553696,-0.10539393126964569,-0.001004686113446951,-0.09332301467657089,0.022941382601857185,0.0021223430521786213,0.0005031509790569544,-0.0010403853375464678,0.0019042639760300517,-0.023772450163960457,0.0013071093708276749,-0.1049487516283989,0.002230175072327256,0.0013361228629946709,0.002663753926753998,0.0005590947112068534,-0.003045495832338929,0.0014032104518264532,0.0038751980755478144,-0.004589993506669998,0.00506091583520174,-0.32117122411727905,-0.004826261196285486,-0.00389710976742208,-0.14943347871303558,-0.002498375251889229,-0.005126670002937317,-0.004442137666046619,-0.0022878646850585938,-0.0047292280942201614,-0.003921895753592253,-0.09558235108852386,-0.14438213407993317,-0.06611631065607071,-0.004068578127771616,-0.14883626997470856,-0.0031573991291224957,-0.09775403887033463,-0.02497151307761669,0.0008922574343159795,-0.08985566347837448,-0.004734659101814032,0.004872401710599661,0.0009118529269471765,0.0028483213391155005,2.4895669412217103e-05,-0.0559491366147995,-0.0046666571870446205,-0.0031045072246342897,-0.0015432803193107247,0.003705415641888976,-0.00319619826041162,0.0006526726647280157,0.004848890472203493,-0.09457895904779434,-0.00444923946633935,-0.01956740766763687,-0.004792716354131699,-0.004915933590382338,-0.18375521898269653,-0.06296264380216599,-0.0034395777620375156,0.007345762103796005,-0.005456987302750349,-0.013489587232470512,-0.0035182142164558172,-0.004628356546163559,0.0026946470607072115,-0.0022097553592175245,0.0029309396632015705,0.001120403641834855,0.012874661013484001,-0.07227662205696106,-0.0004831590922549367,-0.0032535819336771965,-0.018881961703300476,-0.0046080234460532665,0.00013412728731054813,-0.0033291804138571024,-0.09851256757974625,-0.002739244606345892,-0.005145336966961622,-0.016655568033456802,0.009905005805194378,-0.04243147000670433,-0.0036572085227817297,0.0017703972989693284,-0.0015324216801673174,-0.0015631888527423143,-0.1000385582447052,0.004031250718981028,-0.0053688944317400455,-0.0007359522278420627,-0.05355841666460037,0.002890779869630933,0.0012549060629680753,0.0015548657393082976,-0.003110791789367795,0.002600723644718528,-0.0683361291885376,0.004648697562515736,-0.0683174580335617,-0.0046865567564964294,-0.2379494309425354,-0.1530843824148178,-0.002951664850115776,-0.003871743567287922,4.7478009946644306e-05,0.0009484623442403972,-0.14391247928142548,0.0035065494012087584,0.001982284476980567,-0.07306268811225891,0.014983175322413445,-0.0011713485000655055,-0.15452885627746582,-0.1655106097459793,-0.003954710438847542,-0.11855025589466095,-0.004132741130888462,-0.0027017630636692047,-0.2312546819448471,-0.0012513048714026809,-0.0025095290038734674,0.003830416826531291,0.000764759664889425,0.00025774328969419,-0.0007013349677436054,-0.005155191291123629,0.017157554626464844,-0.1744457632303238,0.006814028602093458,0.003829444292932749,-0.04888797551393509,0.0034780814312398434,0.003206669120118022,-0.01057347096502781,-0.08088529109954834,0.0027073719538748264,-0.008925088681280613,-0.003747573820874095,0.00335266743786633,0.020109232515096664,-0.14308221638202667,-0.06169455125927925,-0.07007080316543579,-0.00041047242120839655,-0.004570276476442814,0.0022370675578713417,-0.0012407770846039057,-0.05881315469741821,-0.003079008311033249,-0.09437631815671921,0.009936770424246788,0.0030594556592404842,-0.0012825309531763196,-0.004070514813065529,-0.0018863324075937271,0.0013093091547489166,-0.0011948867468163371,0.0032331706024706364,0.0020786074455827475,0.008165191859006882,0.0011531113414093852,0.003272837493568659,-0.006409725174307823,-0.076328806579113,-0.0034999093040823936,-0.047920890152454376,-0.3046359121799469,-0.15161259472370148,-0.0038282868918031454,-0.0013144665863364935,-0.005121181253343821,0.0009280005469918251,-0.002053398173302412,0.004768023733049631,0.0007803644984960556,-0.004869334399700165,0.0019019683822989464,0.0012077144347131252,-0.0037938526365906,-0.0045282719656825066,-0.004894199315458536,-0.0022519321646541357,0.0007030894048511982,-0.004859966225922108,-0.0011980971321463585,-0.004651354625821114,-0.0031644708942621946,0.0007523461245000362,-0.0013746409676969051,-0.0011836285702884197,0.005005229730159044,0.0034995819441974163,-0.0012478865683078766,-0.0010423241183161736,-0.0023274903651326895,-0.004232494626194239,-0.0013922455254942179,-0.003971208818256855,-0.004064638167619705,0.0027773226611316204,-0.0038276349660009146,-0.00032336125150322914,-0.0018089083023369312,-0.002442714059725404,0.003217045683413744,0.003417643252760172,-0.003861143719404936,0.0019806488417088985,-0.0008390564471483231,-0.004154731519520283,-0.0013415287248790264,0.003827840555459261,0.0012425114400684834,0.002522142603993416,0.0035594268701970577,0.00034158024936914444,-0.0018233186565339565,-0.001817614072933793,0.0034892368130385876,-0.0012074271216988564,-0.0038622645661234856,-0.0013742507435381413,-0.0027843660209327936,-0.0005851471796631813,-0.003440513741225004,-0.0014051548205316067,0.004829884972423315,0.003079261165112257,0.002418368123471737,0.0022718701511621475,-0.00018743891268968582,0.00023051444441080093,0.003776241559535265,0.002560780383646488,0.001966192852705717,-0.001420127460733056,0.004986234474927187,-0.0017627035267651081,-0.0004950398579239845,0.002990476321429014,0.0029601850546896458,-0.0017327233217656612,-0.0038566216826438904,-0.00355239724740386,-0.005083817057311535,0.002418790478259325,1.3405922800302505e-05,-0.0024217332247644663,-0.002922596875578165,0.002514595165848732,-0.003971972968429327,-0.0016442695632576942,0.005116270389407873,-0.0020129068288952112,0.004850015509873629,0.0017747408710420132,0.002020451705902815,-0.0016203434206545353,0.0025936351157724857,0.0020073233172297478,0.0013957470655441284,0.0040522911585867405,-0.00039703212678432465,-0.0039255390875041485,-0.00018913112580776215,-0.0034375996328890324,-0.001227246131747961,0.004733414854854345,0.0033849538303911686,-0.0013048320543020964,0.002990513574331999,0.002315719146281481,0.002530401572585106,-0.0033941762521862984,-0.003242451697587967,0.0038954750634729862,0.0002771788276731968,-0.0019131535664200783,-0.002009517978876829,-0.0029203477315604687,0.0027418010868132114,-0.003986494615674019,-0.0023448162246495485,0.0015325271524488926,0.0004153633490204811,-0.0001474306918680668,-0.005075178574770689,-0.001360847381874919,0.0003910893574357033,-0.0016914638690650463,0.003798887599259615,-0.0029659890569746494,0.00046567898243665695,-0.0008935332298278809,0.003243811894208193,-0.001626783749088645,0.003918536473065615,-0.0020001844968646765,0.003288841340690851,-0.0036293314769864082,0.0019252998754382133,0.002568259835243225,0.004378905985504389,0.004344049375504255,0.0044953967444598675,-0.00244920770637691,0.002832233440130949,-0.0015515314880758524,-0.004869487136602402,0.001838036347180605,-0.00036542071029543877,0.0011848201975226402,0.001552034169435501,-0.0036916856188327074,-0.0012561427429318428,-0.0041688187047839165,0.0036933314986526966,-0.0010961657389998436,-0.004373251926153898,0.0023852968588471413,-0.0005299863405525684,0.0010856874287128448,0.0013651363551616669,0.0023538069799542427,0.0024562450125813484,0.005062051583081484,-0.002249258104711771,0.005100585985928774,-0.0025265717413276434,0.00036324234679341316,0.0044437493197619915,-0.0021610173862427473,0.001199385616928339,0.002166092861443758,0.00046789972111582756,0.0037471638061106205,0.0033039269037544727,-0.0010002595372498035,0.0038342936895787716,-0.003567691892385483,0.0008686399087309837,-0.0030737505294382572,0.00277399318292737,0.003101628739386797,0.00107128219678998,0.00026702880859375,-0.0016817341092973948,0.004744363483041525,-0.0004424452781677246,-0.00011160224676132202,0.003969656769186258,0.004388660658150911,0.003463487606495619,-0.004373015370219946,0.0012140101753175259,-0.003618774004280567,-0.00315320142544806,0.002710022497922182,0.003677587490528822,0.0013801204040646553,0.00040368176996707916,0.000940375030040741,0.004936523269861937,0.0022736163809895515,-0.0011325441300868988,0.00038601411506533623,-0.002084548817947507,0.0015788823366165161,0.002668969798833132,-0.0017087627202272415,0.0038682580925524235,-0.0017992390785366297,0.0013430817052721977,0.0017080903053283691,-0.0019243636634200811,-0.0023020843509584665,-0.0034041590988636017,-0.002751777647063136,-0.005030046217143536,-0.00024292198941111565,0.0011543510481715202,0.005038718227297068,-0.003809679765254259,0.00373315392062068,0.0013283928856253624,0.005188294220715761,-0.0003549959510564804,-0.0006647594273090363,-0.0011572777293622494,0.00288853095844388,-0.002840235363692045,0.004000670742243528,0.0015040510334074497,0.0023435456678271294,0.0009915437549352646,-0.002030149567872286,-0.003012580331414938,0.0024857805110514164,-0.0016671663615852594,0.0036588781513273716,-0.004225568380206823,0.004358046222478151,0.0028193811886012554,0.001408933661878109,-0.0024788298178464174,0.0014050258323550224,0.0010143849067389965,-0.004136647563427687,0.0031528756953775883,0.003757831174880266,0.0012314226478338242,0.003436699975281954,-0.003044683253392577,-0.001107421237975359,-0.0008781864307820797,0.000474284403026104,0.002722648438066244,-0.0016371640376746655,0.0014248848892748356,-0.001185491681098938,-0.0045187342911958694,-0.003170253708958626,-0.00047675054520368576,-0.004014282487332821,-0.0014491230249404907,-0.005125453229993582,-0.0015800772234797478,0.0034131123684346676,-0.004824373405426741,0.0020072530023753643,2.534547820687294e-05,0.005122929345816374,-0.004980265628546476,0.002080921083688736,-0.0012148534879088402,0.0017146668396890163,-0.00013920199126005173,-0.005043911747634411,0.0030440171249210835,-0.003824034705758095,0.0018625445663928986,-0.005164922680705786,-0.0006245849654078484,-0.004841909743845463,-0.0018331317696720362,-0.004961603321135044,-0.0013117492198944092,0.0034644226543605328,0.003085958305746317,0.0008454956114292145,0.0014040651731193066,0.000123659148812294,-0.00045478763058781624,0.00019424734637141228,-0.004837651737034321,0.004149492364376783,0.0017319321632385254,-0.001244586892426014,0.000571706797927618,-0.0002238336019217968,0.002890829462558031,0.004975658375769854,-0.003623735625296831,-0.004871321376413107,-0.005142890382558107,-0.0038120332174003124,-0.005097430199384689,-0.0002322755753993988,0.000401410274207592,-0.004852049518376589,-0.0010895715095102787,0.00117138447239995,-0.003857595147565007,0.003432567697018385,0.0007687630131840706,-0.004128647968173027,-0.00030724145472049713,-0.003114163875579834,0.0018044644966721535,0.00476977089419961,-0.001319805858656764,-0.0010216054506599903,-0.0018176711164414883,-0.0013987540733069181,-9.971577674150467e-05,0.0021429755724966526,0.001687789335846901,-0.0004853098653256893,-0.0025576220359653234,0.0022345008328557014,-0.004791921004652977,0.0036647277884185314,-0.00428052619099617,0.0021407236345112324,0.00236249016597867,0.004985229577869177,-0.0022652638144791126,0.004248324315994978,-0.0022660044487565756,0.0022515100426971912,0.0022845491766929626,0.0025072209537029266,-0.000574873760342598,0.0038725505582988262,0.004600775893777609,0.0005471366457641125,-0.001323441043496132,-0.004341084510087967,-0.004183607175946236,0.0014549847692251205,0.0014120694249868393,0.0042463005520403385,-0.004405585117638111,-0.0037836781702935696,-0.0004343949258327484,-0.00491429353132844,-0.001913893036544323,-0.0016846656799316406,0.0016812174580991268,-0.000885404646396637,0.002637594472616911,-0.00031080516055226326,-0.0006977501325309277,0.0023782160133123398,-0.000607833731919527,-0.0005928310565650463,0.0031074746511876583,0.001526594627648592,0.0016702711582183838,-0.001985521288588643,-0.0013480880297720432,-0.0006313459016382694,-0.004108150489628315,-0.002227609744295478,7.727742195129395e-05,0.0005341777577996254,-0.0039593810215592384,0.0014161928556859493,-0.003829065477475524,0.0020204829052090645,-0.004470753483474255,-0.004294329788535833,0.004758841823786497,-0.004479803144931793,0.0010231253691017628,0.0034944801591336727,0.0028610224835574627,-0.001338505418971181,0.0009948010556399822,0.003703238908201456,0.0006487425416707993,-0.002283597830682993,-0.00020835548639297485,-0.0005452167242765427,-0.0015423812437802553,-0.004301644396036863,-0.0021312774624675512,-0.002054531592875719,0.0011088941246271133,-0.0013256741221994162,-0.001211598515510559,-0.002676505595445633,-0.0008674087002873421,-0.0038147009909152985,0.0019125379621982574,-0.001789942616596818,0.00268287630751729,-0.001536940224468708,0.0031701051630079746,0.0010886318050324917,-0.0027698813937604427,-0.0004868418909609318,0.0008990387432277203,-0.0009241513907909393,-0.0009850799106061459,0.003808643203228712,-0.0034889159724116325,0.00013949396088719368,0.00195995531976223,0.0009983992204070091,-0.0014741327613592148,-0.003397863358259201,-0.003652414074167609,-0.00048040924593806267,-0.0007420079782605171,-0.005022475961595774,-0.0001452234573662281,-0.0022131262812763453,-0.002281616209074855,0.004386199172586203,0.003129668068140745,-0.004293623846024275,-0.0014267561491578817,0.0032879975624382496,0.0027800328098237514,-0.0017189509235322475,0.0027117212302982807,0.002785290125757456,0.003518653567880392,-0.004868980497121811,0.003980789799243212,0.0024772952310740948,0.003625305835157633,0.004898393992334604,0.00023618526756763458,-0.0021345585118979216,0.004267675336450338,-0.0011745155788958073,0.000864734873175621,6.260816007852554e-06,0.0008202935568988323,0.00471653463318944,-0.0038970662280917168,-0.0009886519983410835,-0.004891538061201572,-0.003333514090627432,0.00508433161303401,-0.0028036674484610558,0.0008989358320832253,0.004511720035225153,0.0020345626398921013,-0.004177351016551256,0.003859741147607565,0.004883232060819864,-0.003684630850329995,0.0042694066651165485,-0.0007500774227082729,0.0035242834128439426,0.002366278786212206,-0.0023606137838214636,0.003705205861479044,0.002372290939092636,-0.002216118620708585,0.0009561711922287941,-0.004024696536362171,-0.0011798227205872536,0.0050768484361469746,-0.0011399788782000542,0.005162632558494806,0.004666571971029043,-0.0037972237914800644,-0.0002751224674284458,-0.005106042604893446,-0.003265286795794964,0.003312146756798029,0.0009758984670042992,0.0016321158036589622,0.0033536474220454693,0.003778201062232256,-0.0024402765557169914,-0.0021530832163989544,0.0002567810006439686,0.003296415787190199,0.0038860714994370937,0.0028343074955046177,0.003219104837626219,-0.00027578510344028473,-0.0018259233329445124,-0.005120838526636362,-0.003520067548379302,0.0008343285880982876,0.00035427510738372803,-0.0039791204035282135,-0.0022496890742331743,-0.0030650533735752106,-0.0006722030229866505,-0.004632558207958937,0.002523683477193117,-0.0017496393993496895,0.0007452010177075863,-0.002637335564941168,-0.002766238758340478,0.0014875424094498158,-6.64563849568367e-05,-0.004413438495248556,0.0007544565014541149,0.004340842831879854,-0.0010587666183710098,-0.004784623626619577,-0.001416265731677413,-0.005009972956031561,0.002433831337839365,-0.002685840241611004,-0.0023689009249210358,0.0016159922815859318,0.003117732238024473,0.0025790794752538204,-0.0006871679797768593,-3.4356489777565002e-06,0.0005644648335874081,-0.0040599871426820755,0.0014311010017991066,-0.004900086205452681,0.001474549062550068,-0.000984137412160635,-0.0005962373688817024,0.0004330719821155071,0.0020526391454041004,-0.00021788710728287697,-0.0009395461529493332,0.0021289153955876827,0.003319129813462496,0.002853380050510168,-0.0011323397047817707,-0.0018030698411166668,-0.0005661565810441971,0.0022202441468834877,-0.003588605672121048,-0.003505113534629345,-0.0006565256044268608,-0.0028100137133151293,0.0020906226709485054,0.004106831271201372,0.00022097257897257805,-0.00038780970498919487,0.0007815496064722538,-0.0016214828938245773,0.003957277629524469,-0.00029989611357450485,0.00322439381852746,0.0018550711683928967,-0.0014571165665984154,-0.003217527410015464,-0.0021465313620865345,0.0024297749623656273,0.0011166385374963284,0.0028889249078929424,-0.00018288008868694305,-0.0007146722637116909,-0.004437296651303768,0.004698451142758131,-0.0011505945585668087,-0.003251797752454877,-0.0006022700108587742,0.0013238759711384773,-0.002346217166632414,-0.0014536150265485048,-0.0021943587344139814,0.004158687312155962,-0.0011301608756184578,0.0012550847604870796,-0.002290185773745179,-0.004131626803427935,-0.0012859469279646873,0.0013755117543041706,-0.005130781326442957,-0.0029295054264366627,-0.0005833329632878304,0.003940145950764418,-0.0030483517330139875,-0.0029481069650501013,0.003991177771240473,0.0005002082325518131,0.0006362372078001499,0.004525971133261919,0.0037026512436568737,-0.003615712281316519,-0.001959950430318713,0.004619941581040621,-0.004676047246903181,-0.0006738477386534214,0.0035528563894331455,-0.004103923216462135,-0.004614019766449928,-0.003473496064543724,0.001582663506269455,-0.001348867081105709,0.0020428188145160675,-0.002564981346949935,0.0037484564818441868,-0.00021420884877443314,-0.003909144550561905,0.0014265840873122215,0.001447414979338646,0.003272970672696829,0.003922993782907724,0.0017751259729266167,0.0016677160747349262,0.002195579931139946,-0.0030333581380546093,0.00014012958854436874,-0.0032230401411652565,0.0036623203195631504,-0.0012946710921823978,0.0051692877896130085,0.0038202484138309956,-0.0027162712067365646,-0.004098739940673113,-0.0006925323978066444,-0.0036099818535149097,-0.004860410932451487,0.0011146236211061478,-0.0024204414803534746,0.002554775681346655,-0.00017582299187779427,0.0010003633797168732,0.0037310789339244366,-0.00026149023324251175,0.002997978124767542,-0.0028648797888308764,-0.0031434912234544754,-0.0005517043173313141,-0.005009565502405167,-0.002270397497341037,-0.002056807978078723,-0.0034310847986489534,0.004909686278551817,0.0026833866722881794,0.0027375691570341587,0.001441621221601963,-0.0011932696215808392,-0.003874357556924224,0.0020986469462513924,0.0034158932976424694,0.0023081074468791485,0.004635858815163374,0.00397645914927125,0.00419505825266242,0.0021829060278832912,0.0009482051245868206,-0.0018988719675689936,-0.0021249435376375914,-0.000796179287135601,0.0007577463984489441,-0.002474334090948105,-0.003928776364773512,-0.0008044005371630192,0.0017064576968550682,-0.0033097676932811737,0.0014531877823174,0.004830701742321253,0.0029463344253599644,0.005044153425842524,0.0008636191487312317,0.0007633557543158531,0.001865987665951252,-0.0032414174638688564,0.002418326213955879,0.0017590508796274662,-0.0011209114454686642,-0.002980360994115472,0.00037778494879603386,-0.0019413996487855911,0.0017688702791929245,-5.4649077355861664e-05,-0.0006810957565903664,-0.0009594359435141087,0.0029331729747354984,0.0005253022536635399,-0.003130335593596101,0.0037629581056535244,0.003390032332390547,-0.0008675935678184032,0.0017737625166773796,-0.0038454525638371706,0.004186838399618864,0.0005322764627635479,0.0008887909352779388,0.00098892068490386,0.004360945429652929,0.0005513872019946575,0.0020646466873586178,0.003064574208110571,0.0010341992601752281,0.00010191928595304489,-0.004766006954014301,-0.0010807174257934093,-0.002665214939042926,-0.0004322635941207409,0.00032332027330994606,-0.001932000508531928,0.004359056707471609,-0.0005069025792181492,-0.0006333622150123119,0.0007052221335470676,-0.004490027204155922,-0.004435401875525713,-0.002400529570877552,0.0006799711845815182,-0.0031678855884820223,0.002998917829245329,0.001930789090692997,-0.0023861215449869633,0.0012215860188007355,-0.0037320596165955067,0.0042924717999994755,0.001940370537340641,0.0007121111266314983,-0.001899211434647441,0.0022618654184043407,0.0026555941440165043,-0.0021506568882614374,-0.0007867170497775078,-0.0014016423374414444,0.000627739354968071,-0.003884876612573862,0.002384957391768694,-0.003180637490004301,-0.004691856913268566,-0.004357824567705393,-0.002160649513825774,0.0015366110019385815,-0.0024544987827539444,-0.003890854772180319,-5.4280273616313934e-05,0.004583419766277075,0.004780471790581942,0.0029236082918941975,-0.0020674928091466427,-0.00021697720512747765,0.0016011917032301426,9.563611820340157e-05,0.0023091044276952744,0.003310639876872301,-0.0020992960780858994,0.0004428233951330185,0.0042547560296952724,-0.0008211988024413586,0.0012858142144978046,-0.0006929757073521614,-0.0003748261369764805,-0.0009715440683066845,-0.0027605886571109295,0.001264309510588646,0.003169695381075144,0.0006275265477597713,0.005184334237128496,-0.0012204134836792946,0.002299791667610407,-0.004996313247829676,-0.003448043018579483,-0.0032374022994190454,0.0002956697717308998,-0.00012510735541582108,0.0037032547406852245,-0.0012172362767159939,-0.00045900093391537666,-0.002726566046476364,0.0010175877250730991,0.0028074835427105427,-0.0011677383445203304,-0.0029305543284863234,0.0015705814585089684,0.0032315771095454693,-0.003028114093467593,-0.001037590205669403,-0.0008407705463469028,-0.0030342484824359417,0.003038667608052492,0.0034243869595229626,0.0025020549073815346,0.00038577383384108543,-0.005165285896509886,0.0010610343888401985,-0.005041965749114752,0.0020204358734190464,0.002925014588981867,0.0007790368981659412,0.0005220696330070496,-0.0026214264798909426,-0.004507061094045639,0.0048842416144907475,0.003500312101095915,-0.0022389672230929136,-0.004657558165490627,-0.0020325374789536,0.0029236250557005405,0.00429916987195611,0.004677735734730959,-0.00044833729043602943,-0.0015196651220321655,-0.00486593134701252,0.0015501528978347778,-0.0021237980108708143,0.004865808878093958,-3.5981647670269012e-06,0.0002919207327067852,0.003470869269222021,-0.004080398008227348,0.0036979899741709232,-0.0032670677173882723,-0.00193696073256433,-0.0029728084336966276,0.005061058793216944,0.0012237746268510818,-0.0038469042629003525,0.0020237783901393414,0.0003432915546000004,0.0006596529856324196,-0.00016043893992900848,-0.0009485455229878426,7.295049726963043e-06,-0.0019959858618676662,-0.0028230592142790556,-0.004484015516936779,-1.835264265537262e-05,0.004923833068460226,0.0001135985367000103,-0.004346797708421946,-0.0017437811475247145,0.004525578115135431,0.0032365252263844013,-0.0030436848755925894,-0.00356636056676507,-0.003061773721128702,-0.003087484510615468,-0.001830624882131815,-0.0023188875056803226,-0.0016371726524084806,-0.0016476134769618511,-0.0027405156288295984,0.0008285809308290482,-0.0006603016518056393,-0.0011924123391509056,-0.0030395693611353636,-0.0018701194785535336,-0.0015890109352767467,-0.0024946497287601233,0.0011350978165864944,0.004752543289214373,-0.0028796170372515917,-0.0037545005325227976,-0.0033443374559283257,-0.0021486133337020874,-0.0004914631135761738,0.0036984779872000217,-0.0034321858547627926,0.0038426597602665424,-0.002127727959305048,0.004169758874922991,-0.0019970806315541267,-0.0034317313693463802,0.002310293260961771,0.004104953724890947,-0.001079251989722252,0.002869082149118185,0.0042871334590017796,0.0024235029704868793,-0.001265727449208498,-0.001098365057259798,0.002815856132656336,0.002100087236613035,-0.0032770850230008364,-0.0006547900848090649,0.005040609743446112,-0.0005589337088167667,-0.002624981105327606,0.002544643357396126,0.0038636592216789722,-0.003877276787534356,0.005031356122344732,-0.00037785572931170464,0.0012295795604586601,0.002666571643203497,-0.0020390236750245094,-0.005019082687795162,0.0013404609635472298,0.002818127628415823,-0.0024413405917584896,0.001219719648361206,0.003624396864324808,-0.0016863425262272358,4.824623465538025e-05,0.00472960015758872,-0.004190944135189056,-0.0019277622923254967,-0.0019364927429705858,0.004134108778089285,0.0034809322096407413,-0.0007313406094908714,0.0026086238212883472,-0.003673481522127986,-0.005020685028284788,2.01263464987278e-05,0.00025311391800642014,0.002168977167457342,-0.0006235777400434017,-0.0011677914299070835,-0.0037466580979526043,-0.003822254715487361,-2.957414835691452e-06,-0.0023481976240873337,-0.0030473696533590555,-0.0030858535319566727,-0.0031452772673219442,-0.004803704563528299,-0.0021814594510942698,-0.0038558896631002426,-0.003009132342413068,-0.0024350921157747507,0.0012213420122861862,-0.0004876432940363884,0.0006178407929837704,0.0023288740776479244,-0.00011884747073054314,0.0033278516493737698,-0.0038598207756876945,0.0036932225339114666,0.0023809121921658516,-0.005034914705902338,-0.003790347371250391,-0.0002973731607198715,-0.004498207941651344,-0.0006981105543673038,0.0007821801118552685,-0.003620171220973134,-0.0017335866577923298,0.0015586493536829948,-0.002012833720073104,-0.004724510014057159,0.0008436921052634716,0.0023534526117146015,0.004004774149507284,0.0050164335407316685,0.0019090604037046432,-0.0035690939985215664,-0.003961456473916769,0.0023135035298764706,-0.0010291212238371372,0.003580947872251272,-0.0001527266576886177,0.004837920423597097,0.002847192343324423,-0.0005054855719208717,6.182026118040085e-05,0.0035995147190988064,-0.0018068263307213783,-0.0036890897899866104,0.003968730103224516,0.005076627712696791,0.0015947762876749039,-0.0015400366391986609,-0.00033216364681720734,0.0006431196816265583,0.0015945620834827423,0.004198514390736818,-0.0015773598570376635,-0.0034151473082602024,-0.0022626183927059174,0.002437618561089039,-0.0013066267129033804,-0.00021199043840169907,0.003211496863514185,-0.0012477911077439785,0.005074003245681524,0.0001355246640741825,-0.0013650956097990274,0.004137240815907717,-0.00257046427577734,0.003198570106178522,-0.0014775337185710669,-0.004512495826929808,-0.0009499983862042427,0.0034575792960822582,-0.002906238194555044,0.004414392169564962,0.0048624672926962376,-0.0022616435308009386,-0.002499022986739874,0.0027320715598762035,-0.00041689304634928703,0.0013138907961547375,-0.004018810577690601,-0.001353248953819275,0.002868134994059801,0.0009404788725078106,-0.0007121446542441845,-0.000842780340462923,0.0038986667059361935,-0.0023593108635395765,-0.0026334847789257765,0.0036400719545781612,-0.004891673102974892,0.0009555360302329063,-0.00048081018030643463,0.0011464948765933514,-0.0025524040684103966,-0.0012689344584941864,-0.004971229005604982,0.0032249833457171917,-0.0023753957357257605,-0.0009771930053830147,-0.0042682671919465065,0.0006681713275611401,0.00245263846591115,0.00015384145081043243,-0.0042244563810527325,0.002962786238640547,0.002780844923108816,-0.0008770730346441269,-0.004854179918766022,0.004948415327817202,-0.0026443381793797016,0.0035677128471434116,-0.0006605754606425762,-0.0012422897852957249,-0.000238100066781044,-0.003962723538279533,0.001566693652421236,0.004275710787624121,7.781712338328362e-05,0.0003275587223470211,-0.004191199317574501,-0.0047924574464559555,0.002969623077660799,-0.003058504080399871,-0.004473303444683552,0.002292646560817957,0.0010055936872959137,0.004389278125017881,0.00337005453184247,0.0010646572336554527,-0.0007187845185399055,0.004029756877571344,0.0025245267897844315,0.0018470725044608116,-0.002235325751826167,7.960014045238495e-06,-0.004038176499307156,-0.002897996921092272,-0.002037382684648037,-0.0011752573773264885,0.004027161281555891,-0.004519904498010874,0.0007280921563506126,-0.00013361219316720963,0.0009673861786723137,0.0029691155068576336,-0.003605021396651864,-0.0030403779819607735,